-0.464904;-0.3605;-0.419431;-0.140675;-0.376919;0.314631;0.443388;0.491668;0.409909;-0.134205;0.166402;-0.141224;-0.298273;-0.195425;-0.0753044;-0.192709;0.344234;-0.0615406;-0.237022;0.301141;-0.348964;0.209494;-0.294794;0.218131;-0.360317;0.112842;0.12389;0.367183;-0.395505;0.101642;0.150166;0.382473;0.0594653;-0.115406;0.406583;-0.349178;-0.419095;0.0222022;-0.156972;-0.0714591;-0.417844;-0.271905;-0.042375;-0.196158;-0.449095;0.281945;0.183462;-0.338527;-0.21923;-0.0404523;-0.277184;0.305261;0.128315;-0.112873;-0.390255;-0.104724;-0.173482;-0.27459;0.282434;0.3558;-0.113514;-0.409757;0.446562;-0.0900754;0.117817;0.115619;-0.488891;-0.102374;0.299829;0.0657216;0.377499;-0.466735;-0.46588;0.401852;-0.136586;-0.241264;0.310175;0.210776;-0.457091;-0.151631;0.314966;0.400784;0.283654;-0.0775018;-0.481903;-0.42877;0.262505;0.0251015;-0.436369;-0.0374615;-0.258812;-0.0777764;-0.000473037;-0.107776;0.382809;0.27752;0.3764;-0.416257;0.390591;0.360714
-0.253166;-0.205985;0.250145;-0.0542161;-0.403958;0.146016;0.356685;-0.445311;-0.264428;-0.427244;0.308008;-0.296869;0.191092;-0.22103;0.144887;0.304498;-0.384365;0.126301;0.319941;-0.111957;0.259514;-0.151173;-0.323786;-0.211631;0.0278787;0.00492874;0.217002;-0.0388958;-0.34225;0.0715201;-0.0524766;-0.417692;-0.454741;-0.412748;-0.429441;0.0871456;0.25454;-0.249107;0.316584;-0.1957;0.239494;0.380856;-0.310114;-0.157704;-0.190176;0.142232;0.41229;0.38406;-0.127674;0.448057;0.344844;0.0459456;0.47882;-0.0597705;-0.330195;0.457427;-0.287988;-0.0430769;0.113453;-0.28225;-0.0593738;-0.10741;0.490844;-0.114093;-0.0253761;-0.143208;0.354671;0.15981;0.152394;-0.461943;0.028489;-0.0986206;-0.109455;-0.320826;-0.193991;0.163533;-0.271935;0.0698721;-0.402249;-0.124653;0.39584;0.463561;-0.193838;0.341762;-0.0575121;0.323908;-0.289544;0.213767;0.448698;-0.192007;0.142659;-0.414212;0.360042;-0.10802;-0.264458;0.376247;-0.0292825;0.0452742;-0.475463;-0.352626
0.0886715;0.360317;0.184072;0.0209204;0.413572;-0.456755;-0.319971;-0.154225;-0.34106;-0.327479;-0.380459;0.273736;-0.0499435;0.13097;0.0791803;-0.100208;-0.472259;-0.381802;0.192984;0.123096;0.290826;-0.350764;0.281487;-0.115192;0.207205;0.445891;-0.196982;-0.0606861;0.125599;-0.37344;-0.0914182;0.314753;0.0187536;-0.398404;-0.118763;0.119282;0.189657;0.0797601;0.241935;0.349269;0.471862;-0.407956;-0.197897;-0.144215;-0.0448469;0.439909;0.445402;0.125568;0.268029;-0.0271767;-0.0816523;0.0323344;-0.0522935;-0.397031;0.412961;0.215629;-0.0702994;0.461791;0.220878;0.242332;-0.312464;0.105792;0.241386;0.20809;0.0541551;0.177297;-0.375881;-0.0660573;0.256157;0.426603;0.327815;0.415433;0.192373;0.00151067;-0.123829;-0.320612;0.487579;0.411039;0.0925169;-0.294214;0.353023;0.0686819;0.0938597;-0.430357;-0.215232;-0.177267;0.326411;0.460326;0.131245;0.378414;-0.077105;-0.266198;-0.438902;0.019303;0.163839;-0.345241;0.462737;-0.466124;0.323145;-0.0162206
0.306726;-0.247032;-0.319819;0.0669729;0.00245674;-0.394742;-0.0213172;-0.416318;0.279962;0.0963622;0.114551;-0.391446;0.128681;0.117939;0.333033;0.14449;-0.176229;0.493347;-0.282678;-0.217795;-0.428159;0.1657;0.249199;-0.356532;0.307062;-0.0652028;0.223014;0.263451;-0.331477;-0.350856;0.294946;-0.431242;-0.308863;0.259331;-0.052324;-0.392148;0.240196;-0.36111;-0.347133;0.188986;-0.278771;-0.420835;-0.488281;0.0831172;0.0972167;-0.136036;-0.344356;-0.0525071;-0.257347;-0.169149;0.187643;-0.374111;0.167806;0.324915;-0.0538804;-0.0176855;0.142445;0.451079;-0.127644;-0.0760063;0.251885;0.0321207;0.262413;-0.229728;0.415616;0.177358;-0.314753;-0.376705;0.39996;-0.130726;-0.151814;-0.103107;-0.143422;-0.026017;0.190603;-0.340052;-0.0829646;-0.418546;0.487762;-0.0493637;-0.124287;0.0826289;0.245293;-0.2828;-0.00840785;-0.11153;0.16625;-0.457488;-0.0594348;0.198325;0.471435;-0.192434;-0.0506149;-0.27691;0.354701;0.450835;0.142384;-0.230003;0.354091;-0.0202185
0.132435;-0.405515;-0.0796686;-0.109699;0.387387;0.426511;-0.0361492;0.150868;0.402921;0.0763115;-0.338435;-0.0929746;0.21337;-0.472839;0.304651;0.0632191;0.271996;0.420164;0.468413;-0.102344;0.230979;-0.16213;0.286126;0.366573;-0.346187;0.293634;0.107227;0.254204;0.190085;0.331446;0.321589;-0.175069;0.244499;-0.356136;-0.36874;0.133351;-0.328669;0.113727;-0.449492;-0.351161;-0.474303;-0.314325;0.415708;0.351131;0.402402;0.474364;-0.313776;-0.0477157;0.393979;0.0148778;-0.182333;0.402432;0.199454;0.0623646;0.488556;0.33462;0.414304;-0.153554;0.461608;-0.394559;-0.466399;0.187094;-0.138539;-0.412259;-0.300775;0.378018;0.149251;0.371334;-0.277673;0.24398;-0.424192;-0.471801;0.412687;0.278008;0.394864;-0.401395;-0.254295;0.265221;-0.383145;-0.0460677;-0.101184;0.298914;-0.414579;0.192801;-0.312006;-0.404324;0.157064;-0.2734;0.436125;0.0156407;-0.234214;-0.289117;-0.195944;-0.30633;0.153645;-0.0215308;-0.383938;-0.311213;0.0486923;0.130909
0.210562;0.0566576;-0.42877;0.444426;0.347255;0.252892;-0.34991;-0.253624;0.202597;0.272057;0.229637;-0.0809503;0.484069;0.429685;-0.450774;0.186026;0.194998;0.192984;0.27633;-0.161306;0.0808588;-0.0335551;-0.226127;-0.441954;0.288751;0.239158;0.284295;-0.0115207;0.270653;-0.000747703;0.310327;-0.280114;0.462401;-0.177389;-0.0254677;0.334254;-0.230918;-0.458739;-0.361354;-0.327357;0.388485;-0.101581;-0.436216;-0.0203406;0.00343333;0.0959349;-0.107044;0.0805841;-0.125111;-0.359432;-0.262841;0.248314;-0.133686;0.395444;-0.353694;-0.0842463;-0.0687124;0.242668;0.245872;-0.109455;0.0948363;0.263817;0.321131;0.22747;0.46057;-0.156209;0.129719;0.415738;0.274224;-0.394711;0.224113;0.0368206;-0.424863;-0.420835;-0.435087;-0.450865;0.466979;-0.48236;0.206626;0.356258;-0.461486;-0.243889;0.336756;-0.185995;0.466643;-0.469665;-0.0502792;0.33404;0.331568;0.154683;-0.0629749;0.238609;-0.323267;-0.0319987;-0.125752;-0.476073;-0.156087;0.453459;0.287011;0.188162
-0.38525;0.438383;-0.323817;0.279534;-0.309473;-0.219626;0.0848567;0.322077;0.0408795;0.446043;0.486663;0.273949;-0.347102;0.388546;-0.221641;-0.324244;-0.287957;0.130299;-0.343013;0.144215;-0.254387;0.456908;0.162709;-0.132191;-0.239189;0.128681;0.169271;0.260949;-0.0923338;0.0160985;-0.397122;0.432005;-0.300806;-0.434812;-0.329035;-0.377255;0.318903;-0.000686666;-0.118397;0.274224;0.0477157;0.163564;0.135548;-0.124073;0.341395;0.417905;-0.328303;0.254662;-0.410825;0.485473;0.147328;0.4588;0.0858943;-0.337794;-0.365902;-0.105304;0.247642;0.29397;-0.188223;-0.128712;-0.396786;-0.0724967;0.140156;0.209067;-0.407773;0.0416425;0.290704;0.0696585;-0.29931;-0.235435;-0.38052;-0.337275;-0.0337687;0.483947;-0.0377972;-0.0142979;0.38345;-0.244438;-0.467376;0.253136;0.240867;0.417447;0.206076;0.17159;-0.0790887;0.314844;-0.0313578;-0.283074;0.194113;-0.456847;-0.186178;-0.430845;-0.46176;-0.385372;-0.132252;-0.137684;-0.485199;0.454863;0.0238807;0.40466
-0.267327;-0.364071;-0.13094;0.0259255;0.431455;-0.247856;0.181692;0.208029;0.214896;0.344234;-0.216788;-0.345241;-0.0338908;0.279015;0.0248878;-0.0423139;0.475585;-0.00978118;-0.310022;0.0134739;-0.186636;0.486969;-0.40643;0.34991;-0.0233314;-0.464232;-0.339076;0.0160985;-0.155904;-0.0767388;-0.234703;0.193411;-0.0322123;0.20452;0.107166;0.18337;0.234611;-0.155599;0.415342;-0.0711844;-0.0722221;0.157704;-0.248131;-0.275475;0.220328;-0.0458235;0.201712;0.273339;-0.369045;0.295068;0.22808;-0.255486;0.474792;0.267083;-0.0244606;-0.00990326;-0.161397;0.18041;0.301233;-0.424131;0.113575;0.0965453;-0.183981;-0.217154;-0.384701;0.0925779;-0.283197;0.235893;0.323237;0.168203;-0.309259;0.315394;0.270409;0.201193;-0.326807;0.00852992;-0.385006;-0.141743;-0.259362;0.356136;-0.0755486;-0.13274;-0.0808893;0.15154;-0.295984;-0.443327;0.19039;0.0476241;-0.299493;0.0692923;0.476348;-0.271569;0.0129246;0.155568;-0.116718;0.301172;-0.459349;-0.0462813;-0.0126499;-0.434446
-0.198965;-0.337764;0.441771;0.316187;-0.352718;-0.489044;-0.311914;0.334162;-0.081988;-0.062212;0.0521104;0.224845;-0.450377;0.376064;0.00550859;-0.24279;0.182943;-0.439879;-0.124928;-0.138386;-0.204947;-0.245598;-0.219749;-0.0582446;0.388119;-0.187521;0.0806452;-0.34225;0.265618;0.472777;0.114307;-0.164266;-0.0719169;-0.203513;-0.491577;-0.339106;0.119221;0.154744;-0.156362;-0.189993;0.0534227;-0.329524;-0.0472274;-0.320521;0.356349;-0.478179;-0.36404;0.365535;-0.250328;0.0130161;0.0728324;-0.44763;0.0111545;-0.18096;-0.286767;-0.0348369;0.241325;0.310785;-0.072161;-0.456664;-0.0318766;0.365749;0.199484;-0.00901822;0.120624;-0.427854;0.137135;-0.139393;0.403287;0.231376;0.0932188;-0.17394;0.10152;0.0654775;-0.334498;0.301447;-0.149312;0.0363323;-0.134602;0.0616626;0.398648;0.18215;0.233146;0.0215613;-0.106037;-0.122303;-0.318201;-0.170858;-0.269005;0.425016;0.350917;0.429807;0.482421;0.380001;0.250938;0.257164;-0.0488449;-0.478271;-0.0195471;0.207511
-0.127308;-0.129017;0.296472;0.0534227;0.298944;-0.337031;-0.180532;0.453215;0.195059;-0.31753;-0.345027;0.212088;0.280419;-0.134388;0.211692;-0.0479904;-0.355129;-0.423917;-0.00132756;-0.15453;0.171834;0.46118;-0.317896;-0.429716;0.299005;0.294061;0.183004;0.141285;0.148427;-0.29104;0.0972472;-0.224937;-0.442991;0.234916;0.219199;0.444487;0.0384381;-0.465453;0.450102;0.278588;0.208029;0.254448;-0.127857;0.464537;-0.298059;0.392819;0.27044;-0.192129;0.121601;-0.40875;-0.117145;-0.392819;0.0347758;0.256371;-0.339991;-0.000686666;-0.435453;-0.0822321;-0.183798;0.43173;-0.402524;-0.271203;-0.0474715;0.418058;0.142109;-0.484161;-0.46643;0.232902;-0.130879;0.282983;-0.00105289;-0.297388;0.364467;-0.422361;0.290613;-0.252129;0.126331;-0.375698;0.0776238;-0.165548;-0.161946;-0.368587;0.459593;-0.0114902;-0.0529649;0.179006;0.42938;-0.467559;0.08211;0.0921812;-0.122639;0.19808;0.339564;-0.292596;0.417722;-0.227592;-0.0300455;-0.0623646;-0.181997;-0.0664846
0.496338;0.0422834;0.314051;0.431639;-0.204581;-0.49115;-0.409757;0.272423;0.172964;-0.0480514;-0.292322;0.0584277;-0.0356609;0.436125;-0.239677;0.144978;-0.307947;0.128773;-0.458831;-0.233299;0.310877;-0.310389;-0.000442518;-0.208884;-0.427854;0.302362;-0.229667;0.255425;0.0388348;-0.244621;-0.442961;0.342524;-0.218406;0.477752;-0.350581;-0.0468612;0.288324;-0.0640736;0.357295;-0.470489;-0.382534;0.298853;-0.358669;0.287591;0.32696;-0.22396;-0.277154;-0.486663;0.209555;-0.463439;-0.0472274;0.0801874;0.366298;-0.386349;-0.277947;-0.157002;-0.350948;-0.297723;-0.305719;0.0655385;0.00331126;0.255547;0.141591;-0.462737;-0.257256;-0.214103;-0.334437;-0.464049;0.286767;-0.221885;0.0841548;0.291986;0.391781;0.119312;-0.234428;0.111103;0.408536;0.453276;0.191183;-0.188314;-0.404599;0.364559;0.0276345;-0.367641;0.0201575;-0.200919;0.490448;0.266991;0.0802484;-0.372829;0.279595;0.182516;0.174184;-0.244377;-0.131275;-0.123524;-0.446104;-0.305475;0.429106;0.230155
-0.109485;-0.0142064;0.169515;-0.386349;-0.416074;0.398984;0.373592;-0.100696;0.347957;0.301019;-0.0844905;0.039201;0.101886;0.106128;-0.464476;0.363918;-0.299615;0.211966;-0.343501;0.257714;-0.467986;0.328333;0.0226295;0.367336;-0.481536;-0.395383;-0.0581225;-4.57778e-05;-0.45468;0.462706;0.4129;-0.133015;-0.144215;-0.459288;-0.0817133;-0.170156;0.438444;-0.345363;0.164815;-0.196188;-0.0595874;0.183767;-0.447661;0.47644;0.13741;-0.214072;-0.347499;-0.00331126;0.491272;-0.150349;0.478332;0.290979;-0.173147;-0.411924;-0.174001;0.162252;-0.340541;0.182577;0.470641;-0.171102;0.203635;-0.119343;0.496155;0.0590686;-0.405118;0.455809;-0.458342;-0.443052;0.355831;-0.0655385;0.245018;-0.242546;-0.362667;-0.00273141;-0.335536;-0.314844;0.266686;-0.0400861;-0.03914;0.0339518;0.133229;-0.259362;0.120167;0.123859;-0.0564745;-0.279717;-0.00151067;-0.109302;-0.123249;-0.0990783;0.470855;-0.434355;0.171621;0.269951;-0.035783;0.200125;0.176412;-0.224815;0.157125;-0.307306
-0.106983;-0.182241;0.126087;0.474425;-0.453612;-0.331446;-0.279168;-0.491607;0.210654;-0.284783;0.449126;-0.239921;0.0230262;-0.0551622;-0.347407;-0.205344;0.0170446;-0.430204;0.255272;-0.342555;0.106067;0.202261;-0.135334;-0.306085;0.248344;0.483367;-0.491241;0.46527;0.32522;-0.425626;-0.211692;0.416044;-0.236839;0.415128;-0.273675;0.450011;0.431516;0.155904;0.0966979;0.0703909;-0.153493;-0.329768;-0.488037;0.240776;0.213614;-0.446776;0.0524766;-0.37698;0.338679;-0.48706;-0.282434;0.348537;-0.0605335;-0.439573;0.480468;-0.0214393;0.389187;-0.0951109;0.227744;-0.189291;0.422422;-0.0399335;0.365139;0.187155;-0.164388;0.368374;0.370144;-0.0391705;-0.287225;0.448759;0.0735649;-0.223319;0.207694;-0.0253761;-0.0494552;0.322932;0.414274;-0.311853;0.202841;0.209769;0.355892;0.457152;-0.0869625;-0.368892;-0.374752;0.480651;0.0528123;0.465697;-0.294366;0.449889;-0.374783;-0.025895;-0.494659;0.0701468;-0.276208;-0.252495;0.136067;-0.149342;-0.211753;0.0647755
0.466704;-0.432127;-0.160848;0.314051;0.483917;0.30932;-0.0279397;-0.365291;-0.00959807;-0.496826;-0.107074;0.436949;-0.327509;-0.158925;-0.224479;-0.0463118;0.0679495;0.499237;0.222617;0.482757;0.465606;-0.435209;-0.388363;0.474181;0.267632;0.0738395;-0.393277;0.119831;-0.153676;-0.433744;0.117634;-0.399045;0.425901;-0.43469;0.487487;-0.349544;0.0211035;-0.113544;0.190054;-0.414396;-0.0362102;0.183157;-0.181631;0.467925;0.0484787;-0.36523;-0.354884;-0.453978;-0.171621;0.183798;-0.463012;-0.36166;0.0930967;0.2275;-0.496338;-0.389004;0.0591296;0.17156;-0.337397;-0.391964;0.30459;-0.249138;-0.098529;0.189718;-0.0207068;-0.475738;0.0187536;0.0352336;0.321497;0.449461;-0.375698;0.366237;0.0124058;-0.0559252;-0.419065;-0.2528;0.400113;0.339473;0.26812;0.419126;0.123554;0.133259;0.44937;-0.177602;0.168447;-0.0530259;0.0241859;0.465911;-0.114093;-0.404996;0.446409;-0.202628;0.00520341;0.171255;0.0892819;0.232658;0.172079;-0.440764;0.339534;-0.00114444
0.0434736;0.272973;-0.299158;-0.0515;0.470458;0.0332804;-0.311304;0.000686666;-0.200125;-0.0124363;-0.202872;0.365139;-0.173238;-0.0222938;0.319239;0.206046;0.428282;-0.236503;0.302332;-0.0986206;0.410367;-0.39285;0.419248;-0.445738;-0.401181;0.125507;0.036729;-0.0873592;-0.294397;-0.183981;0.262505;0.353114;0.00181585;0.162893;0.251976;0.0856197;0.328455;-0.270623;-0.444029;0.235435;0.476562;0.142842;-0.209006;-0.042375;0.467589;0.378567;0.412564;0.241661;-0.234672;0.24865;-0.126484;-0.438749;-0.0489364;-0.497864;-0.0514084;0.0264748;-0.107685;0.443022;-0.494201;0.193838;-0.0623951;0.471618;-0.493316;0.191;0.167409;0.45642;-0.483886;0.312037;0.233085;0.342128;-0.496704;-0.260216;-0.184835;-0.0997803;0.214835;-0.448698;0.231773;0.028428;-0.09859;-0.337123;0.228751;-0.494873;-0.320612;-0.129414;0.482879;-0.394589;0.3081;-0.357143;-0.151173;0.484375;-0.335322;-0.178488;-0.11803;-0.265801;-0.302698;-0.113208;-0.332545;0.0219275;0.138173;-0.0566576
0.487365;0.212638;-0.242515;0.0833003;0.35696;-0.114032;0.43994;0.282189;-0.0386517;-0.348842;-0.135823;0.484649;0.0238197;0.167074;0.0678579;0.0356609;-0.363094;0.273736;-0.322291;0.113727;-0.412229;0.141377;0.087878;0.322382;0.208884;-0.156636;0.365932;0.0960265;-0.21456;0.259087;0.169118;0.0765557;0.0504929;-0.286828;0.451628;0.11684;-0.200583;0.257561;0.243889;0.0674612;0.154653;0.00190741;0.285516;0.00306711;-0.487884;0.399686;-0.206961;0.0440229;-0.299493;-0.10509;0.143666;0.430448;0.384732;-0.162832;-0.243919;0.0041963;0.244743;0.0698111;-0.0498215;-0.24456;-0.0389874;0.0987732;0.0661794;-0.410215;-0.462065;0.247337;-0.375057;-0.0275735;-0.00364696;-0.29635;-0.189474;-0.394375;-0.0337992;-0.132954;0.0562304;-0.204489;0.211478;-0.100482;0.0153966;-0.335536;-0.382717;-0.111744;-0.301721;-0.134236;-0.328394;-0.473937;0.0562304;-0.0438398;-0.0277871;-0.284448;-0.205863;0.0831172;-0.20983;0.0032197;-0.307062;0.142476;0.221519;0.249931;0.223075;0.0634632
-0.0422834;0.444273;-0.270013;0.376492;0.206809;0.0642262;-0.0265053;-0.279351;-0.204031;-0.10564;0.301538;0.447081;-0.0128941;-0.295892;0.240349;-0.0263833;0.0365764;-0.306299;-0.218436;0.0486007;0.0301981;0.11388;0.14803;-0.421781;0.025071;-0.034257;0.319178;0.175314;0.0290994;0.187033;0.0977966;0.08446;-0.150166;0.230613;-0.00141911;-0.359096;0.343501;0.442289;-0.259392;-0.0815912;0.0959044;0.143269;-0.375668;-0.27691;0.0660573;-0.175741;-0.42526;-0.410764;0.22396;0.356899;0.13155;-0.0668813;-0.286126;-0.370785;0.168325;0.0213782;-0.42584;-0.488922;-0.379116;-0.0898007;-0.455046;-0.44409;0.00715659;0.0113071;-0.00483718;0.34518;0.0189062;0.441221;0.499573;-0.118641;-0.0327311;-0.190146;0.0978576;-0.0634938;0.363033;-0.394864;-0.233543;-0.238426;0.412656;-0.170919;0.134419;0.0637379;-0.28811;0.0425886;-0.0253151;-0.342616;-0.0822016;0.474273;-0.497833;-0.304895;-0.319636;0.350337;0.00959807;-0.114795;-0.384548;0.101062;-0.127522;-0.398373;-0.400266;-0.399136
0.454527;0.292871;0.169332;0.0974609;-0.0553453;0.0955992;0.302942;-0.0130467;-0.343013;0.0602588;0.371517;0.0908383;-0.175161;-0.106403;-0.465453;-0.408933;0.420286;-0.37466;0.365444;0.279962;0.0300455;0.104968;-0.0138707;0.280114;0.319727;-0.265343;0.493316;-0.107959;0.11681;0.345027;-0.0437483;-0.275414;-0.355831;-0.380642;-0.231162;-0.235191;-0.0646535;-0.0266579;-0.364254;-0.45642;-0.037553;0.29577;-0.0250099;0.0534532;-0.491638;0.45706;0.0177465;-0.425993;0.314539;-0.008652;0.386471;0.0626698;-0.465087;-0.140919;0.432981;0.265221;0.0283059;-0.304621;0.11745;0.203848;-0.480621;0.451537;-0.290246;0.198416;0.160604;-0.165242;0.0942564;0.0767998;-0.4747;0.453764;-0.0406659;-0.268609;-0.436064;0.0747856;-0.34695;-0.322871;-0.445616;-0.104053;-0.0140843;-0.232017;-0.42233;0.244957;-0.237602;-0.272027;-0.449705;-0.39288;0.321863;-0.347438;0.344569;0.389706;-0.129048;0.137288;0.0277261;0.328578;-0.112201;0.189505;-0.247948;-0.0558031;0.380154;-0.420408
0.326075;-0.0478683;0.277886;-0.212119;-0.00117496;0.0352336;-0.258141;0.20336;0.488525;-0.116626;-0.330195;-0.269127;-0.213919;-0.0931578;0.18096;0.462645;-0.234092;-0.470031;0.360164;-0.429655;0.133992;0.471129;0.0431379;0.0744499;-0.254418;-0.0850398;-0.0757317;-0.353603;-0.176901;-0.0159459;-0.232597;0.100604;0.105457;0.415006;0.00175481;-0.268181;0.460753;-0.153676;0.483856;0.154805;-0.00737022;-0.376308;-0.293634;-0.198263;0.172445;-0.470977;0.236198;-0.265374;0.027604;0.339808;-0.33871;-0.0720084;-0.0816828;-0.375546;-0.170431;-0.321345;-0.0669729;-0.319391;-0.340754;0.298822;0.434507;0.0219275;0.303156;-0.251579;-0.212455;0.320154;-0.0523545;0.363338;-0.200522;0.208518;0.027665;0.335444;-0.0951109;-0.147511;0.138844;0.10097;-0.374355;-0.3052;0.428282;0.293268;0.337672;0.280053;-0.254875;0.416166;-0.12447;-0.434172;0.332057;-0.105487;0.00624104;-0.373226;0.339045;-0.34225;0.303308;0.156728;-0.0592822;-0.0870235;0.452696;-0.323389;0.338435;0.263665
-0.47879;-0.146596;0.428312;-0.169546;0.219687;-0.163381;0.416654;-0.469848;-0.309107;0.0186621;0.163747;0.169027;-0.145497;0.125294;-0.462371;-0.493255;-0.160176;0.0425581;-0.441374;-0.0521714;-0.462279;0.285913;-0.383755;0.0154576;-0.197195;-0.481475;-0.460265;0.265404;0.337397;0.0246742;-0.196768;-0.204672;-0.211753;-0.455962;-0.353114;0.00633259;0.0876339;0.374172;0.395505;-0.227775;-0.430448;0.146321;-0.244682;-0.326319;-0.107196;0.181539;0.37112;0.453032;0.301752;-0.16686;0.423612;0.345729;0.25634;-0.278283;-0.450285;0.445402;-0.037431;0.268792;-0.133869;-0.241935;-0.165487;0.435881;0.377529;0.102222;0.419187;0.074572;-0.449126;-0.489227;-0.184408;-0.205496;0.337367;0.291223;0.119343;-0.245231;0.422056;0.400296;-0.0764641;0.285882;-0.0159154;0.2893;0.407956;-0.252556;-0.252464;-0.123554;0.0469832;-0.470824;-0.395444;-0.197714;0.468383;-0.39993;-0.408048;-0.375362;0.493164;-0.48706;-0.497131;0.109333;-0.111103;0.27044;-0.0860164;0.272729
-0.133229;-0.0418256;-0.089526;0.332514;-0.145863;-0.447661;0.289087;0.223075;-0.426115;-0.193289;-0.478698;-0.168691;-0.0385601;-0.373501;0.257286;-0.390378;-0.049028;-0.165456;-0.347926;-0.277856;-0.337794;-0.263726;0.295648;0.380032;0.018601;0.390011;0.0272378;-0.47705;0.328486;-0.0117038;0.416105;-0.49765;-0.139515;0.257073;0.189291;-0.0772576;-0.0558641;0.278466;0.388028;0.297571;-0.372677;-0.356258;-0.466185;-0.324061;0.421476;0.342677;-0.414212;-0.10387;0.165822;0.295251;-0.030137;-0.377804;-0.457549;-0.0674917;0.46176;-0.179678;0.272454;-0.267754;0.204733;-0.169332;-0.4747;0.116108;-0.356624;-0.308802;-0.42761;-0.385739;-0.345515;-0.130238;0.215751;-0.296075;-0.343501;0.060564;0.023545;0.227897;-0.021073;0.201437;-0.0965148;-0.200522;0.272485;0.368007;0.0452742;0.100024;0.241752;-0.299066;-0.236412;0.475188;0.48117;0.0229957;0.272515;-0.263726;-0.304224;0.301294;-0.077044;-0.426908;0.0883358;-0.388089;-0.0656301;0.48413;0.193106;-0.237358
0.151601;-0.369289;-0.061388;0.230033;-0.14156;-0.478759;0.220115;-0.432859;0.17922;-0.0682546;-0.237144;-0.0614795;0.099353;-0.0311441;-0.442167;-0.0619068;-0.363582;-0.31811;-0.349025;0.346614;0.192831;0.129841;-0.432981;-0.0152135;-0.378719;0.309687;0.149586;0.318445;0.0345927;-0.147786;0.0982543;-0.0281838;-0.109333;-0.107929;-0.0154576;-0.194754;0.384274;0.0172887;0.0271462;-0.286248;-0.323359;-0.294458;0.408719;-0.197653;-0.00572222;0.152944;0.414487;0.0946532;0.12801;-0.098468;0.174642;0.43112;0.363765;0.171987;0.291406;-0.2875;0.3764;0.30752;0.132069;0.146016;0.117389;0.235435;0.0695059;-0.351161;0.22808;0.352535;0.450804;0.0667898;0.009476;-0.259392;-0.423917;0.363247;0.480041;0.118183;0.468139;0.435301;-0.447386;0.434782;-0.285791;-0.287133;-0.138417;-0.485778;0.161702;0.197592;0.271874;-0.347011;-0.252037;0.0970031;-0.39935;-0.420438;0.247002;-0.288934;-0.416593;-0.318201;0.212485;-0.2734;-0.384762;-0.0921812;-0.0998718;-0.423673
0.2987;0.247185;0.449187;0.0187231;0.329829;0.198233;0.105396;-0.405637;-0.24691;0.12804;-0.234062;0.116199;0.116749;-0.0686209;-0.371975;-0.151509;-0.440031;-0.105609;0.222221;-0.467925;0.362667;0.170034;-0.388241;-0.0886715;-0.0104221;-0.229301;0.039201;-0.0808283;0.159871;0.484954;-0.198477;0.176992;-0.0270547;-0.375912;-0.365017;-0.0353557;-0.377255;0.00547807;0.39111;0.318018;-0.26928;0.0777459;0.284722;0.409421;-0.170705;-0.404477;0.495819;-0.132588;0.0271462;-0.25103;0.405789;0.19277;0.387265;0.154378;0.250084;-0.0742973;0.0489975;-0.387265;0.467864;-0.278039;-0.374203;0.0421613;-0.469787;-0.00703452;-0.0905942;0.489837;-0.47177;0.266686;0.411832;-0.368984;0.302026;-0.0742668;-0.223258;-0.33993;0.391873;0.478454;-0.40878;-0.0193335;-0.406674;0.019303;-0.371273;-0.399258;0.396512;0.0353862;0.0555589;-0.360805;0.0918455;0.214469;-0.368954;-0.150227;-0.177084;0.411588;0.433317;-0.431059;0.367733;0.429777;0.141499;-0.00599689;-0.0699942;-0.228263
0.406217;0.197165;-0.278802;0.0183874;0.33874;-0.21746;-0.385006;-0.00941496;-0.349178;-0.40817;-0.344752;0.350276;0.476287;0.365047;-0.301416;-0.202567;0.404935;-0.23748;-0.026719;-0.480987;-0.238639;-0.345149;-0.164907;0.0458846;-0.341304;0.086108;-0.49823;0.174215;-0.141072;-0.182485;0.0475326;0.10802;-0.0285806;-0.142537;0.437986;0.478057;0.0203711;-0.116138;-0.112049;0.394284;-0.0872982;-0.0345317;0.322443;0.187704;-0.162404;0.488342;0.222465;-0.00221259;0.128956;-0.306482;-0.363216;-0.137867;-0.37814;-0.267632;-0.358669;0.463958;0.0347148;-0.354427;0.0264138;0.194296;0.407682;0.172567;0.494385;-0.315088;0.1292;-0.203238;0.147908;0.468047;-0.418302;-0.0660268;-0.449217;-0.0807062;-0.0624256;-0.330866;0.142018;0.140217;0.136799;-0.051561;0.284692;-0.0635548;-0.422544;-0.367367;-0.268914;-0.45233;-0.44937;0.317896;-0.21514;0.286157;-0.0497604;0.330683;-0.0582141;-0.260735;0.289911;-0.197501;0.290246;-0.306879;-0.442503;0.231101;0.452788;0.432981
-0.0609912;0.434111;0.34991;-0.423399;-0.0574511;0.301782;-0.432676;0.097766;-0.0458235;0.254418;-0.391781;-0.305322;-0.2434;-0.188467;-0.188925;0.160909;0.0420698;0.178274;0.215171;-0.0858943;0.450438;0.255882;0.154469;0.339686;0.164052;-0.0179601;-0.138783;0.104602;-0.409421;0.407804;-0.139332;0.0986206;0.164785;0.416776;0.437834;0.158467;-0.199149;0.493469;-0.0419477;0.231468;0.0262917;0.446501;0.32223;0.135121;0.32873;0.493164;0.337947;-0.431761;-0.253166;-0.388394;0.287927;-0.469298;0.236747;-0.433103;0.477172;-0.19274;-0.155141;-0.482971;0.0395978;-0.32757;0.218894;-0.39462;-0.214164;0.472106;0.487793;0.445616;0.373409;0.238304;0.0420698;-0.094409;-0.420011;-0.00630207;0.245994;0.0962401;-0.0379192;-0.0984985;-0.3876;-0.0283059;-0.320917;-0.0825373;0.471831;0.447264;-0.234916;0.100024;-0.333216;0.440825;-0.37112;0.235069;0.303247;-0.255303;0.0638295;-0.0688955;0.0891598;0.133747;-0.451109;-0.158284;0.292993;-0.384335;0.121754;0.170919
-0.148061;0.230796;-0.394711;0.118152;-0.337672;0.306421;0.469451;0.418912;-0.417478;-0.427396;0.108264;-0.362575;0.180105;0.0457625;-0.18508;0.367428;-0.245476;0.0858028;0.234855;-0.00267037;-0.333613;-0.466582;-0.421262;0.19631;-0.495636;0.333888;0.376675;-0.222892;0.121693;-0.446867;0.0541551;0.0922727;0.0725883;0.192953;0.112323;-0.380367;0.480682;-0.288934;0.19219;-0.106403;-0.129841;-0.347438;-0.194662;0.438414;-0.00889615;0.299066;0.0118564;-0.140461;0.170125;-0.258599;-0.173421;-0.25042;0.217795;0.282861;-0.36462;-0.435087;0.423795;-0.421873;0.402158;0.129048;-0.328608;0.415494;-0.0517136;-0.080401;0.202231;-0.452818;0.0857112;-0.205649;0.0625477;0.475494;-0.115528;0.313166;-0.237327;-0.400479;-0.143483;0.311853;0.180471;-0.369869;0.336604;-0.115772;0.239982;-0.32165;-0.158162;0.428648;0.397092;-0.0761284;-0.309046;-0.0848872;0.462859;0.270074;-0.335383;0.0296487;-0.204123;-0.10857;-0.0121006;0.351436;0.395444;0.0798822;0.416318;0.219687
-0.0742058;0.296197;-0.293268;0.446379;0.203696;-0.167348;0.254265;-0.469573;0.180074;-0.00654622;0.176138;-0.469451;-0.0532701;0.198691;-0.375423;0.252434;-0.199728;-0.081286;-0.390957;-0.093646;-0.106738;-0.155477;0.10976;-0.107776;-0.494873;0.20098;-0.236869;-0.132588;0.463012;-0.391354;-0.0987732;-0.24572;-0.255547;0.400967;0.225608;-0.156697;-0.206961;-0.197592;-0.102802;-0.351894;-0.421995;-0.125507;0.323664;-0.33105;-0.0706351;-0.364376;0.425077;-0.279748;0.179525;0.260704;-0.340571;-0.0207068;-0.356929;-0.232505;-0.410764;0.411344;-0.0345927;0.095294;0.270318;-0.271416;-0.12804;-0.0176244;0.243889;-0.462004;0.348903;-0.45117;0.413999;-0.164785;-0.213157;-0.00953703;-0.409726;-0.499878;0.118763;0.290216;-0.0213782;-0.0489975;0.483001;0.353694;0.399777;-0.387326;0.443297;0.474578;-0.481933;0.355831;0.296472;-0.463652;-0.138783;-0.437162;0.499237;-0.143117;-0.0880001;-0.0228126;-0.254418;0.0811945;0.0538499;-0.00795007;-0.274346;0.030137;-0.349025;-0.465331
0.0974303;-0.090228;0.0447249;0.202933;-0.297143;-0.211386;-0.253227;-0.190451;-0.440977;-0.251427;-0.388546;-0.00859096;-0.343745;-0.383847;0.267327;0.0391705;0.0939207;-0.320338;-0.410031;-0.396176;-0.41464;0.299463;0.497101;0.436735;-0.136525;-0.183554;-0.153005;-0.181265;0.0175939;-0.333674;-0.277947;-0.16448;0.293451;0.104541;-0.12212;0.154164;0.387265;0.449095;-0.359981;0.458708;-0.234825;0.247368;0.0291299;0.199515;0.0394147;0.272668;0.395657;-0.18627;-0.0678579;-0.24279;0.346034;0.0726188;-0.141224;-0.232017;0.240623;-0.288141;-0.338649;0.130818;0.0454878;0.00178533;-0.476287;-0.189749;-0.181143;0.412748;-0.400327;0.150166;-0.386471;0.0328532;0.385067;-0.117786;0.0766778;-0.106159;0.365322;0.308283;-0.472015;-0.138783;-0.0301065;-0.437529;-0.202139;0.245201;0.364193;0.360103;-0.393796;-0.211234;0.110797;0.138691;-0.236076;0.188681;0.231315;-0.00184637;-0.0223548;-0.19396;-0.300562;0.345912;-0.460784;-0.277337;-0.10271;-0.346675;-0.318476;-0.200827
0.0656301;0.229881;-0.118915;-0.108417;0.279656;0.420804;-0.110431;-0.117969;-0.0188147;0.135304;-0.225028;-0.319544;-0.400815;0.110614;-0.246422;-0.14687;0.288903;-0.18096;0.0946532;0.0343181;0.321619;0.423582;-0.121906;-0.222373;0.15627;-0.311426;-0.112629;0.00282296;-0.276391;0.252068;0.418119;-0.305414;-0.0453352;0.16512;0.284051;0.0098117;0.0845515;0.105701;-0.198386;0.44879;-0.236991;0.171987;0.034257;0.247734;-0.497314;-0.337703;0.0774712;-0.352229;0.496826;-0.252251;-0.33343;0.197348;0.336787;0.44348;-0.112262;-0.256005;-0.337977;-0.215201;0.273705;0.272057;0.27224;-0.384579;0.0656606;0.241813;-0.266015;-0.107685;-0.0775323;-0.412442;0.012711;-0.0850093;-0.141865;0.0294351;0.161245;0.384701;-0.310785;-0.143605;-0.403592;-0.300012;-0.226646;-0.163961;-0.00541704;0.394864;0.319819;0.407437;0.337672;0.125446;0.0536668;-0.186239;0.140828;0.112384;-0.485229;0.330348;0.393063;0.443999;-0.227103;0.244804;0.241783;0.147084;-0.160421;-0.254753
-0.0469527;0.431913;-0.440703;0.373287;0.178152;0.016892;0.259697;0.197195;0.0583361;-0.0602283;-0.0568712;0.362514;0.198477;-0.238548;0.300714;0.175619;0.0412458;-0.431608;0.329249;0.376827;-0.327052;-0.319666;-0.166402;-0.240959;-0.407895;0.469359;-0.405301;-0.211295;0.472411;0.196188;0.484893;0.384487;0.450713;0.270928;0.311701;-0.489196;-0.0278481;-0.15685;-0.328364;-0.258049;-0.277337;0.128956;-0.405179;0.453001;-0.319025;0.380123;0.261834;-0.205893;-0.179159;-0.0975524;-0.425932;0.104297;0.494995;0.0289468;-0.140736;-0.0793023;0.0318155;0.454466;0.49234;0.240043;-0.423551;-0.162191;-0.285974;0.188131;-0.292871;0.0778375;0.428007;-0.246178;-0.142079;0.169485;0.257378;-0.256096;0.0798822;0.0460677;-0.357265;-0.385403;0.170858;0.314539;0.262017;0.336421;-0.294;0.288995;-0.445921;-0.0514084;-0.000259407;0.229759;-0.372799;-0.0409101;-0.469268;0.193533;0.333186;0.246483;-0.139088;0.401273;-0.210959;-0.379757;-0.420042;-0.470367;0.127247;-0.304682
0.306452;-0.167043;-0.244591;0.23751;0.276727;-0.499054;-0.0925779;-0.364376;-0.446867;0.159658;-0.233665;-0.342769;0.382534;-0.0793939;-0.0586413;0.143361;-0.263695;-0.11449;-0.420957;-0.200735;-0.436277;-0.488006;-0.109119;-0.262993;-0.211173;-0.252861;0.378079;-0.073748;-0.416868;0.33459;-0.465392;0.209586;-0.0551012;0.202017;0.310541;0.0383465;0.116169;0.334712;0.11568;-0.414335;-0.13094;0.0417341;-0.353816;0.392605;0.192404;0.0212256;0.314295;0.203482;0.410031;0.130299;-0.437315;0.147542;0.261956;0.266564;-0.154561;-0.0782037;-0.0203711;0.267296;-0.444395;0.132771;-0.113178;0.23217;-0.318323;0.452147;-0.443266;0.176321;0.473754;-0.256584;0.0574511;0.419584;-0.099414;-0.184408;0.316156;-0.381771;0.179128;-0.0402997;0.133992;-0.154042;0.15743;-0.0748772;-0.117573;-0.370663;-0.167714;0.491455;0.412687;0.345149;-0.216971;0.292352;0.208945;-0.115223;-0.197592;0.0476241;0.317438;-0.00685141;-0.493835;-0.140309;0.0816828;0.186789;0.202353;-0.269158
0.216056;-0.340876;-0.198569;-0.0425886;0.248161;0.077868;0.0489975;-0.442961;-0.138234;-0.318842;-0.138264;0.385647;0.171377;-0.420774;0.048265;0.0997803;0.459563;-0.333094;0.196036;-0.378719;0.408658;0.054033;0.005356;0.259911;0.357601;0.419492;-0.147938;0.150319;-0.384396;0.195547;-0.140156;0.160115;0.363674;-0.0117649;0.263787;-0.0754875;0.175069;0.140584;0.345882;0.164388;-0.31344;-0.155507;-0.27575;-0.0563219;0.450896;-0.292291;0.277245;0.022599;-0.497589;0.182363;0.483184;-0.0373394;-0.333155;-0.239433;0.457732;0.140034;0.14629;0.344508;0.469604;0.323298;0.410794;-0.30398;0.216025;-0.0281533;-0.0716727;0.372951;-0.360561;-0.0885495;-0.236808;0.0576647;-0.433927;-0.457335;-0.424619;-0.31521;-0.0515915;0.239189;0.0513169;0.273858;-0.00785852;0.0912351;0.297418;-0.126881;-0.0506149;-0.348384;0.228019;-0.478759;-0.141072;-0.160421;0.478637;-0.367367;0.015244;-0.340938;-0.124348;-0.287133;0.446928;-0.112018;-0.00578326;-0.189474;0.186483;0.39404
-0.164998;-0.388516;-0.387783;0.234214;0.151601;-0.417783;-0.356227;0.193228;0.459258;0.0679189;0.0720695;-0.0818354;0.256829;-0.247826;-0.194205;0.304651;0.492706;0.384213;0.314753;0.291437;-0.19396;0.179708;0.0518052;-0.280511;-0.425169;-0.197989;0.134785;0.411679;0.301843;0.329615;0.0691702;0.129383;0.369289;0.115864;-0.206839;-0.43762;-0.305353;-0.0518662;-0.173757;0.00825526;0.317499;0.411435;-0.197531;-0.102771;0.449309;-0.13628;0.169912;-0.180624;0.0178076;-0.0712455;0.337092;0.209677;0.236198;-0.0873592;0.0482345;0.34753;0.229392;0.0505844;0.268151;-0.172628;0.247887;-0.0100558;0.358089;0.155812;-0.498993;0.415738;-0.176046;-0.367977;0.1404;0.225181;0.417936;0.167898;0.425108;0.157186;-0.124989;0.203513;-0.400296;0.283166;0.0653554;0.374874;-0.48352;0.265496;-0.155843;0.0896481;-0.466979;-0.210257;0.379788;-0.332545;-0.283563;0.0770135;0.241783;0.200766;-0.114612;-0.117359;0.0300455;-0.207114;-0.478515;-0.11269;-0.174062;0.329066
0.0808588;-0.112781;0.247215;0.43701;-0.262566;-0.310816;0.387539;-0.206778;0.0891293;0.117176;0.422117;0.431272;-0.141896;0.0362407;0.160451;0.20806;0.116688;-0.199515;0.327937;0.0848262;0.0694449;0.030961;-0.143269;0.37875;-0.0764641;0.129994;-0.0319071;-0.358547;-0.121815;0.438078;0.326746;0.320765;-0.235679;0.43939;0.0487228;-0.138234;0.366054;-0.0772271;-0.155782;0.404019;-0.0451216;-0.496246;0.0763115;-0.269982;0.0683462;0.414182;0.0166784;-0.377346;0.0636158;-0.0343486;0.0804621;0.28634;0.478118;-0.406705;0.320276;-0.0104831;-0.272179;-0.114429;-0.0384381;-0.41641;0.174917;-0.493316;0.260155;0.0555589;0.0953551;0.418027;0.463286;-0.23043;-0.421262;0.304437;0.155507;-0.445402;-0.109363;-0.387967;-0.229606;0.293878;0.329035;0.103534;-0.450224;0.172628;0.106433;0.337214;-0.268639;0.240074;0.288385;-0.0237587;0.245933;0.442473;0.320002;0.334223;-0.294031;-0.217368;0.171621;0.0632191;-0.0337382;-0.236747;-0.365322;0.390835;0.0380413;-0.230949
-0.200369;-0.18804;-0.362056;-0.454955;0.246208;-0.357479;0.153066;0.426786;-0.0216834;0.340022;0.303034;0.478301;-0.365932;-0.0015717;0.280847;0.195273;0.00245674;-0.0768609;-0.346583;-0.0717338;0.378018;-0.308069;-0.19686;-0.316858;-0.215415;-0.391171;0.191458;0.454833;-0.400601;-0.0434126;0.226371;-0.249901;-0.390988;-0.0455794;0.0145421;0.456725;0.0276955;-0.173147;-0.220756;-0.286126;-0.48941;-0.109607;0.225791;-0.0587329;-0.308313;0.0638295;-0.364589;-0.31756;0.278771;-0.291314;-0.0311136;0.418882;0.236106;0.206107;-0.238884;0.0110019;0.0863521;0.176016;0.0882443;-0.0775323;-0.137165;-0.254479;0.387906;-0.116138;-0.256554;-0.227958;0.414396;0.152089;-0.102527;0.427976;0.110126;0.0216834;-0.42349;0.0527818;-0.326136;-0.255547;-0.0192419;-0.320887;-0.392178;-0.486633;-0.0679495;0.138783;0.0244911;-0.332545;-0.115284;0.155232;-0.00575274;-0.226798;0.305628;0.328486;0.215567;-0.260338;-0.0455794;0.418973;-0.211539;-0.377285;0.0957823;-0.163594;0.372921;0.274987
0.174154;-0.259941;-0.486908;0.497894;-0.0170751;-0.343471;0.409177;-0.148091;-0.141133;0.0213172;-0.082934;-0.218925;-0.0667898;-0.449431;0.0588244;0.208426;-0.0293741;-0.150838;-0.176962;0.258141;-0.172536;0.161184;-0.461608;0.261223;0.0600452;-0.3305;-0.399808;-0.299677;-0.284936;0.250267;-0.168264;0.25045;-0.16744;0.0886105;0.261925;-0.428556;-0.307031;0.062273;-0.400082;0.00904874;0.339991;0.29873;0.188406;-0.140156;0.409482;-0.18749;-0.28338;0.357479;-0.203177;-0.371059;0.474334;0.0353862;0.193106;0.300378;0.42819;-0.376949;0.0217139;0.221091;-0.098529;0.131581;-0.19335;-0.352351;0.138783;0.284783;-0.496216;-0.169759;-0.463561;-0.047441;-0.17391;0.161794;-0.179403;-0.257591;0.0942564;-0.24926;-0.0467086;0.405148;-0.355739;0.324213;0.0489364;0.211478;0.322474;-0.133076;0.081164;-0.0442671;0.100055;-0.0964843;-0.33758;-0.257561;0.337703;-0.171194;-0.323084;0.212607;-0.267907;0.193869;0.0481735;0.365535;0.47528;0.352962;0.42291;-0.367306
-0.342189;0.378231;0.0518967;0.359951;0.448119;-0.351772;-0.35049;0.353755;0.0772881;0.0165563;-0.486969;-0.351344;0.163106;-0.0333415;-0.317164;0.151326;0.402097;-0.340693;0.425047;0.317896;0.162557;0.279046;-0.182608;-0.479186;0.00923185;-0.414579;-0.279656;0.261498;-0.309503;0.0758843;-0.0862911;-0.115467;-0.379879;-0.334132;-0.319239;-0.0493332;0.384182;0.293146;-0.378994;-0.0763115;0.304529;0.351802;-0.0275735;0.328425;-0.409574;0.362941;0.224937;0.0354167;0.10918;-0.212271;0.306024;-0.170949;0.307093;0.389431;0.120014;-0.0851619;0.312098;0.0501267;-0.278069;-0.477294;-0.250603;0.449522;-0.0924558;0.262078;0.301141;-0.489624;-0.499542;0.385037;-0.458617;0.0186926;0.118122;-0.385739;0.0781121;0.323237;-0.303064;-0.308557;-0.467589;-0.47821;-0.440764;0.302667;0.387661;0.040025;0.301782;-0.463042;0.238334;0.00880459;0.288171;-0.465423;0.471038;0.347011;0.0258644;0.480529;-0.0919675;-0.0445112;0.209342;-0.399533;0.445189;-0.0714286;-0.289544;0.3146
0.214988;0.189444;0.297235;0.205954;0.306543;0.455626;0.362545;-0.0403302;-0.426695;-0.0593432;0.443846;-0.0711539;-0.440062;-0.301355;-0.18511;0.483886;0.0795465;0.0173498;-0.0685598;-0.198843;0.472625;-0.233665;0.0112156;0.247459;0.0788141;0.1068;-0.469726;0.0161901;-0.0470748;0.468566;-0.0836055;0.172231;0.356288;0.201132;0.221122;-0.239463;0.0544908;-0.195242;0.0515305;0.13625;-0.0464034;0.147969;-0.45703;0.171072;0.104877;-0.422697;-0.34582;0.493286;-0.389676;0.326411;-0.434294;0.41702;0.459685;0.129658;0.4635;-0.282739;-0.169729;0.44763;0.487823;-0.0930357;-0.118732;0.209677;0.130299;0.172048;-0.427061;0.480743;-0.141194;-0.378994;-0.457091;-0.0420698;0.252434;0.00560015;-0.430021;-0.296381;0.427274;-0.432371;-0.342586;0.021012;0.0347453;0.169851;0.266442;-0.121387;-0.386868;0.365719;-0.268761;-0.210257;-0.425779;-0.434935;0.387326;-0.446654;-0.394436;-0.048265;0.443358;-0.23751;-0.229667;0.309412;0.128986;0.486541;0.0855586;0.41171
0.149007;0.0334635;-0.139973;0.133412;-0.0245521;0.19866;-0.426511;-0.0618763;0.00886563;-0.0940733;-0.422117;-0.10036;0.139912;-0.352138;0.402066;-0.0877865;-0.257286;-0.369381;-0.0585803;0.247124;-0.368984;0.0307474;0.313532;0.110706;0.00852992;0.268914;-0.338984;0.360927;-0.0555284;-0.292016;-0.317225;0.0380718;0.406217;-0.318995;0.175344;-0.133412;0.379238;0.255364;0.364742;0.383419;0.106677;-0.360439;0.311274;-0.150166;-0.020951;-0.360744;0.167074;-0.397366;0.105609;0.0676138;-0.430876;0.000991852;0.0987732;-0.48233;-0.0521409;-0.374691;0.102435;0.401975;0.0330363;-0.115558;-0.404111;-0.334101;0.338313;-0.313105;0.00425733;0.0815607;-0.0943785;0.333338;-0.353175;-0.472686;0.090289;0.285577;0.0546434;0.160665;-0.331355;-0.0310221;0.188375;-0.110828;0.049089;0.264397;-0.412259;0.0471969;-0.13213;-0.154561;-0.0158849;-0.316614;-0.249016;0.0182958;0.40698;0.366054;-0.476684;0.219108;0.315882;-0.087756;-0.353938;-0.173818;-0.21099;-0.0528428;0.164418;0.443052
0.299951;-0.300623;-0.0543077;0.307886;0.112812;-0.0608692;0.490173;-0.0132298;-0.171285;0.4653;0.0952025;0.00605792;0.113239;0.0471969;-0.34582;-0.419431;0.136982;0.228294;-0.128376;0.093585;-0.239738;-0.10329;0.17513;0.48526;-0.00669881;0.0302896;0.106372;0.205252;-0.237236;-0.478698;0.471526;-0.113605;-0.483489;0.487579;0.0327616;0.394955;-0.302637;-0.0237587;0.0221107;0.414182;-0.382931;0.466399;0.258782;0.217612;-0.237632;0.0766472;0.151051;-0.212333;0.0634022;-0.115925;0.364681;-0.0635853;0.156728;0.260857;0.437925;-0.415525;0.173421;-0.365474;0.12566;-0.145436;0.0839412;-0.421415;-0.247093;0.135365;0.130879;-0.360836;0.359554;-0.227409;0.380856;-0.195578;-0.082873;-0.456542;-0.0732292;0.0226905;0.399442;-0.429868;-0.228294;-0.324213;-0.0124058;-0.170736;-0.0742363;0.413694;0.191305;-0.0868099;-0.253044;0.256523;0.167379;0.199728;0.0576037;0.370724;0.0166784;0.0859249;0.0671865;0.425016;0.340907;0.443052;-0.366604;-0.067156;-0.159627;-0.0520798
-0.107959;0.487457;0.234031;0.448149;-0.212668;0.295526;0.283074;0.016068;-0.465911;-0.0837886;0.199179;-0.150838;-0.457335;-0.388699;0.218955;-0.328364;-0.16216;0.213095;-0.374538;-0.205008;-0.496521;-0.0841548;-0.0015717;0.49237;0.183493;-0.102374;-0.0259865;-0.156117;0.170919;0.178304;0.295801;-0.290735;0.115925;-0.379788;0.437925;-0.0171056;-0.115467;0.477508;-0.418241;-0.210959;-0.401395;0.400662;0.2275;-0.227622;0.389004;0.302423;0.221335;0.140767;-0.10744;-0.00883511;0.480468;-0.384274;0.0250404;-0.021836;0.196188;-0.0519272;0.0600452;0.364895;-0.202994;0.153615;-0.453703;0.216697;0.452605;0.126179;0.0937986;0.329035;0.400113;-0.216269;-0.439543;-0.20748;-0.126057;0.403928;-0.329432;0.263176;-0.079577;0.305292;-0.404233;0.343654;-0.121662;-0.469329;-0.469573;-0.0174413;-0.193258;-0.311518;-0.207602;0.297205;-0.358608;-0.391385;0.480316;-0.273553;0.360927;-0.0309305;0.218833;-0.0797296;-0.0561388;-0.450499;0.0231178;0.271294;0.39819;0.267907
-0.186636;0.495758;-0.355861;-0.343165;-0.388455;0.169027;-0.467864;-0.0645924;-0.0495773;-0.377041;-0.223838;0.332942;-0.472869;0.110401;0.0850703;-0.178823;-0.368038;-0.356349;0.271874;-0.0892209;0.383969;0.413266;-0.37698;-0.331507;0.30401;0.192618;0.308893;-0.388699;0.257653;-0.364254;0.115986;-0.366146;0.297815;-0.126514;0.283319;-0.374783;0.43939;0.314783;-0.277001;-0.0684988;-0.103473;0.0595569;0.407285;0.320154;-0.185476;-0.17101;0.202414;-0.397153;0.0264748;-0.18041;-0.0684988;-0.427427;-0.133076;0.387417;-0.053148;0.411313;-0.426481;-0.0314493;-0.00679037;0.224967;0.307459;0.142415;-0.35638;-0.13863;0.32458;0.2434;0.0885495;-0.33227;0.328089;0.42819;-0.440306;0.343654;-0.466063;-0.396146;0.170309;-0.453673;0.480804;0.123981;0.451964;0.403958;0.114765;-0.341762;0.370632;-0.406766;0.181448;0.142354;0.102161;0.138112;0.455382;0.214164;0.348689;-0.415006;-0.161275;0.042436;0.477447;-0.288568;-0.139302;-0.0456099;0.263176;0.424223
-0.391995;-0.231712;-0.484863;0.00312815;-0.381222;0.237571;0.370205;0.346706;-0.229759;-0.487823;-0.466857;0.376034;-0.307978;0.0240944;0.24572;0.253319;-0.264031;-0.297296;0.265007;-0.429106;0.0337687;-0.0732902;-0.366695;0.167257;-0.325953;0.118336;-0.48001;-0.273766;-0.470519;0.386563;-0.0831477;-0.184164;-0.234245;0.125416;0.468474;-0.477477;-0.436644;-0.0263833;0.218162;0.337642;0.0836055;0.041673;-0.448241;0.451964;0.209708;-0.187124;0.119465;0.114582;0.0951415;-0.375576;0.0176244;0.212851;0.0492111;0.134816;0.0114292;-0.271172;-0.207877;-0.316218;0.0801263;0.229301;-0.389554;-0.0487533;0.0654775;0.044969;0.444151;-0.178976;-0.294977;0.295618;0.436369;-0.143788;-0.168447;0.416929;-0.0223243;0.291864;0.0196997;0.345851;-0.22457;-0.0483566;0.460936;0.0200354;-0.0200354;-0.005356;0.348567;0.348354;-0.101581;-0.101764;-0.446409;0.308069;0.327998;-0.416196;-0.127064;0.325373;0.0394147;0.0911435;-0.368923;-0.404721;0.442198;-0.292047;-0.0834834;0.497436
-0.0374615;-0.0392315;0.234184;-0.236534;0.165609;0.373287;-0.144765;-0.446959;0.153157;0.398648;-0.354671;0.0939207;0.267632;0.431791;-0.347438;0.0430769;-0.365658;0.3081;0.236625;0.224509;-0.427152;0.194601;0.0197913;-0.0996277;0.408414;0.280084;0.442137;0.231681;-0.284722;0.170217;0.200858;0.0843074;-0.476959;0.394009;0.355861;-0.162496;-0.483184;-0.0721915;0.382778;0.350215;-0.237022;0.143361;-0.0458541;-0.258202;-0.00846889;0.0854976;-0.26928;0.143971;-0.0337077;0.486694;-0.0564745;0.0789972;-0.0256813;0.423643;0.048204;-0.378384;-0.0342875;0.0232398;0.233207;0.000228889;0.374966;0.123096;0.0621509;-0.206259;0.155263;0.293817;0.0328227;0.38049;0.0569323;0.128529;0.333064;-0.204855;-0.318628;0.206503;-0.424863;-0.349574;0.341426;-0.363338;-0.209738;0.279199;0.259667;-0.412473;0.463652;-0.246391;0.136067;-0.290368;-0.107929;-0.0624561;-0.384121;-0.143086;-0.354884;0.228416;-0.310968;0.0131077;0.410825;0.144612;-0.447295;-0.170583;0.00749229;0.415098
-0.0321512;-0.320215;-0.156972;-0.273003;-0.359004;-0.359859;-0.397702;-0.21218;-0.336787;0.29751;0.444761;-0.141835;-0.463805;-0.20452;0.492553;0.41171;-0.181875;0.0225684;-0.108509;0.077929;-0.0803095;0.348811;0.225089;-0.475188;0.0816218;-0.181936;-0.436522;0.436918;0.0653249;0.201254;-0.0714286;0.245293;-0.412351;-0.182821;0.455931;-0.233879;0.0307779;-0.472503;0.035905;0.403256;0.459166;-0.18865;-0.286096;0.0716117;0.473907;0.326624;-0.368007;0.497833;-0.0632191;-0.136372;-0.207266;0.0537278;0.0941954;0.097766;0.42642;-0.220634;0.133015;0.0470138;0.243126;-0.24807;-0.300806;-0.359004;0.350948;0.456328;0.410764;0.307581;0.121204;0.314142;-0.104144;-0.0169225;-0.217612;0.0272073;0.387631;0.45294;0.0237892;-0.108631;0.40701;0.428251;0.390103;-0.2622;-0.435484;0.265374;-0.251549;-0.34283;0.0126804;-0.266106;-0.391263;0.163198;-0.420255;-0.259819;-0.421171;-0.0477767;0.116657;0.411618;-0.264183;-0.0854366;0.087817;0.449065;0.194571;-0.446104
-0.0623646;0.152638;-0.345485;0.471496;0.26339;0.0280923;0.206656;0.0706656;0.325983;0.378903;0.181143;0.138783;-0.0698721;-0.208609;0.317469;0.461791;0.204703;-0.0813776;0.0379192;0.128681;0.314722;0.469176;0.106006;-0.318384;-0.363704;-0.19274;0.450682;-0.232231;0.425718;0.0709403;0.438017;0.449522;-0.486175;0.213187;0.371303;-0.170919;0.057329;-0.125965;-0.498962;0.143941;-0.122486;0.488433;0.325678;-0.0110019;0.418577;-0.463225;0.464873;-0.177786;-0.143971;0.344569;-0.11388;0.409482;0.386959;0.336695;-0.233695;0.365169;0.232994;0.153432;-0.230888;0.444945;0.387539;-0.466185;0.0196692;-0.253655;-0.36169;0.372951;-0.442045;0.474303;-0.10332;-0.140828;-0.448271;0.426817;0.36465;0.0978576;0.0505234;-0.141896;-0.428892;0.127705;-0.438047;-0.125446;-0.191305;-0.264458;0.231651;0.0204627;0.00178533;-0.0231788;-0.0923643;0.209128;-0.462157;-0.193258;-0.128895;-0.343837;0.0927;-0.270409;-0.485931;-0.0290078;-0.0187231;-0.128559;-0.25399;0.0626087
0.0648976;0.383145;0.409757;0.0162511;-0.253441;-0.420469;0.488708;-0.403134;0.0853145;-0.278405;0.38638;-0.463988;-0.438963;-0.153279;0.0591601;0.257836;-0.479217;-0.445189;0.284173;0.201071;-0.161794;0.155202;-0.157186;0.393033;-0.183157;0.0813471;-0.0980407;0.431364;-0.130909;-0.0205542;0.373226;-0.469207;0.00163274;0.376827;-0.46765;-0.209616;-0.361263;0.337062;-0.32046;0.337458;-0.18511;0.00724815;0.121906;-0.494964;0.267571;0.464537;0.259514;-0.301111;0.461821;-0.232749;0.0562304;0.10979;0.0776849;-0.382076;-0.323298;-0.0718863;-0.00813318;-0.456633;-0.429807;0.216483;0.284509;-0.00111393;-0.216514;0.096942;0.302911;0.302454;-0.21691;0.408719;0.312983;-0.194845;-0.431364;0.493103;-0.230125;0.204611;0.358699;0.261406;-0.260949;0.406491;-0.370205;0.202353;0.498871;-0.158132;-0.209464;0.485382;-0.14388;-0.354579;0.271416;-0.18453;0.205863;-0.398679;0.312098;0.196799;-0.133656;0.263115;0.227165;0.260216;-0.279168;0.15334;0.43173;0.311853
-0.30285;0.44998;0.00773644;-0.241569;0.116504;0.0648671;0.0930357;0.0660573;0.442564;-0.478454;-0.126545;-0.0919065;0.46231;-0.462279;0.460021;-0.340968;0.429655;-0.280663;0.431944;-0.109729;0.203269;0.272057;0.327052;0.0238807;-0.0901669;0.136555;-0.139302;-0.198813;0.16393;0.454253;0.154256;-0.278283;0.375576;-0.231254;-0.245079;0.109302;0.177297;-0.129505;-0.272454;-0.0387432;-0.498627;-0.310205;-0.39996;0.237236;0.33871;0.145131;0.443754;-0.256615;-0.289453;0.352657;-0.130634;0.268944;-0.115345;0.103595;0.220817;0.130604;0.36639;0.0149998;-0.253197;-0.218406;-0.303156;0.260979;0.0330058;-0.358516;-0.411344;0.290124;0.474517;-0.197287;0.431059;0.435301;0.0710318;-0.229484;-0.304956;-0.177328;0.325465;-0.107807;0.270898;0.485565;-0.472869;-0.367763;0.26751;0.089526;0.201224;0.349239;0.30697;0.175314;0.00532548;-0.268944;-0.156362;0.325434;-0.145466;-0.455504;-0.459441;0.160787;-0.44351;-0.144368;0.233207;-0.426176;-0.262963;0.377102
-0.487335;0.104144;0.338618;0.098529;0.45941;-0.137257;0.471831;-0.143391;-0.442106;-0.0881832;-0.0981323;0.000595111;0.325343;-0.494629;-0.0488754;-0.189932;-0.316706;0.0978271;0.0988037;-0.179373;-0.394467;-0.473907;0.0591296;-0.285882;0.0722526;0.272027;-0.380551;-0.0702078;-0.137898;0.21102;0.0193335;-0.348048;0.213553;-0.246727;0.151631;0.331324;-0.113605;-0.216117;0.367489;0.395352;-0.344874;0.307947;0.165853;0.304804;-0.234855;0.206961;-0.450957;-0.388333;0.383053;0.0129856;0.325709;0.175924;-0.427793;0.106525;0.142018;0.196036;-0.174642;0.244346;-0.47705;0.210898;-0.315332;-0.176077;-0.295587;-0.271844;0.48114;-0.209799;-0.462401;-0.363948;-0.275658;-0.40875;0.247063;0.0545824;0.174093;0.0892209;0.323206;-0.217673;0.124317;-0.167867;0.331172;-0.00450148;-0.0681326;-0.406156;-0.0832392;0.354793;0.320124;-0.412564;-0.209006;0.176962;0.489654;0.258721;-0.0257424;-0.172903;-0.433683;0.0661794;0.0816218;-0.0122227;0.419156;0.153615;-0.0695364;-0.0386822
0.377865;0.321253;0.251457;-0.338313;-0.117389;0.20217;-0.21569;0.452086;-0.403592;0.0501572;-0.460143;0.484252;0.0116123;0.0448164;-0.491089;-0.303674;0.0818964;-0.479156;-0.39996;0.124928;-0.0890683;0.0272073;0.0868709;-0.312128;0.0288247;-0.377438;0.346522;0.0941343;0.287652;0.313501;0.170248;0.0367901;-0.0923643;0.0414289;0.427732;0.325343;-0.295221;0.124592;0.365902;0.114032;0.0312967;-0.438597;0.323878;-0.118152;0.460448;0.101428;0.145436;0.320948;-0.253533;0.490051;0.0694449;-0.210807;0.0915403;-0.206717;0.380612;0.483856;0.250145;0.209159;-0.399136;-0.0081637;-0.497131;0.271081;-0.496704;0.37344;0.0308084;-0.149281;-0.270684;0.435392;-0.279077;-0.13448;0.290765;0.349483;-0.0649281;0.097644;-0.261895;0.273553;0.272729;0.0305643;0.275689;0.130207;-0.14098;0.109485;-0.394375;0.200308;0.189871;0.331629;-0.218558;-0.313074;0.0644704;-0.426756;-0.147206;-0.0933409;-0.362636;-0.441221;-0.417783;0.263543;0.120594;-0.120777;0.0157933;-0.337031
0.167592;-0.0347758;0.188162;-0.479003;0.470122;0.421781;-0.256249;0.0258034;-0.400937;-0.369686;-0.24456;-0.192984;-0.379086;0.0249184;-0.478637;-0.330012;-0.479431;-0.0518967;-0.378292;-0.449644;-0.0376446;0.493439;0.0165258;0.345729;0.419858;0.24041;0.46585;-0.219443;0.206565;0.288354;0.0530564;-0.0394757;0.43762;0.49527;0.0934019;-0.227592;0.455016;0.327967;0.208274;-0.213736;-0.253563;0.230033;-0.15331;-0.184561;-0.110096;-0.0866573;0.0356609;-0.208701;-0.445341;0.479888;-0.360134;0.108509;0.0904721;-0.220511;-0.0873287;0.0973693;-0.264641;-0.0891598;-0.380764;-0.220756;-0.0255287;0.270714;-0.486816;-0.438353;0.0800653;0.0583666;0.44821;0.0287332;0.36462;-0.358364;-0.0947447;0.483978;0.177908;-0.309748;0.217612;0.400906;0.17983;0.483093;0.273766;0.438505;-0.0806757;0.295343;-0.0192419;0.177053;0.251823;0.272515;0.268059;0.231132;-0.374874;-0.303644;-0.0862606;-0.104419;-0.233573;0.0501572;-0.0254067;-0.0187231;-0.199728;-0.211386;0.100421;-0.00373852
0.330012;0.219565;-0.48529;0.329035;-0.487152;0.402951;-0.0573595;-0.410092;-0.339137;0.473571;0.267144;-0.232933;0.398007;0.294183;0.195395;0.352962;-0.0943785;-0.155202;-0.284356;0.0978576;0.286706;0.254448;-0.373012;-0.453215;-0.41934;-0.118183;-0.0781121;0.0155187;0.459838;0.351283;0.304254;0.162557;0.138569;-0.0503708;-0.377163;-0.187063;-0.473052;0.29107;-0.497497;0.190451;0.159444;-0.344478;-0.0464339;0.213858;-0.069628;-0.0927;0.240989;0.014359;0.167348;0.39993;-0.205161;0.329676;0.073809;-0.226249;0.442778;-0.0686209;0.0717643;0.0521104;-0.254082;-0.258202;0.0765252;-0.0571154;-0.279992;-0.203604;0.23394;-0.248985;-0.278008;-0.291559;0.152089;-0.190939;-0.215812;-0.208487;0.158254;-0.168966;0.176992;0.496796;-0.387631;0.0968505;0.48114;0.320673;-0.191244;-0.127277;-0.0488144;-0.160146;0.49649;-0.0257118;0.451201;0.0290689;-0.449522;-0.121357;-0.256157;-0.481292;-0.175588;0.291223;0.414487;-0.0521409;-0.284143;-0.42581;0.210929;0.0694754
0.476379;-0.0575121;0.0809198;-0.236442;-0.203848;-0.166707;-0.312311;-0.384854;-0.303766;0.356258;-0.314447;0.212607;0.257805;0.229209;-0.463591;-0.177023;0.220939;0.107288;0.148579;-0.399136;-0.0160985;-0.289727;0.118976;-0.0137791;0.0338603;-0.344691;-0.139576;0.448271;0.340571;0.400876;0.394528;0.231193;-0.255852;0.208182;0.0921506;0.258171;-0.131642;-0.473174;0.142201;-0.150472;-0.409574;-0.28988;0.0303507;0.412076;-0.401303;0.466735;-0.191336;-0.245079;0.0697195;-0.0447859;0.437529;0.188986;-0.00474563;-0.0728324;-0.0190283;0.0653859;0.191427;-0.17452;-0.0629139;-0.0899228;-0.479675;0.243919;0.484008;-0.189901;0.356136;-0.345759;-0.0764641;0.208182;-0.173727;-0.192587;0.103168;-0.238395;-0.140431;-0.285577;0.0977355;0.422239;-0.428037;-0.386166;-0.0677664;0.392758;0.0215918;-0.168233;-0.373135;0.116901;-0.135853;-0.0593127;0.345729;-0.0413373;-0.0600757;0.123218;-0.0701773;-0.272851;0.323786;0.147542;-0.403256;-0.296106;-0.130848;-0.139973;0.0871151;0.327723
-0.222434;-0.398007;0.0396588;0.194479;0.224693;0.456297;-0.123768;-0.472503;-0.425687;-0.269646;-0.0223853;-0.225242;0.21157;-0.418058;0.43173;0.48941;-0.473693;0.193442;0.135273;0.149648;0.0784173;0.401334;-0.469726;0.074572;0.475768;0.187216;-0.243522;0.0915403;-0.00361644;-0.0638295;-0.498962;0.11214;0.486175;-0.131123;0.32693;0.272362;-0.437071;-0.445891;-0.239341;-0.206412;-0.341304;-0.0926389;-0.0783258;0.220573;-0.0691092;-0.418027;-0.0266274;0.192404;-0.426176;0.159291;0.17806;0.403287;-0.437742;0.0438093;-0.163594;-0.0914487;0.357387;0.469634;-0.106861;0.433226;-0.39285;-0.475585;0.489868;-0.161946;0.372188;-0.402493;0.246391;0.400754;-0.0922422;0.157613;-0.448027;0.0674001;-0.465606;0.267174;-0.352565;0.330988;-0.372951;-0.260704;-0.220542;-0.1068;0.254997;0.34341;0.20867;-0.234336;-0.497009;-0.0340129;0.352321;-0.0332804;0.00599689;0.132679;-0.157155;0.470397;-0.27282;-0.202017;-0.215842;-0.436674;-0.487945;-0.191305;-0.0141453;0.266472
0.448881;-0.052385;0.457579;-0.0229041;-0.433164;-0.0366985;-0.0557421;-0.0119175;-0.096118;0.492645;-0.216208;0.0402387;0.474303;0.282159;-0.132008;-0.435789;0.168477;-0.385647;-0.0116123;-0.23217;0.115192;0.345607;0.34814;0.225761;-0.46173;0.461119;-0.478973;0.127094;-0.361507;-0.445585;-0.360714;-0.162496;-0.467803;0.136341;0.0908383;-0.0678884;-0.222221;0.180593;-0.492401;0.35522;-0.478698;-0.18804;0.326472;-0.136708;-0.207419;-0.456877;-0.296869;0.407559;-0.0172582;-0.0332499;0.0613269;-0.388089;0.0348674;0.308802;0.0575732;0.00328074;0.378628;-0.250542;0.243614;0.149678;0.1404;-0.0820795;0.206992;0.363155;-0.340022;0.467162;0.471648;0.123127;-0.154805;0.135121;-0.060625;-0.123066;0.395657;0.198538;0.153829;0.373348;0.426878;-0.274743;0.16747;0.185598;-0.473876;-0.467833;0.29397;-0.419675;-0.228935;0.25399;-0.473846;0.38818;-0.257439;0.429868;-0.0986206;0.0327006;0.0629139;0.0136876;-0.40463;0.373898;0.490631;0.214743;0.025956;-0.477966
0.10329;0.0742058;-0.252403;0.279107;-0.400632;-0.315241;0.418455;0.362606;0.25045;0.458647;-0.379391;0.0694754;-0.464812;0.350917;-0.184469;-0.464415;-0.0138096;0.444121;0.215079;0.24691;0.280786;-0.199637;-0.149953;-0.0409406;0.10744;-0.0124973;-0.382778;-0.318506;-0.161153;0.184988;-0.413938;-0.117908;-0.457427;0.276391;0.346583;-0.431211;0.361263;-0.165578;-0.320856;0.404569;-0.207144;0.40466;0.328425;-0.488433;-0.0972167;-0.00550859;0.161367;0.121509;-0.00117496;0.17333;0.491729;-0.272881;-0.199911;-0.309626;-0.148427;-0.107196;-0.368343;0.0163732;-0.00846889;0.379025;-0.324427;-0.284936;0.390561;-0.262383;-0.190237;0.0515;0.0568407;0.0343181;0.066332;-0.257561;-0.0989563;-0.146046;0.239921;0.255943;0.463042;0.245598;-0.322047;-0.434324;0.273156;-0.2369;-0.216208;-0.232933;-0.370205;0.257836;0.263695;0.460509;0.0742058;-0.420652;-0.350459;0.308527;0.343562;-0.159322;0.12804;-0.326594;0.0841243;0.404386;0.207846;-0.259392;0.105213;0.245262
0.255821;0.035081;0.455504;-0.153218;0.433622;-0.263665;0.102832;0.28634;0.0660573;-0.301447;0.498779;-0.333308;-0.0277261;-0.417936;-0.190756;-0.450774;-0.209037;0.00251778;0.0923643;-0.454741;-0.168844;0.103473;0.204764;-0.277978;0.479675;0.459655;-0.282189;-0.0207984;-0.30398;-0.28399;-0.37524;0.0524766;-0.372768;-0.130238;0.120045;0.300287;-0.127735;-0.399014;0.232414;-0.0700247;0.428648;-0.441649;-0.40762;-0.180166;-0.148457;0.00627155;0.11623;-0.407254;-0.342524;-0.26043;-0.113239;0.098468;-0.497009;-0.328059;0.0129246;-0.0401471;0.170125;0.00465407;-0.251061;0.340358;-0.110187;0.381283;-0.34521;-0.412015;0.0343791;-0.064745;0.0785699;-0.0870846;-0.289544;-0.363704;-0.257378;-0.246086;0.283532;-0.158345;-0.285607;-0.00868252;0.365261;0.458831;-0.456816;-0.338862;0.295221;-0.37402;-0.155599;0.327998;-0.35229;0.316004;0.111988;-0.227897;-0.204581;-0.229362;0.0410016;0.147206;0.0608997;0.171224;0.140858;0.265221;0.487213;0.451537;-0.0788751;0.164449
-0.241111;-0.340114;0.430631;-0.383175;0.304773;-0.223807;0.431455;-0.268822;0.113239;0.390194;-0.011185;0.308344;0.292261;0.147389;-0.241539;0.104266;-0.0958129;0.368862;-0.247765;-0.341914;0.107715;-0.248985;-0.13625;-0.159597;0.137288;-0.448088;-0.0652333;-0.221335;0.152028;0.169759;-0.355953;0.315851;0.48471;-0.4794;-0.000228889;-0.341456;0.322718;0.121052;-0.283593;0.370785;0.351619;0.282067;0.258019;0.369503;0.392972;0.320582;-0.17159;0.0788751;-0.432402;0.194998;0.0901975;0.398373;0.0154576;0.470458;-0.106738;-0.358058;-0.296808;0.0206763;-0.205466;0.104175;0.351314;0.372463;-0.350063;0.409391;0.011124;0.0986206;0.0596789;0.300287;0.323939;0.166494;-0.0515;0.0225684;-0.00730918;-0.352657;0.0619984;-0.0388653;0.498016;-0.30633;-0.340052;-0.315332;-0.410611;0.190176;0.188528;0.0546129;-0.416654;-0.015244;0.211753;-0.445036;-0.000869778;0.106067;0.384579;0.498871;-0.436186;-0.126698;-0.252342;0.268487;0.117695;0.305261;0.126209;0.244346
0.451262;-0.265984;-0.086932;-0.419614;-0.394864;0.0302591;0.0181738;0.480956;-0.335749;0.346065;0.265099;0.135792;-0.422788;-0.218558;0.0162816;-0.030076;0.0323649;-0.118793;0.307825;0.363918;-0.0782037;0.367885;0.275323;-0.498993;0.424619;0.0173193;0.152272;0.497925;0.240226;0.0831782;-0.378506;0.474456;0.003708;0.176473;-0.198233;-0.280663;0.413785;0.00624104;-0.349788;-0.392148;0.104877;-0.111744;0.0620289;0.42758;-0.205039;0.427;0.448729;-0.231468;-0.260369;0.278161;0.0761589;-0.365596;0.0241859;0.397214;-0.0563524;-0.0697501;-0.275109;-0.31933;0.485107;0.483703;0.470763;0.406278;-0.126087;0.255455;0.436705;0.377834;0.212546;-0.104358;0.299707;0.181997;0.388089;0.302118;0.18923;0.462188;-0.124836;0.336634;0.162862;-0.383633;0.267266;0.355953;0.23867;-0.174764;-0.18215;-0.286584;-0.484527;-0.183676;-0.227409;-0.112629;0.412198;0.270898;-0.226249;0.393002;-0.442442;0.279626;0.118061;0.133473;0.361721;-0.246605;0.149495;0.346919
-0.199759;0.195425;-0.432066;-0.194876;0.44293;-0.259148;-0.0647145;0.420835;0.257256;-0.129719;0.159719;-0.0810419;0.219169;-0.296564;0.240165;-0.270898;0.261223;0.278863;0.0515;-0.245537;-0.409726;-0.273339;0.452086;0.174368;-0.0947752;-0.260369;0.494812;-0.0640431;-0.453398;0.249718;0.0230262;0.091876;0.109088;-0.284265;0.432249;-0.360378;-0.452147;-0.0713065;-0.120685;0.0192724;0.310846;-0.259209;-0.279962;-0.0744194;-0.472991;-0.375179;0.456633;-0.409116;-0.21691;0.469604;-0.0241249;0.194876;-0.480865;-0.482055;0.360134;-0.442503;-0.425535;-0.146077;0.0512864;-0.228477;-0.084521;0.344569;-0.350185;-0.0693533;0.0760063;0.443388;0.129658;-0.390439;0.342219;-0.238762;-0.249535;0.252342;0.212546;-0.188894;0.448546;0.12508;0.164449;-0.167135;-0.0130467;-0.0105441;0.259117;0.104572;-0.352474;0.153157;-0.384945;-0.353999;-0.25573;0.0533921;0.282403;-0.278619;-0.259117;0.030076;-0.451384;0.0469832;0.25277;0.444517;0.207175;0.110034;-0.284936;-0.19985
-0.179678;-0.494629;-0.00175481;0.0216224;-0.492492;-0.304285;-0.248375;-0.452055;0.289941;0.102222;-0.242759;0.396756;-0.476562;-0.068865;0.0745415;-0.144826;0.450529;-0.356746;0.257103;-0.0457015;0.40228;0.472137;0.423185;0.382748;-0.317408;-0.102771;0.460997;-0.00401318;-0.335139;0.478668;0.14977;-0.422147;0.132862;-0.0408185;0.478332;0.0100253;0.397183;0.0404523;-0.0579089;-0.494018;0.218131;-0.261223;0.0997803;0.0658742;0.0666677;-0.272179;0.171224;-0.192038;-0.245689;-0.426572;-0.0425886;0.333705;-0.0363628;0.267541;-0.135945;-0.218101;-0.289758;-0.0331278;0.3099;-0.271111;0.267724;0.34341;0.30108;-0.409665;-0.413358;0.452025;0.452696;-0.318415;-0.260826;-0.477813;0.238914;-0.407804;0.420011;-0.420316;-0.247002;0.0313272;0.0354167;0.304498;-0.241905;-0.200125;0.411435;0.0315714;0.310327;0.0463118;-0.347713;0.300226;-0.264367;0.461241;0.180654;-0.141346;0.241173;-0.43173;0.490631;-0.470305;-0.057268;-0.233421;-0.355098;-0.155538;-0.41052;0.281762
0.0474715;-0.150716;-0.232658;-0.319147;-0.477264;-0.00663778;-0.138234;0.108722;0.232719;-0.497864;-0.438017;-0.0994751;0.463164;0.143818;0.187185;-0.271874;-0.189718;-0.205924;-0.383724;-0.0644093;-0.200888;-0.293359;0.10268;0.22045;0.46466;-0.10567;-0.245354;0.316828;-0.0730461;-0.471648;-0.036729;-0.162954;0.492218;-0.238792;-0.44113;-0.0724967;0.309839;-0.120533;-0.0229041;-0.104968;0.117786;0.193167;0.215995;0.460692;0.106952;-0.432371;-0.134449;-0.203604;0.435881;0.00425733;-0.00935392;0.00117496;0.427244;0.176107;0.14861;0.172933;-0.0228736;0.325129;0.323023;-0.267571;0.208457;0.426847;0.0547044;0.155416;-0.100208;0.0287332;-0.448759;-0.231162;-0.279077;-0.33108;0.0561998;-0.23162;-0.193899;0.281091;0.259362;0.112476;-0.30343;0.491821;0.029313;0.449614;0.183615;0.217093;0.249565;-0.264702;0.082812;0.463591;0.0393231;-0.305475;0.471709;-0.25866;0.140278;-0.213797;0.421262;-0.00581378;-0.249229;-0.174093;-0.247093;0.453825;-0.411527;-0.0770745
-0.14803;0.323878;0.462676;-0.111744;0.0693838;-0.29931;0.137654;-0.230827;-0.257897;-0.363735;-0.231498;-0.332545;0.364315;-0.249779;-0.309839;0.496673;-0.0601062;0.296838;-0.158528;-0.164693;0.048204;0.0933714;-0.394925;-0.467956;-0.346461;0.216056;0.344691;0.218894;0.190451;-0.130299;0.420804;0.389065;-0.0447859;0.337733;-0.0337382;0.195303;0.335627;0.418088;0.202719;-0.374569;-0.0902585;0.252251;-0.42053;0.21102;-0.0550096;-0.0474715;-0.484222;-0.0748466;0.328852;-0.0650807;0.0279702;0.426572;0.462737;0.362972;0.0223853;0.30517;0.149678;-0.390774;-0.464141;0.486023;0.00758385;0.14095;-0.295312;0.447691;0.439055;-0.264885;-0.257042;0.411405;-0.310938;0.430601;-0.287439;0.157064;0.0220496;0.122211;0.364834;-0.37759;-0.451079;0.204154;-0.1639;-0.0581225;-0.263787;0.168142;0.477996;0.0808588;0.127674;-0.43701;-0.396664;-0.277978;0.310327;0.221885;0.430113;-0.439909;-0.344264;0.163289;0.002884;-0.339381;-0.131855;0.0720084;0.375118;0.0397809
-0.129872;-0.233299;-0.168477;0.121113;0.0577258;-0.440153;0.433409;0.225211;0.455748;-0.0835749;-0.333033;-0.250725;-0.195151;0.317988;0.476897;0.191946;0.111591;-0.262322;0.465453;-0.319666;-0.307703;-0.366695;-0.460723;0.155293;0.242607;-0.136311;-0.215598;-0.129139;-0.0364544;0.435514;-0.148824;0.364864;0.275628;0.486358;-0.369869;-0.44409;0.151814;0.410215;-0.499756;0.124134;-0.398892;-0.467986;-0.0695364;-0.169027;0.333796;0.237266;-0.283685;-0.0650807;0.139363;-0.0375225;-0.367702;0.359066;0.00877407;-0.0458846;-0.218345;-0.233085;-0.467986;0.200461;0.424497;0.202719;-0.39761;0.44406;-0.434019;0.4523;-0.0415204;-0.319514;0.0852535;-0.218925;-0.404477;0.0494247;-0.313257;0.20513;-0.422849;-0.475188;0.455016;-0.0481735;0.278405;0.309992;0.294244;0.266045;-0.407926;0.344081;0.0339213;0.218375;0.12917;-0.173849;0.481689;-0.328394;-0.0557421;0.163045;0.204642;0.0616626;-0.181875;0.247307;0.320551;0.149007;-0.372097;0.471496;0.0798822;0.397427
-0.163533;0.385037;-0.479522;0.135487;-0.367885;0.39993;-0.0248268;0.15804;-0.249809;0.451476;-0.285272;-0.077105;-0.492889;0.0203711;-0.493591;-0.000259407;0.0790582;0.422514;0.370083;-0.0727714;-0.444365;-0.227775;0.312586;0.134449;-0.199545;-0.473876;0.322108;0.0831782;-0.350581;0.0128941;0.403378;0.287011;0.478332;-0.144276;-0.0647145;0.363674;-0.329402;-0.306299;0.131886;-0.223045;0.0170446;0.108203;-0.111774;0.424253;-0.421934;0.160604;-0.207755;-0.274133;0.0403912;0.447539;-0.416227;0.37289;0.0988952;0.0800043;-0.157704;0.389157;-0.104663;0.492767;0.184194;-0.33578;0.0447554;0.489563;-0.248772;-0.386837;0.281121;0.431486;0.271233;0.119373;0.25338;-0.0262001;0.472228;0.417264;-0.497009;0.258019;0.131397;0.0701773;0.154775;-0.0348369;-0.459929;-0.29928;0.351253;0.136799;-0.333949;-0.37109;-0.0370952;0.169637;-0.205924;0.0749992;-0.395047;-0.109485;-0.0733818;0.082873;0.491882;0.117481;-0.274712;-0.179495;0.161122;-0.386532;0.274651;0.413663
-0.402585;-0.160909;0.449553;-0.0312052;-0.2116;0.40994;0.167104;-0.0580309;0.243339;-0.334223;0.304895;-0.490509;-0.493988;0.257195;-0.433714;0.0970031;0.192831;0.155629;0.0743889;-0.27749;-0.412259;-0.00587481;-0.0246132;0.310968;0.325007;0.144002;-0.166402;-0.365169;0.190847;0.434263;0.0981628;0.0387127;-0.423917;-0.0803095;0.42349;-0.397275;-0.390225;-0.39581;0.1245;-0.0978271;-0.493896;-0.474609;-0.452208;0.0186926;0.155354;0.1068;-0.359737;-0.0400861;0.490143;0.183706;0.495972;0.143483;-0.341548;-0.390561;0.16277;0.101703;-0.465423;-0.152272;0.490509;0.0632496;-0.400967;0.457518;0.300623;-0.431974;-0.281091;-0.123005;-0.340083;-0.228538;-0.140004;0.412381;-0.461028;-0.405454;0.261742;-0.161824;-0.363704;0.375942;0.106159;-0.485076;-0.350063;0.181814;0.212424;0.430906;-0.222221;0.430906;-0.212027;0.0736869;-0.272698;-0.0104526;-0.232597;-0.461608;0.0164953;0.394101;-0.229301;-0.221793;-0.152974;0.35638;0.211661;0.403623;0.330988;0.20864
-0.411893;-0.0627308;0.35226;0.444243;0.485046;-0.070452;-0.155995;0.0102084;0.321528;-0.157796;-0.236534;-0.491943;0.373653;0.105426;-0.454863;-0.0409711;0.103534;0.255242;0.313776;0.290124;0.326441;-0.442839;-0.361599;0.19689;0.247124;0.0225379;0.108814;-0.460326;-0.103595;0.223441;-0.484985;-0.0708792;-0.000534074;-0.187155;-0.0878475;-0.342555;-0.192923;0.15627;0.350917;-0.368252;-0.0791498;-0.0195166;-0.444639;0.46527;-0.356044;0.446837;0.329524;0.38345;-0.111438;-0.446287;-0.026841;0.100391;0.170888;0.276299;0.489349;0.322535;-0.274224;0.348048;-0.136494;0.0352336;0.271416;0.0916013;0.196677;0.229087;0.455626;0.204489;-0.0271157;0.221824;-0.484741;-0.0938292;0.243187;0.231986;0.1798;0.35287;0.00636311;0.361293;0.349818;-0.274194;-0.431394;-0.359188;-0.417264;-0.0999329;0.162801;0.298486;-0.083758;0.0993225;-0.391476;-0.0969726;0.0604724;0.443388;0.295007;-0.458525;0.491241;-0.205557;0.266778;-0.314081;0.474395;-0.191366;-0.3052;-0.0939512
-0.446806;-0.401456;-0.486816;0.083636;-0.469787;-0.0863521;-0.496673;0.285241;0.473815;0.244438;-0.393521;-0.0507675;-0.217917;-0.243553;-0.253838;-0.456145;-0.165792;0.461119;-0.0584277;0.351802;0.261193;-0.471496;-0.00669881;-0.461821;0.366665;0.149648;-0.477569;0.158254;-0.270196;-0.146901;-0.355434;0.260247;-0.479278;-0.316248;0.0597095;-0.259392;-0.439756;0.148488;-0.160421;0.10744;-0.345088;0.335902;-0.306665;-0.192038;0.238731;0.116291;-0.00694296;0.277215;-0.147176;-0.172292;0.340297;0.363369;0.494171;0.354762;-0.0451827;0.28634;0.364742;0.00602741;-0.332911;-0.214011;0.0522629;0.096942;-0.204917;-0.384335;-0.326044;-0.356441;-0.312403;0.0381939;0.0143284;0.0742058;0.21456;0.479583;0.188284;0.364742;-0.0142979;-0.00251778;-0.138874;-0.495819;-0.420499;-0.279595;-0.443754;-0.303583;-0.437315;-0.0864742;0.0819575;0.204459;-0.417875;-0.171834;-0.391263;0.243767;0.310327;-0.00975066;0.428312;-0.169576;-0.474487;0.0849178;-0.0747551;-0.00914029;0.108112;0.0927915
-0.206992;0.238884;0.233909;-0.165548;0.0253151;-0.273309;-0.453764;-0.420408;-0.286004;-0.0238807;-0.412229;-0.123341;0.185018;-0.404172;0.273125;0.259453;-0.496735;-0.10857;-0.315943;-0.0128636;-0.121784;-0.225822;-0.0320292;0.473479;0.000747703;-0.124928;-0.37875;-0.438231;-0.15685;0.269829;-0.061388;0.302118;-0.0467696;-0.278161;-0.09035;0.386227;-0.22631;-0.151234;0.34405;-0.10271;0.0182958;0.119221;-0.493622;-0.469665;-0.364223;0.0857418;0.0421308;-0.0605945;0.393155;-0.239433;0.475707;0.368007;-0.391049;-0.460051;0.062212;0.21923;0.0686514;-0.416318;0.273949;-0.278741;-0.347438;0.0559557;-0.297205;0.345119;-0.291894;0.133747;-0.340022;0.130207;-0.302698;0.18923;0.254295;-0.425138;0.151173;0.0518662;0.230125;0.247215;0.461638;-0.24279;0.346492;-0.227012;-0.457152;-0.311823;-0.421659;0.356777;-0.106983;-0.485046;-0.0786309;0.492492;0.0873898;-0.159719;0.0814997;0.0197302;0.234611;-0.044145;-0.169362;0.181997;0.42703;-0.383602;0.309412;-0.156972
-0.283624;0.237541;0.0585192;-0.482177;-0.353908;0.423734;0.0600146;0.374142;-0.128315;0.232597;-0.430692;-0.138966;-0.100085;0.0816828;0.0196692;0.120624;0.478698;-0.295709;-0.219932;-0.160665;-0.331538;0.0601672;0.0480514;-0.305353;0.126606;-0.392483;-0.341762;0.0542161;-0.364376;-0.157094;0.0885495;0.0825678;0.407285;-0.485534;0.444456;-0.087054;0.192831;0.415738;-0.296686;0.0393231;-0.268517;0.165395;-0.000137333;-0.414396;-0.431974;-0.120228;0.233421;-0.391903;-0.229545;0.144337;-0.220817;0.0872066;-0.420255;0.18984;-0.416013;-0.235099;-0.477874;-0.319849;0.428159;0.484497;0.0157933;0.0176244;-0.365535;0.187918;0.00267037;-0.427946;0.00605792;0.228202;-0.362789;-0.259972;0.273614;0.15215;-0.437254;0.24044;-0.16628;-0.38995;-0.19274;-0.447539;0.0597705;-0.451079;-0.170797;-0.0972472;-0.034135;0.344691;-0.254692;-0.292901;-0.493988;0.0305033;0.271142;-0.125813;0.288934;0.276757;0.405667;-0.12389;-0.00968963;0.279443;0.391507;-0.00648518;0.243645;0.212912
-0.0185095;-0.359981;0.290582;0.403317;-0.456542;0.173818;0.172689;-0.121052;0.0338603;0.101001;-0.255028;0.4541;0.371914;0.0783563;0.293451;0.0017243;0.245476;-0.378994;0.0370037;0.0727409;-0.12038;-0.078753;0.295587;-0.483795;-0.2004;-0.314753;-0.394436;0.258782;0.118885;0.393338;-0.436399;-0.102435;0.384152;-0.109607;-0.319666;0.264733;-0.492157;-0.287164;0.0247963;-0.381863;-0.179678;0.0577868;-0.0583056;-0.384243;-0.228141;-0.19866;-0.378445;-0.270562;0.316767;0.471831;-0.19393;0.254143;-0.49002;-0.415647;0.409268;-0.430662;0.348262;0.243156;0.335963;-0.191275;0.386319;0.417295;0.278832;-0.406064;0.15981;-0.202963;-0.224906;-0.0103916;-0.0536363;-0.363948;0.304407;0.334681;-0.104602;0.486602;-0.291284;0.107532;0.0586413;0.233055;-0.283929;0.480255;0.352046;0.33105;-0.151357;-0.281457;-0.0191504;-0.342341;0.497406;0.0838801;0.358547;-0.120899;0.443419;0.39346;0.0513779;-0.257622;-0.391842;-0.104938;-0.220542;0.197104;0.31344;-0.387692
0.00575274;-0.246696;-0.167989;-0.183126;0.144154;-0.017655;-0.48883;-0.215934;-0.081988;-0.433927;0.249107;0.487793;-0.0996277;-0.198477;-0.393612;0.391018;-0.232994;-0.033372;0.333705;-0.0113071;0.293542;0.453734;-0.403836;0.258324;-0.371975;0.0768609;-0.323054;-0.324793;-0.129688;0.458983;0.440092;-0.0514084;0.489013;-0.0943785;0.334498;0.134388;-0.392239;-0.3287;0.220389;0.281396;-0.308008;0.024369;-0.20101;0.2669;-0.332911;0.0172277;-0.0728019;-0.0222022;-0.000350963;0.367916;-0.401944;0.494079;-0.227348;0.358913;-0.131306;0.429899;0.286462;0.160237;-0.483367;0.0898618;0.215812;0.48236;-0.293939;-0.404721;-0.144673;-0.0346538;0.444823;-0.362056;0.483825;0.210959;0.11391;0.0167089;0.378964;-0.136982;-0.149586;-0.386258;-0.486236;-0.356502;0.0652333;-0.0335246;0.466063;-0.250572;-0.12331;0.0913877;-0.428465;-0.48236;-0.258324;-0.283929;-0.146962;-0.236778;0.0649892;-0.424223;-0.244377;-0.301874;0.0687124;-0.0693533;0.220237;-0.163961;-0.297662;-0.0402692
0.126026;-0.210044;-0.124409;0.188528;-0.366665;0.368404;-0.205802;-0.394253;0.458251;-0.123157;-0.319147;-0.374172;-0.390164;0.0304727;-0.337977;-0.446593;-0.377926;0.384426;0.10213;-0.294031;-0.189566;-0.312128;0.166005;-0.148946;-0.414304;0.0684683;-0.108539;0.114032;0.355403;0.452513;-0.447356;0.0129856;0.0444197;0.128315;-0.404447;-0.223411;-0.234001;-0.141865;-0.0725272;-0.398434;-0.325495;0.445036;-0.159261;0.00596637;-0.469115;0.161397;0.352748;-0.0659352;0.0124058;-0.0553148;0.243217;-0.230094;0.297632;-0.232566;-0.430113;-0.0851314;-0.0417035;0.0867794;-0.0558031;0.086169;-0.311151;-0.219199;0.347499;-0.00764489;-0.0947752;0.477264;-0.229881;-0.458159;-0.256066;-0.318903;0.453642;0.24105;0.492981;-0.392911;0.017777;-0.0619068;-0.0146947;0.12389;0.253746;-0.431425;-0.0131382;-0.2846;-0.135609;0.0595569;0.109699;-0.133625;-0.0668203;0.0477767;0.281793;-0.222312;0.40286;-0.431059;0.304804;-0.181753;0.344966;0.373653;-0.469024;-0.380764;0.301904;0.0265664
0.190512;0.21746;0.482269;0.445372;0.400174;0.153371;0.0911435;0.0348064;0.385403;-0.0690786;-0.423765;0.0734123;-0.0538804;-0.255394;0.0713981;-0.492279;-0.301904;-0.119556;-0.181387;-0.188437;0.120869;-0.30285;-0.150258;0.065569;-0.0562914;-0.406583;-0.290674;-0.0860775;-0.0995361;-0.132008;0.499664;-0.445769;0.385189;-0.121479;0.0292215;0.416868;0.0389264;0.405332;0.346217;-0.310083;-0.200186;-0.373318;0.437681;0.346248;0.447081;-0.388363;0.376217;-0.171438;0.170522;-0.263298;-0.304834;0.0492416;0.196554;-0.0677053;0.2734;-0.139576;0.00230415;0.166128;-0.4888;-0.348506;0.148671;0.0684988;0.0785394;0.229575;0.263787;0.106983;0.0166784;-0.360775;0.208304;0.215781;0.474639;0.0784478;-0.046617;0.286615;-0.138325;-0.433988;0.202841;0.427183;-0.303003;-0.482604;0.290826;0.393338;-0.0619068;-0.114978;0.386013;0.10155;0.0685904;0.0192114;-0.466399;-0.372585;-0.272637;-0.0939817;-0.433164;-0.403043;0.159902;-0.061449;0.418363;0.376705;0.272973;-0.122639
-0.136341;-0.0312662;-0.425687;0.156728;0.227226;0.0173498;-0.221793;0.192984;0.0827815;-0.167074;0.358303;-0.149129;0.479247;-0.160115;-0.171102;-0.275506;-0.277367;0.354579;0.0363323;0.388852;0.246818;0.0996277;0.240867;0.278283;-0.397519;0.360836;0.271264;0.348476;0.0971862;0.19277;-0.467315;0.177358;0.116535;-0.420499;0.149434;-0.337764;-0.341365;-0.0430769;0.023484;-0.0314493;0.112598;0.00209052;0.0907468;-0.113178;-0.187887;0.0970641;-0.4447;0.254418;0.396207;0.37225;0.383908;-0.402524;-0.492584;-0.263695;-0.159017;-0.349666;-0.140584;-0.201132;0.346522;-0.0922422;0.204825;0.0915708;0.436796;-0.133351;0.234764;0.494629;0.11034;0.11388;-0.0586718;0.274438;0.3399;-0.0845515;0.47412;-0.361019;0.0313272;0.464385;0.0221717;0.216941;0.211325;0.442778;-0.247398;0.366756;-0.275201;0.0545824;0.337153;-0.277703;0.22335;0.185598;0.0975829;-0.118976;-0.274255;-0.153859;0.302026;-0.359249;-0.467711;-0.446135;-0.357601;-0.308161;-0.226279;-0.188375
0.425077;0.1704;0.376156;0.337642;-0.494537;-0.0207678;-0.276757;0.203879;0.498321;0.282708;-0.202811;-0.46118;0.294092;0.0814692;0.0788751;-0.0492111;0.413938;0.273644;-0.0103;0.328547;0.233268;0.108539;0.155263;0.174673;-0.394131;0.439238;0.272637;0.128925;-0.0801874;-0.319758;-0.137532;-0.163228;0.115986;-0.123554;-0.31286;-0.179708;-0.298914;-0.21041;0.116016;-0.493042;0.285669;0.408872;0.219382;0.0731376;-0.320978;-0.208914;-0.127918;0.25808;0.0720695;-0.362362;-0.351863;-0.194967;0.338984;-0.486175;-0.212333;-0.314478;-0.010361;0.117084;0.0173803;-0.237083;-0.196493;-0.499939;-0.494293;0.0519272;-0.323572;-0.344478;-0.265923;0.229911;-0.288415;0.368282;-0.434721;-0.443541;0.0857112;-0.258782;0.290704;-0.142567;-0.277795;0.301508;-0.0632801;-0.27047;0.301996;0.0928831;-0.387082;-0.377834;-0.356563;-0.33932;0.181814;-0.0477767;-0.0171667;0.335658;0.0324564;-0.0917234;0.186361;-0.277154;0.238914;0.100848;0.425047;-0.198141;-0.115619;-0.285821
0.343837;-0.455473;-0.166952;0.316523;0.256066;0.456725;-0.269951;-0.015244;0.394528;-0.0501267;-0.488678;-0.10036;-0.249535;-0.0508286;0.204672;0.0683157;-0.468261;-0.355983;0.302789;0.329493;-0.22869;-0.212363;0.489959;0.298639;0.11742;0.451445;0.00361644;0.408597;0.336634;-0.359127;0.411771;-0.297967;-0.439055;-0.320978;0.0875423;-0.467528;-0.189352;-0.236381;0.16277;-0.170644;-0.17684;-0.395413;0.240684;0.0840938;-0.279565;-0.452452;-0.349849;-0.287042;-0.454924;0.0901059;-0.478118;-0.0467086;0.197104;0.19689;0.468261;-0.0511338;-0.197989;0.319758;0.147847;0.181448;0.0422834;-0.470763;0.496124;-0.0962706;0.482421;-0.336451;-0.09682;-0.269066;0.419675;-0.098529;0.120289;0.0467696;0.29162;-0.33462;0.175771;0.379757;0.171133;0.260399;0.0824152;0.407041;0.381008;0.156362;-0.383267;-0.259117;-0.241569;0.318537;-0.0480819;0.155171;-0.398282;0.493194;0.425657;0.40698;-0.170583;-0.14507;0.223624;0.310663;0.383755;-0.078753;0.260704;0.21981
0.409513;0.141011;0.0403607;-0.426267;0.239525;0.0630665;-0.226096;-0.33517;-0.281945;0.491241;-0.459227;0.282525;-0.106769;-0.468474;-0.228843;0.390774;-0.390103;-0.0610828;-0.168081;0.494873;0.0343791;-0.331812;-0.00251778;-0.146046;-0.358425;0.0370952;-0.413266;0.195578;-0.303156;0.40643;-0.45294;0.0881527;-0.237205;-0.215812;0.267022;-0.37167;0.262902;0.25985;-0.101398;-0.401242;-0.367061;-0.325159;-0.0291604;-0.247185;0.0917844;0.435636;-0.424741;0.382656;-0.437712;-0.124317;-0.0947142;-0.173391;-0.226005;0.0725883;0.429991;0.0724662;0.0786615;-0.473815;0.484161;0.112384;0.00993377;-0.395322;-0.444517;0.20632;0.118549;0.164296;0.0504624;-0.290246;0.11388;0.249138;-0.18038;-0.377834;-0.15627;0.277337;0.224326;-0.487548;0.142964;-0.380215;0.0253761;-0.0224769;0.0826594;-0.0222327;-0.124561;0.290368;-0.349055;0.465423;-0.30398;0.393826;0.396725;-0.196097;-0.27926;-0.103656;0.0673086;-0.467132;0.485443;0.225974;-0.228172;-0.354183;-0.452818;-0.401425
-0.299066;-0.444456;0.213034;-0.0429548;-0.0653249;-0.204001;0.0593432;-0.462676;0.369228;0.366573;-0.475951;0.217673;0.294244;0.125233;0.351985;0.307184;-0.348201;0.136952;0.174825;-0.0695059;-0.491852;0.383206;0.00773644;-0.336116;-0.230369;-0.260887;-0.0573901;-0.420072;-0.325892;-0.375454;-0.180013;0.356532;0.0887936;0.235069;0.161061;-0.39349;0.14626;-0.240562;0.140187;0.0844905;0.249351;0.489624;-0.1198;-0.0735038;-0.0233619;0.229453;-0.149251;-0.420499;-0.0806146;-0.0912961;-0.348292;-0.423673;-0.0184484;-0.191763;-0.037431;-0.187277;0.173818;0.302759;-0.0610218;0.48236;0.433042;-0.472564;-0.162191;0.326655;0.498383;-0.125202;0.152242;0.355037;0.37521;-0.272576;0.037431;-0.307764;0.418363;0.333949;0.308863;-0.291223;-0.434416;0.233085;-0.206076;0.0909909;-0.247276;0.133503;0.318384;0.00642415;0.0417646;-0.345546;0.108936;0.0218055;0.492981;-0.16567;-0.107257;-0.0714591;0.312555;-0.187216;0.475921;0.133168;0.306848;-0.406858;0.0813471;-0.231773
0.174459;0.29107;0.227866;0.180197;-0.332514;-0.224265;0.431394;-0.0494552;0.153188;0.109973;-0.490204;0.106464;-0.392788;-0.304682;-0.227287;-0.323023;-0.430113;-0.471465;-0.12331;0.251335;0.0964843;0.475738;-0.371639;-0.304865;0.23278;-0.0299539;-0.484222;-0.318354;0.0476852;0.0397809;0.249443;0.193075;-0.246727;0.0726493;0.0945311;-0.350856;-0.0557421;0.222526;0.275323;-0.181021;0.487701;-0.134724;0.233116;0.17214;0.0943785;0.00950652;0.0188757;-0.174368;0.10332;0.0684988;-0.397916;-0.257256;-0.490051;-0.0999329;0.376614;0.340022;-0.22982;-0.48001;-0.354823;0.158864;0.410642;0.395627;0.363765;-0.242302;-0.0228126;-0.274285;-0.0732292;0.481231;0.352474;-0.38702;0.27456;0.262566;-0.0263833;-0.464629;0.104602;0.115375;-0.0179601;0.0225379;0.467254;0.47116;-0.164388;-0.0565966;-0.472472;0.0187841;0.415342;0.31164;-0.225639;0.202261;0.157399;0.0146336;0.458098;0.0327921;0.241569;0.372829;-0.462157;0.371578;0.367855;-0.0648976;-0.0799127;0.339717
0.152058;0.417112;0.269158;0.011063;-0.328181;0.187887;0.171468;0.0448164;0.194296;0.212241;-0.065508;0.413541;-0.383389;-0.146199;-0.198294;-0.116626;-0.3493;0.446104;-0.13509;0.402249;0.283319;0.0372173;0.454772;0.0527207;-0.457335;0.214774;0.291498;-0.274651;0.103229;0.416929;0.176351;0.16921;-0.240684;-0.363948;-0.494537;-0.424558;0.29931;-0.0783258;0.387051;0.350368;-0.188559;-0.412381;-0.356502;0.234153;-0.0475326;-0.468688;0.479583;0.421751;0.210501;-0.429777;0.097644;-0.158406;-0.306848;0.202261;0.0416425;0.249168;0.472503;-0.303858;-0.449339;0.290948;0.0176244;-0.0816218;-0.296411;0.195547;-0.253258;-0.197592;-0.363918;0.247948;0.229362;-0.133137;-0.389035;-0.296869;0.0700552;-0.311029;0.223441;0.295526;0.00550859;-0.261101;-0.477752;0.000320444;0.245323;0.482177;0.328333;0.203146;-0.411679;0.155477;-0.468444;-0.0661184;0.345637;0.122883;-0.352321;0.321528;-0.398556;0.218131;0.416135;-0.0741752;-0.15685;-0.0202185;-0.280175;0.102069
0.491546;0.184866;-0.390896;0.0555589;0.362972;-0.412198;-0.290307;-0.258568;-0.405667;0.270775;-0.20275;0.266869;0.0620289;-0.488769;-0.181082;-0.0489975;-0.173544;-0.426115;0.143452;-0.300104;-0.366939;0.332057;0.3211;-0.148457;0.00151067;0.125965;0.13448;0.148335;-0.0665151;-0.236778;0.221824;-0.00746178;-0.228385;0.0682852;0.0535752;-0.35876;0.23925;-0.113025;-0.456114;0.496979;0.193838;-0.0476547;0.0781732;0.150258;0.123829;-0.481933;0.237602;0.330592;-0.0785089;0.165761;0.00257881;0.421506;-0.0379803;-0.307855;-0.284387;-0.303369;0.0207068;0.482971;-0.414548;-0.0673391;0.0590686;0.278924;0.0133213;-0.44467;0.411649;-0.259026;-0.477294;-0.0248878;0.404233;-0.279595;-0.425993;0.268395;-0.0649586;-0.359706;0.0449995;-0.139271;0.0500351;-0.105518;-0.341151;0.368435;0.0435957;-0.329432;0.140431;0.254173;0.115925;0.102802;0.382321;0.453795;0.118305;0.161397;0.402188;-0.370327;0.417356;0.184317;0.372036;0.207724;0.409909;0.458098;-0.49881;-0.146718
-0.280541;-0.246513;0.0541246;-0.456755;-0.39465;0.222617;0.283929;-0.110218;-0.383694;-0.43643;-0.436583;-0.127552;0.0191809;-0.140919;0.494751;-0.365322;0.0344707;-0.00508133;0.278466;-0.498932;0.409757;0.0648366;0.12389;-0.128559;0.362087;-0.331843;-0.0183264;0.148152;0.420957;-0.493988;0.379879;0.353206;0.202811;0.182699;-0.355342;-0.409635;-0.351619;-0.381588;0.287317;0.0100864;-0.245445;-0.0203101;-0.161794;0.431761;0.330897;-0.466704;-0.0904721;0.281121;-0.186422;0.330653;-0.232444;-0.00196844;-0.333186;0.128132;0.196158;-0.42877;0.403348;0.450468;-0.0675832;0.35641;-0.244438;0.202353;0.45584;-0.166585;0.0282754;-0.264214;0.41229;0.459807;0.163991;-0.221793;0.453917;0.275567;-0.447142;0.128437;-0.223533;0.416654;0.117664;-0.47354;0.135029;0.192648;-0.294488;-0.396603;-0.380612;-0.114734;0.317469;0.317347;-0.029191;-0.076281;0.207358;-0.217643;-0.279443;-0.406613;0.380825;-0.103992;-0.0675222;-0.0660878;-0.473785;-0.32815;-0.170156;-0.0171972
-0.0917539;-0.31637;0.088641;0.0214698;0.255669;-0.473388;0.0776849;-0.0211951;0.174703;-0.296899;-0.172292;-0.350154;0.118671;-0.16216;0.00999481;-0.115284;0.445921;-0.370266;-0.294153;0.404691;-0.403409;0.446379;0.248711;0.401425;-0.0800348;-0.0329447;-0.0805841;-0.424253;0.183248;-0.218833;-0.223441;-0.228019;0.293512;0.347682;0.402646;-0.135762;0.263604;0.222404;-0.152516;0.0510727;-0.0466475;-0.0410321;-0.449644;0.214469;-0.38229;-0.410123;-0.478362;0.499542;-0.207358;0.0939512;-0.434324;-0.228843;-0.450133;-0.243767;-0.174306;0.103961;-0.347468;-0.173055;0.432524;-0.0385907;-0.357875;0.38525;-0.462218;0.221091;0.388424;-0.185507;-0.486633;-0.298425;0.133503;-0.204917;-0.402097;0.34756;-0.438719;0.22103;-0.22805;-0.27047;-0.0763115;-0.0533311;0.142903;0.0141758;-0.245598;-0.230277;-0.379238;0.0615711;0.2022;-0.443113;0.166616;-0.194296;-0.485656;-0.0817438;0.393918;-0.425565;-0.298059;0.336879;-0.194815;-0.494812;-0.0822321;0.159536;0.444548;-0.287591
-0.421506;0.355281;0.247154;0.363613;-0.23751;0.447569;-0.132282;0.31933;-0.0862606;-0.473388;0.268456;0.494324;0.384152;-0.251823;-0.152028;-0.404569;-0.155232;0.22457;0.392788;0.392727;0.0974609;-0.28515;-0.368068;0.17983;0.318079;0.0200659;-0.323328;-0.419431;0.262719;0.489471;0.126057;0.357021;0.468078;-0.455199;0.119678;0.375851;-0.0229347;-0.371975;0.11919;0.389309;-0.378719;0.479431;-0.300623;-0.213157;0.39114;0.151601;0.130329;-0.0263833;-0.0748161;-0.333277;0.0318155;-0.467864;-0.349879;-0.2781;-0.118763;-0.176351;-0.398007;0.350154;-0.343623;0.184835;0.460601;-0.0577258;0.394101;0.376797;-0.172262;-0.463225;-0.0538499;0.442137;0.281457;-0.216758;-0.285943;-0.373714;0.236076;0.485931;-0.357051;-0.480041;0.140797;0.133564;0.257164;0.0781732;0.0471358;0.322108;0.0175329;-0.327448;0.0769219;0.475799;-0.217307;-0.166677;-0.178396;-0.226402;-0.345302;-0.16332;0.204978;-0.312922;-0.00892666;-0.205527;-0.160512;0.0355693;-0.136372;0.401578
0.408353;-0.0348064;-0.253655;-0.00169378;0.104022;-0.241691;-0.287317;0.103137;-0.345119;-0.121113;-0.0760063;0.0724357;-0.0293435;0.160695;-0.309992;0.0436262;-0.0614185;-0.455931;-0.116596;-0.182546;0.400967;0.268273;-0.0116733;-0.163747;-0.154225;-0.0755791;-0.434324;-0.0860164;-0.15862;0.276727;0.41525;-0.125477;-0.253441;0.257103;0.2163;-0.245415;-0.272668;0.0399945;-0.0716117;-0.273064;-0.388607;-0.39639;-0.267357;0.401028;-0.387997;-0.31637;-0.204367;-0.343623;0.452208;-0.474303;-0.363277;-0.33401;-0.0796381;0.343165;0.380123;0.264824;0.389065;-0.114093;-0.327113;0.320551;0.327845;0.0271157;-0.449522;0.262658;0.341395;-0.226554;0.0304117;0.425687;-0.235557;-0.394375;-0.283959;0.363369;0.344539;-0.444914;0.191183;-0.210318;0.0437178;-0.0765252;0.486969;0.303064;0.491058;0.0507675;0.40231;-0.44995;0.116382;0.0385296;-0.040788;-0.0150914;0.497192;-0.165517;-0.226157;-0.119404;-0.0505539;-0.415189;-0.374935;-0.251274;-0.105853;-0.339961;0.00141911;-0.176687
0.0301065;0.261132;-0.0920286;-0.234428;-0.155202;0.0118564;-0.286096;0.245567;0.494537;0.443937;0.32281;-0.4429;-0.415342;-0.219352;0.446013;-0.0779595;-0.118152;-0.0740837;0.261071;-0.359676;0.488769;0.0643788;0.235984;-0.25811;-0.486847;-0.220786;0.400967;0.29693;-0.237419;0.0938902;-0.151662;0.0405438;0.495209;0.343654;-0.257378;0.467986;-0.241111;0.283746;-0.378628;0.0569628;0.349422;0.33993;0.268273;-0.226707;-0.0811335;0.408017;-0.0600757;-0.484405;0.265862;0.108173;0.227287;-0.343867;0.338618;-0.0989868;0.333003;0.333338;-0.0179296;-0.0290994;0.0463729;-0.347407;-0.0394452;0.283197;0.196402;0.451628;0.28695;-0.278436;-0.135151;-0.213767;0.389828;-0.288232;0.1404;-0.206503;0.149678;0.237724;-0.305292;0.0876034;0.335658;-0.343348;-0.0375225;0.345607;0.473724;0.21923;0.205771;0.238639;-0.322108;-0.298944;0.244804;0.365139;0.475585;0.0516831;0.135762;0.342341;0.158254;0.467498;-0.422941;-0.287957;-0.311213;-0.205374;0.325678;-0.182669
-0.303217;-0.33169;0.40405;0.305963;-0.407193;0.294794;0.379727;0.417264;0.333369;0.281762;0.49823;-0.291833;-0.133015;0.424467;-0.0493332;0.375362;-0.206076;-0.147511;0.0575732;-0.171224;0.269311;0.4447;-0.350185;-0.325983;-0.317957;-0.0825068;0.428129;-0.241356;0.140431;0.493652;-0.417722;0.439421;0.295282;-0.443083;0.451598;-0.273553;-0.467406;0.19982;-0.492889;0.460753;0.0664846;0.069689;0.438078;0.180746;-0.0364849;0.420347;-0.37759;-0.164907;-0.369686;-0.225547;-0.236229;-0.00306711;-0.204855;0.104236;-0.0244301;-0.263237;-0.485321;-0.064745;0.0935545;-0.190634;0.237846;0.280816;0.498321;0.311853;0.45706;-0.187613;0.228599;0.468322;-0.020951;0.172781;-0.333003;-0.30221;0.345851;-0.161916;-0.420866;-0.378048;0.437346;0.43466;-0.212363;0.167928;-0.213065;-0.0825678;0.262078;0.423612;-0.358791;-0.484069;-0.0938292;0.400906;0.295038;-0.145985;-0.176412;0.363521;-0.266839;0.149556;0.343471;-0.124622;0.110034;-0.0992309;-0.413114;0.226066
0.0983764;-0.0350505;-0.144307;0.389431;-0.361538;0.43582;-0.37524;0.171682;0.118793;0.226463;0.419248;-0.294885;-0.480132;-0.23693;0.357387;-0.0560472;-0.448057;-0.303339;-0.358913;0.318079;0.318262;0.038255;-0.225272;0.201621;-0.465117;-0.375515;-0.206198;0.351924;-0.161519;0.319452;0.284539;-0.0243995;0.213157;-0.141285;0.475799;-0.422147;0.0676443;-0.257012;0.184622;0.251091;-0.00553911;0.0860469;-0.103626;-0.440733;-0.258538;-0.175649;-0.239097;-0.325556;0.427946;0.194479;-0.21395;-0.0788751;-0.464232;-0.116291;0.00975066;0.385403;-0.292291;-0.238426;-0.0684072;-0.255394;-0.117115;-0.403134;-0.0142064;-0.026017;-0.197928;-0.332148;0.336146;0.0865658;0.412931;-0.328974;-0.225455;-0.437498;0.207175;-0.16509;0.00444044;-0.375881;0.0203406;-0.354549;0.0900754;0.012772;0.326075;0.088702;0.353053;0.424192;-0.444731;-0.182546;0.49762;0.257927;0.472594;0.147969;0.245354;-0.162099;0.139973;0.292993;0.261254;-0.240471;-0.499817;-0.262658;-0.348201;-0.479705
0.110126;0.162526;-0.18337;0.0896786;0.0559557;-0.174123;-0.0648976;-0.42526;-0.418638;-0.198202;-0.131458;-0.362087;0.459502;-0.0100253;-0.239769;-0.177419;-0.35934;0.297662;0.113544;0.443449;0.206656;-0.0979797;-0.370144;0.19747;0.162679;-0.001236;-0.41229;0.151845;0.0987426;-0.0565966;0.044145;0.265038;0.251244;0.191336;-0.360714;0.0974303;-0.00379955;-0.0570544;0.286218;-0.132527;0.305597;-0.0999023;-0.473754;-0.489929;0.197562;0.0401471;-0.167867;-0.107044;-0.287927;-0.186117;-0.360927;-0.152577;0.443419;-0.326594;0.386135;0.170217;0.160298;0.336543;0.348262;0.251732;-0.454741;-0.306543;-0.459258;0.488037;-0.415464;-0.237388;0.477172;0.131886;-0.360591;-0.398587;0.0619678;-0.260186;-0.269585;-0.421751;0.399442;-0.129292;0.0659658;-0.0877255;-0.200583;0.193167;0.345973;-0.113147;-0.23806;-0.343287;-0.12743;-0.356929;0.221488;-0.11568;-0.00175481;-0.0401166;-0.167837;0.441282;-0.056505;-0.073748;-0.424558;0.137715;-0.485351;-0.0872372;0.471038;0.0204932
-0.246544;-0.25219;-0.327265;0.210562;0.0494552;-0.494507;-0.269555;0.242515;-0.253471;-0.189261;0.299066;0.0623035;-0.225028;0.0685598;0.0761284;0.33932;0.340052;-0.476836;0.249382;0.249229;0.198294;-0.446379;0.235008;0.383816;-0.446562;0.111774;-0.0116733;-0.0561083;0.102313;-0.290643;-0.331935;-0.128132;0.262413;-0.140065;-0.0647755;0.0797906;0.112506;0.38226;-0.331965;0.429472;0.0774407;0.471129;0.374264;-0.379269;-0.111957;-0.0577258;0.0818659;-0.355556;-0.151997;-0.44293;-0.010361;-0.0444197;-0.0616016;-0.166189;-0.341456;0.0239113;-0.208609;0.251244;0.0257424;0.417539;0.0645924;0.251335;0.0216529;0.0759148;0.246574;-0.0531785;0.0722831;-0.0712149;0.425718;-0.059801;0.267113;-0.483306;0.0530564;0.160268;0.474517;-0.229881;0.230338;0.122517;0.18569;-0.397336;-0.445036;-0.480529;0.368282;0.475341;0.0527818;-0.452269;0.110889;-0.412595;0.22985;-0.122913;0.340236;-0.149159;-0.225272;-0.331263;0.391415;0.303766;-0.0575121;-0.451292;-0.28695;0.120106
0.151418;-0.0577258;0.48883;-0.129261;-0.176016;-0.323725;0.455504;0.193258;0.0032197;0.254997;-0.299707;-0.474273;-0.224418;-0.283746;-0.282464;0.0616626;0.0319681;0.474059;-0.493683;-0.418607;-0.402493;0.0530869;-0.00929289;0.317316;0.262322;0.123035;-0.456877;-0.492218;-0.256981;-0.262841;-0.107013;-0.202506;0.108234;0.182699;0.200613;0.139271;-0.30282;0.348506;-0.420835;0.354274;0.0644398;0.0167089;-0.155263;0.00666829;-0.0191809;-0.0153966;-0.223991;-0.251061;0.0226295;0.422452;-0.33459;-0.205771;-0.220511;0.374172;0.442198;-0.328303;0.213095;-0.193228;0.149068;-0.0783258;0.197256;0.115009;0.0536973;-0.11391;-0.228996;0.486908;0.176199;0.251274;0.135731;0.037492;-0.486206;0.498566;-0.072161;0.115986;-0.255791;-0.0802789;-0.202139;-0.307093;-0.311579;0.352931;-0.172231;0.234092;0.314966;0.295434;-0.183035;-0.033433;-0.433958;-0.450011;-0.030839;-0.0560778;-0.212546;0.0602893;0.0104831;-0.183828;0.0430769;0.0921506;0.270837;-0.288476;0.0954772;0.416898
-0.240989;0.135151;0.333827;-0.347346;-0.236381;0.29223;0.430235;0.420469;0.0101779;-0.259178;0.00581378;0.470458;-0.0933714;-0.218772;0.0880306;0.435881;-0.0925169;0.487793;-0.360134;0.369442;-0.471252;-0.210501;-0.0569933;-0.280206;0.0442976;-0.493957;0.115284;-0.0967895;0.395108;-0.255425;-0.455382;0.127644;0.342708;-0.435453;-0.480102;-0.375484;0.39819;0.316279;-0.159505;-0.0544298;-0.442564;-0.440733;-0.314539;0.479766;0.37466;-0.032548;-0.476104;-0.152425;0.404813;0.126484;0.34753;0.328516;-0.453551;-0.370052;0.00654622;-0.0224464;0.316523;0.38113;-0.0692618;-0.411893;-0.412656;-0.494812;0.016129;0.156178;-0.181356;-0.219932;-0.0409101;0.0032197;0.314234;-0.00993377;-0.180929;0.213126;-0.464415;0.110401;0.0908994;-0.459777;0.00361644;-0.272423;0.0681631;0.443968;-0.181082;-0.397366;-0.221;0.406919;0.333064;-0.217093;0.275201;0.192221;0.00117496;0.169149;-0.443937;0.19686;-0.0525071;-0.0561388;-0.0913877;-0.44351;0.275018;-0.23278;-0.0554674;0.159078
-0.349391;0.14687;0.116169;0.222404;0.19689;-0.112384;-0.00813318;-0.407468;0.221458;0.0276955;0.0726188;0.419553;-0.18392;0.167531;0.430784;0.365658;-0.144429;-0.402799;-0.0476547;0.003708;0.428648;0.1292;0.464232;-0.439268;0.23159;0.0422224;-0.472991;-0.336207;-0.0438704;0.0429548;0.17571;0.243767;0.202567;-0.348811;0.388272;0.253868;-0.0503098;-0.0844295;-0.435575;0.358669;0.112415;-0.134938;-0.204703;0.250145;0.218833;-0.39642;0.205313;-0.253044;-0.262719;0.453032;0.147603;0.333125;0.0854671;0.051561;-0.465758;0.292352;-0.147969;-0.186758;0.0825678;0.0945311;0.262688;-0.344722;-0.241661;0.190115;0.421476;0.398831;0.198141;-0.130665;0.35873;-0.249809;0.390835;0.341731;0.41699;0.268303;0.40054;-0.307123;0.00590533;0.22454;0.411527;-0.125629;0.257805;-0.238334;-0.123188;0.3829;-0.385525;0.257744;0.0516526;-0.21453;-0.122608;0.301141;-0.307398;-0.253655;-0.248466;0.183584;0.204398;-0.287774;0.415006;0.316706;0.0147557;-0.0882138
0.144978;0.478637;0.459655;-0.173849;-0.468139;0.297174;-0.0411237;-0.213919;0.312342;-0.124653;-0.235557;-0.14745;0.35284;-0.0341655;0.0621509;-0.363369;-0.185263;-0.399472;-0.291955;0.21514;0.032548;-0.418729;0.380947;-0.201712;0.135853;-0.261559;0.432066;0.305506;-0.0529344;0.363124;0.21337;-0.494476;0.185629;-0.280725;0.165578;-0.122364;-0.489929;0.0427717;0.447111;-0.150685;0.42938;-0.0677664;0.385464;-0.432463;-0.385556;-0.460631;-0.468078;-0.140767;-0.358394;0.463988;-0.398709;-0.46234;-0.301416;-0.239586;0.0773797;-0.289483;0.284997;-0.038255;-0.234214;0.246513;0.437834;-0.472472;0.0754875;0.0560778;-0.485931;-0.37817;0.309717;0.343104;0.0608081;-0.372585;-0.251671;0.483428;-0.195517;0.302698;-0.197867;-0.313471;0.290979;-0.0125889;0.0207984;0.096881;0.206626;-0.236656;0.235618;0.4906;-0.0871151;-0.023545;-0.381832;0.224509;0.22457;0.0265358;-0.0636464;-0.406888;-0.0363018;-0.16924;-0.211173;0.250145;0.320093;-0.132832;0.099292;-0.149312
-0.450468;0.204672;-0.348201;-0.429563;0.0415204;0.425443;-0.0516831;-0.341945;0.286889;-0.153676;0.169637;-0.323084;-0.222404;-0.0548265;-0.478637;-0.407285;0.369015;0.398618;-0.254265;0.362941;0.136494;-0.362819;0.0806757;0.184469;0.257378;0.324763;0.447417;0.0558031;-0.0504318;-0.332545;0.147877;-0.190146;-0.00196844;-0.0406964;-0.14687;0.273766;-0.0995972;0.270409;0.164083;-0.288202;0.163045;-0.316279;-0.474517;0.208029;-0.221366;-0.0127415;-0.224815;0.144124;0.416868;0.227287;0.108783;0.429807;0.358913;0.0292825;-0.258019;-0.359127;-0.292261;0.0927915;0.0514389;-0.277703;-0.0952635;-0.233909;0.475188;0.411283;0.0842463;0.10744;-0.0459151;0.0379192;0.297449;0.338862;0.195761;-0.141194;0.136433;0.098529;-0.458159;-0.41995;-0.209952;0.398648;-0.279992;0.226035;0.0624866;-0.305811;0.262169;0.010239;0.386196;-0.0303201;-0.130299;0.36404;0.360012;0.249382;-0.492553;-0.21984;-0.155995;0.437773;-0.492737;-0.373135;0.142384;-0.103626;0.462737;-0.411222
0.305139;-0.336787;0.195975;-0.108722;0.0803705;-0.279199;-0.421781;-0.0358135;-0.451628;0.219565;0.484985;-0.298944;-0.031724;0.062273;-0.332881;-0.029252;-0.131031;-0.243522;-0.18041;-0.463317;-0.0844905;-0.0597705;-0.371822;0.0411542;-0.417875;0.488342;0.0764641;0.209799;0.162984;-0.395352;-0.206626;-0.0666066;0.152211;-0.19274;-0.276452;0.382717;-0.475616;0.211997;-0.0994446;-0.187216;-0.0535142;0.0215613;-0.394528;0.213004;0.452849;-0.374294;-0.308893;0.459044;-0.385891;0.219016;0.353633;0.123066;-0.268029;0.342402;0.132649;-0.40173;0.0900143;0.254997;0.421201;-0.305506;-0.207297;-0.457884;0.266594;0.360103;0.223746;-0.134083;-0.256462;-0.312189;-0.345698;0.264672;-0.319086;-0.140492;0.033433;-0.0925169;0.0231788;0.18688;0.490997;-0.290033;-0.39227;-0.0959349;-0.415189;-0.282128;-0.360073;-0.131581;-0.176656;-0.335932;-0.353969;-0.174184;0.494873;-0.393887;0.1863;0.396634;0.33459;0.0498215;0.10918;0.438505;0.0609302;0.465453;-0.372677;-0.0573901
0.312128;-0.397275;-0.00230415;0.119251;0.0145421;-0.488739;0.0859554;-0.17101;-0.286126;-0.328303;-0.403012;0.016007;-0.0995972;0.144917;0.253075;0.299463;-0.140309;0.144826;-0.300134;0.37933;0.0801263;-0.0585803;0.422819;0.413144;-0.25219;-0.499939;0.454161;0.019364;0.361324;-0.236747;0.152486;0.0643178;-0.00386059;-0.0186621;-0.16448;-0.111866;0.251396;-0.00169378;-0.452055;0.126911;0.408841;-0.101123;-0.254936;-0.213645;-0.163472;-0.0767998;0.173727;-0.276055;0.167531;0.0553453;-0.26812;0.195486;0.285485;0.191794;-0.412076;-0.377865;-0.352107;0.296472;0.340876;0.234855;-0.0213477;0.448149;-0.497192;-0.248589;-0.139058;0.186819;0.0852535;-0.256401;0.261803;0.0650502;-0.430387;-0.150594;-0.48056;-0.189352;0.0443281;0.487793;-0.174947;0.00715659;-0.211203;0.231101;-0.270531;-0.302332;0.086108;0.49237;-0.293085;-0.180654;-0.454741;-0.316858;0.306543;-0.12624;-0.285119;0.49823;-0.0770745;-0.259972;0.268487;0.483673;-0.282739;0.0368206;-0.455992;-0.455779
-0.280206;-0.0607166;-0.282434;-0.453429;-0.354396;-0.142506;0.393521;-0.325739;0.454192;-0.117695;-0.108417;-0.308832;0.184439;0.405057;0.0127415;-0.230766;0.0966063;-0.182455;-0.435423;0.0367901;-0.348292;-0.301935;0.427976;-0.495911;0.360469;0.390164;0.445769;-0.477966;0.0321512;0.380215;-0.0848567;0.42996;0.455779;0.380093;-0.0352641;-0.450346;0.0434126;-0.478912;-0.402463;0.181021;0.46823;-0.434507;-0.318506;-0.244133;-0.172414;-0.458007;-0.331721;-0.193411;0.363002;-0.288995;0.321863;-0.0950499;0.267693;0.266686;0.238212;0.228324;-0.386319;-0.319025;0.437284;-0.0912351;-0.0710623;0.0971252;-0.191702;-0.178091;0.456267;-0.322291;-0.309809;-0.0287637;-0.374844;0.314356;0.36758;0.124439;-0.23217;-0.395138;-0.23571;-0.141987;-0.389645;-0.495788;0.115528;-0.333766;-0.429228;-0.444334;-0.100604;0.290887;0.394925;0.108173;-0.190115;-0.0720695;0.161428;0.426237;0.0518052;0.467345;0.187124;0.0989257;-0.260643;0.422514;-0.135914;-0.346309;-0.320582;-0.294885
-0.0404523;-0.218497;0.32107;-0.097705;0.40994;0.0797601;0.151906;0.211722;0.140431;-0.281243;0.32342;-0.308863;-0.0590686;-0.0612964;-0.214286;-0.0210425;-0.0698721;-0.217673;-0.286401;0.141255;-0.361354;-0.0291299;-0.495514;-0.197501;0.242515;0.328272;0.13039;0.215323;-0.0216834;-0.339167;0.124073;0.426328;0.271355;0.497986;-0.0183264;0.193533;-0.392392;-0.399289;0.262535;-0.187674;-0.318323;-0.356136;0.167196;-0.494385;-0.149403;-0.0215308;-0.124378;-0.465148;0.426328;-0.119739;0.426145;-0.312098;-0.16335;0.191122;0.416715;0.300226;0.187155;-0.240989;0.309809;0.465331;0.254326;-0.416868;-0.378048;-0.408841;0.44171;0.070452;-0.220634;-0.041673;-0.269707;0.309626;-0.0793329;0.436491;0.154286;-0.230979;0.428404;0.015183;-0.166707;0.324641;0.470122;0.305536;0.0926695;0.024247;0.330531;-0.331294;-0.297113;0.494476;-0.184072;0.127766;-0.230674;0.396298;-0.487823;-0.281396;0.303613;-0.164083;0.177328;0.437193;0.00795007;0.13686;0.0503098;0.438169
0.303583;-0.120411;0.35699;-0.357997;0.134663;-0.385006;-0.205283;0.406583;-0.421354;0.158132;0.276452;0.419126;-0.205313;-0.13213;-0.283929;0.465758;0.341212;-0.18038;0.136097;0.233573;0.393612;0.276482;-0.12154;-0.197439;-0.105976;0.365688;0.200552;-0.0168004;0.163686;0.36642;0.0369121;0.155721;0.00935392;-0.485107;0.208487;-0.231956;-0.14452;-0.266198;-0.139821;0.147786;-0.0673391;0.191122;0.40817;-0.214927;0.0541246;0.0959655;-0.22161;-0.257653;0.0115207;-0.36346;0.217277;0.347438;0.120716;0.467193;0.455718;-0.174123;-0.0503403;-0.349788;-0.491791;0.0292215;-0.241234;0.459532;-0.11214;-0.0850398;-0.314234;-0.0487533;-0.481628;-0.0650197;0.205679;-0.291345;0.125019;-0.0118564;-0.102527;-0.333033;0.385067;0.0940428;0.0489364;0.424558;-0.380764;0.443083;0.130146;-0.0535447;0.30575;-0.0196997;-0.33227;0.0672781;0.197287;0.178426;-0.449187;-0.301416;0.323328;0.156606;0.299371;0.147908;-0.341884;-0.198874;0.327235;0.455412;-0.263878;0.0443587
-0.269616;0.154073;-0.00425733;-0.0418561;-0.368404;0.360408;0.133137;-0.182058;-0.386654;-0.399045;0.246727;-0.206259;0.269555;0.281884;0.0541551;0.424436;0.408017;0.206961;-0.0371563;-0.468688;-0.0659352;0.0510422;0.274957;-0.272149;-0.0522629;0.19451;0.308863;0.180624;0.0843379;-0.174551;-0.282586;-0.220939;-0.368984;-0.284204;-0.214927;0.369564;0.449705;-0.422758;-0.0153356;0.209983;0.237846;0.403775;-0.424955;0.301477;0.158559;-0.293573;-0.478698;-0.246757;0.370968;0.0475326;-0.481811;-0.163015;0.492248;-0.220908;0.398556;-0.113208;-0.477508;0.39349;-0.292535;-0.298853;0.26397;0.390805;-0.275781;-0.396756;-0.234733;0.0708792;-0.287957;-0.184622;-0.177297;0.154744;-0.321802;0.30459;0.0691397;-0.357234;0.424894;-0.245415;-0.317896;-0.184805;0.172353;-0.178426;0.242485;-0.218375;-0.464446;0.329096;-0.225608;0.485626;0.135731;-0.441557;0.498596;-0.429746;-0.372311;0.291742;0.32931;0.012009;0.424802;-0.237785;-0.352962;-0.0724967;-0.0981323;0.169942
0.377865;0.461272;0.358516;-0.0826289;-0.0897702;0.159047;-0.47702;0.222648;-0.118458;-0.265679;-0.121448;0.265374;0.364589;-0.366848;-0.406796;-0.477569;0.4859;0.304529;0.334407;0.449156;0.00703452;-0.418424;-0.250572;0.162496;-0.10033;0.0809198;-0.106464;0.282647;0.446532;0.0252235;0.386044;-0.411344;-0.101428;0.396451;-0.423429;-0.354671;0.220359;-0.1751;-0.49762;0.056505;-0.0457015;0.121296;-0.0824763;-0.498169;-0.264489;-0.14275;0.175832;0.213248;0.488281;-0.0988037;0.248711;0.0464034;-0.164815;0.315394;-0.341121;-0.195059;-0.24926;-0.479369;-0.388821;-0.0276955;-0.00990326;0.134754;0.102283;-0.491638;0.32458;0.391232;0.289758;-0.133412;0.114978;-0.456084;-0.0975524;-0.111805;0.254143;0.164846;-0.0269021;-0.27047;0.00987274;-0.259758;-0.32577;0.478881;-0.200644;0.472137;-0.460936;-0.380978;0.426695;-0.309198;-0.15157;-0.00825526;-0.185598;-0.214499;0.464751;0.420408;-0.239555;0.0581225;-0.105365;-0.352901;-0.248253;0.407743;-0.138508;-0.259392
