-3.063295,0.125584,-0.426191,1.151921,0.746635,1.685995,-3.431959,3.210089,1.249580,2.744072,-2.098300,-0.934019,3.974883,4.099399,4.012116,3.896756,-1.076235,4.150670,-0.505539,-0.454573,-1.322214,-4.176305,-1.436964,-0.609302,0.038606,2.898190,2.326884,-2.232276,2.018342,-2.712638,3.194525,-1.999725,-2.011017,3.840297,-3.277535,-1.888333,4.806207,4.222999,-3.783837,-1.730247,-3.286081,-3.551286,0.395672,-0.961791,-3.147526,1.611530,-0.557726,4.486068,4.172033,4.389019,-0.262917,-0.774712,-1.429640,-1.120487,2.601856,3.437757,2.067476,-3.665731,-2.644581,4.949339,-1.174810,-3.656880,4.004181,2.422102,1.828211,-1.957915,-4.134800,-1.281930,-0.962096,2.903378,-2.546617,-1.495865,-3.168889,-4.331034,-2.073885,-0.845210,3.536332,4.992370,-4.587695,-0.977660,0.880001,0.345622,2.531663,2.128819,-3.844264,-3.233283,-1.584063,3.348643,2.929930,3.993194,-2.450789,3.140812,3.091372,1.556597,0.735649,-4.105502,-1.934416,-3.603778,-1.491592,0.952940,1.999115,4.556261,2.293619,0.370342,4.728385,3.522294,3.640095,2.474593,-2.651601,-3.227485,-3.173162,-4.708853,-1.809595,-2.908567,-4.834590,-1.107059,2.022614,0.220191,-3.698691,0.737480,0.283975,-4.601733,-3.164312,3.056887,-4.829707,4.365520,1.575213,-3.640400,-4.624317,-4.620350,-2.279580,-1.891079,-3.690756,3.821986,-0.686209,0.638295,2.595447,-4.061556,2.246925,-2.630848,-4.326151,-2.702872,-4.846797,1.391186,4.309671,2.510300,-3.511307,-4.532762,0.821406,-2.213050,3.115787,-2.469405,0.851619,2.886288,0.706046,0.725883,-0.520493,4.020356,1.270943,2.072054,1.495865,4.282510,-1.866970,-1.207465,-1.349681,3.154851,3.652913,-3.608966,1.684774,1.660360,0.018769,-2.477035,-0.038911,4.723197,-1.578570,-4.267861,-3.494827,-2.703177,-3.085879,3.114566,1.266060,-4.172948,2.279885,-4.033479,0.416425,1.605731,-3.786889,-2.511826,4.497360,-2.415998,1.134526,1.598102,3.224738,-4.794610,-4.059725,-3.078249,-0.232704,2.820368,-2.987609,-4.977111,2.311319,2.242958,4.790338,1.932279,-4.280068,-4.981384,1.223640,-2.961974,1.107669,4.960631,-1.583148,-1.591082,-3.868068,-1.487014,3.776208,-1.403394,3.824427,-0.481735,1.973174,-0.003204,2.765435,-0.067598,-0.961180,3.817408,-3.576006,3.064516,-1.101871,1.728111,4.467147,0.897702,-2.343364,4.242531,3.852504,2.054048,-4.042024,4.906003,2.523118,1.966765,4.714652,4.344462,3.510392,1.821192,4.534593,3.237861,2.258217,-2.170629,4.150365,-1.715293,4.984130,-2.602161,-1.836451,0.216224,0.887631,3.753319,-0.579699,-2.077853,-3.981292,-4.414655,-3.674886,-2.245705,1.619465,3.277535,0.412763,2.068697,4.748527,-1.725974,4.481796,-3.933988,4.006012,-2.839290,-3.388928,-3.001343,-1.831263,-2.987304,0.366985,4.800714,0.544908,3.573870,-3.489944,-1.792810,-3.133488,-1.168706,-3.474075,-4.574877,-0.469527,-0.453047,3.277535,3.416700,-4.004791,3.308969,-0.896481,4.857173,4.156468,3.663900,-3.330943,-3.165838,2.501450,0.895260,2.883236,0.346232,-2.133702,0.007477,1.194037,4.662465,-1.399426,2.481002,2.576830,-4.389935,-4.044465,3.356273,0.526292,1.852626,1.506241,0.216834,0.363018,-1.786401,3.423109,-4.373455,-1.828822,0.117344,-0.597095,-0.413678,-0.323649,-1.795862,-0.927610,3.572649,4.378033,-2.815485,3.676412,2.723014,-4.753105,-2.006439,-4.136021,-2.273476,-0.695364,-2.692190,-2.613147,2.983642,-0.610523,3.490555,-2.483749,2.598498,2.431257,3.022401,-0.001373,0.766472,4.540696,-3.515580,1.357006,-1.881924,-1.775109,-1.845912,-1.646321,0.582141,2.050386,-1.722922,-2.574999,2.332377,-1.946928,2.077242,3.901028,-0.624866,-2.779778,4.566942,3.822596,-4.650563,-1.651814,-4.778741,-3.829615,-3.908048,0.592212,1.579485,-1.684469,4.535813,-4.979247,-4.170202,2.502670,2.503586,-4.513230,3.453017,-3.814051,0.958739,4.125340,-2.031465,4.021882,-4.726249,1.794336,0.869320,4.333781,-2.915891,-1.228523,0.781732,-2.135228,-0.718253,-3.987701,0.937376,1.626484,-4.279458,2.291787,-0.999329,-4.342936,2.189550,-2.465133,-1.674093,-4.496139,0.215613,-2.347331,4.702139,-1.760460,0.265053,1.192511,-2.353435,4.826960,-4.100925,3.120060,0.315714,-3.356273,-4.549242,-3.960540,-2.913755,-1.019776,2.781915,4.172338,2.881100,-0.679495,3.685263,0.395062,3.289743,3.224128,-0.503403,1.665548,-0.443281,-4.385357,4.471725,3.131046,-2.506943,0.294961,-1.502579,-3.752709,4.377422,-4.507126,1.699728,1.211127,2.906735,-1.741539,2.502976,-0.979492,-3.738670,-4.480575,-4.284951,3.480178,3.346812,4.609668,2.191382,-1.543474,-1.730247,1.083254,-3.359020,0.703299,3.120365,-3.374889,-4.853511,3.561357,-1.887722,4.873959,-1.053346,1.855068,-1.844996,-2.035432,-3.945891,3.287912,-0.093234,1.609088,-2.731559,-3.342235,-1.614887,1.522416,-1.855068,2.200232,-2.814264,-0.989868,3.481399,4.371929,1.382031,-1.471145,-4.108860,2.389142,-2.844172,-4.970397,-4.983215,-1.166570,-2.762078,3.902860,-1.047548,1.634419,-3.796655,1.327403,4.435713,-0.255593,4.699087,-2.148961,-2.629933,-2.181005,-3.345592,2.996460,0.246132,0.211341,-1.452528,3.722495,-1.986908,-0.404523,4.780877,4.540696,-1.023743,0.533921,-1.765343,2.107761,2.272866,3.296457,0.059053,2.101047,-1.507157,-1.754662,-2.235633,1.191900,-4.991760,-3.898587,-4.321879,1.931364,2.571642,4.399701,-3.175298,3.355358,4.743339,-4.550462,0.296487,-4.873653,-3.281503,-3.887906,3.171941,-1.974700,-4.891659,4.704581,1.050600,-1.402478,-4.760430,-4.652394,-3.738365,0.778375,-2.460555,-4.932554,-2.188025,2.298502,-0.438398,3.961150,2.134312,-1.309397,-4.778741,3.742637,-1.302988,2.703482,-2.199622,4.983215,-0.455184,1.940825,-1.717124,-1.650594,-3.178350,2.532884,-4.415265,0.163427,-2.651906,1.660054,0.243690,-2.411420,-1.688131,-3.269906,-1.876125,3.757286,3.131046,4.035005,-4.292581,-1.845607,1.559954,4.687796,3.528397,2.564623,3.093204,0.659047,-0.689871,-2.099826,-2.266762,-1.275521,-2.619251,2.220069,3.183538,-4.867244,-4.088412,-4.748527,2.531358,-1.188238,-1.443678,-0.268715,1.479995,-4.082308,2.043977,4.871212,-0.805841,3.550371,-3.707236,2.268593,1.823328,-4.565111,-1.394238,-0.429243,2.759941,-2.604297,-1.489456,2.203284,-1.299020,-4.580370,4.806818,-1.521195,-4.427778,4.137547,1.382946,-1.602374,3.378246,-1.479080,3.364513,1.451613,4.039277,-3.378246,0.157018,3.743553,1.281625,-3.847316,-3.052309,-0.262307,-3.360546,2.732170,1.223945,-1.049684,0.632496,2.598498,-4.125340,2.893612,3.182318,-2.387005,-4.561449,2.586901,2.329020,-4.641713,-2.944578,1.946318,-4.687490,2.147740,2.690359,-2.633290,1.078372,1.754967,4.188513,-1.192816,-1.728721,-2.315897,-2.276833,2.690970,-2.218543,1.781823,-0.794549,1.937773,3.902554,-2.987304,-2.793207,3.434706,3.164617,-2.793207,4.968871,-1.737877,4.909360,1.591388,-1.944792,4.986877,2.661061,-3.077639,-0.787225,1.331675,0.364544,-4.976806,-3.001038,4.539476,2.546617,-1.451308,-0.256508,-4.261452,2.466964,2.782525,1.404309,-1.373180,-2.679983,-3.716697,0.880001,-2.218543,4.549547,-1.808679,1.343272,-3.085574,-1.662496,-4.995117,1.153142,2.377544,0.336161,4.646596,2.915586,2.237465,3.694113,0.622120,2.248451,-3.772851,4.451582,4.095431,2.817011,-3.109378,-0.642567,-3.322092,-0.797906,-2.770928,4.177221,1.763207,4.161046,-4.833064,1.549883,-2.800531,1.846828,0.143284,2.460250,-2.870418,3.548235,2.146825,0.382855,-4.200110,-2.492904,-1.495560,2.170324,1.154973,-0.612964,-1.263619,4.737236,1.030457,4.943541,2.788629,1.608783,-0.243690,1.465346,2.958617,-1.602069,-2.018647,-0.450911,4.824519,1.265450,3.534806,1.767479,-2.510605,-2.563707,-3.866237,-0.205847,-1.541643,1.826380,3.752403,-3.452101,3.450270,-1.156499,3.461562,4.921567,-3.530534,3.431959,4.557482,-0.349590,0.442976,0.411542,-3.217719,3.892788,3.732566,-3.814966
1.461989,-2.923215,2.842952,1.867885,-1.640828,-4.418317,-3.368480,1.908475,-3.931547,2.810297,2.335429,-2.742546,-1.247139,0.222022,-1.274300,-2.847530,-2.954344,-4.117100,-3.294321,-1.424146,-4.078341,2.100131,2.661672,-2.546617,-2.644276,-1.302377,4.878842,0.651723,0.575732,3.502762,-1.661580,2.840510,-2.269814,-3.402051,-1.794031,-2.720573,-2.224647,-0.089877,-2.678762,4.594714,-3.602252,-1.311533,-1.992706,-1.396680,4.785760,-3.556475,3.506119,3.255562,-4.940794,-0.095065,-0.642262,-0.251930,-4.824519,-4.441206,0.032502,-2.120273,1.115299,4.334696,1.128422,0.703909,-0.829035,-4.007538,2.449263,-3.451796,-3.857997,-0.213172,2.273476,-2.542344,0.255898,2.956481,-1.873074,-1.874599,0.619373,3.613239,4.371624,4.376812,-1.976226,-0.415510,1.923429,-4.735405,4.905393,-0.222022,0.412763,-2.158727,-2.720573,-0.373394,-1.903592,-1.331675,-3.536637,-2.821894,-0.160985,1.127506,3.390759,1.393933,-1.530656,2.594531,3.340709,-0.786004,-0.167394,0.539415,3.888821,2.955870,-3.156682,1.614582,3.891873,4.608753,2.856075,2.793512,-3.678854,-1.417127,-0.336772,-1.377758,2.757195,-0.520188,0.439009,3.649251,2.353740,-3.555864,2.930235,4.089633,3.090152,0.659352,3.219855,-2.206336,-1.880093,-2.448653,-4.633778,-3.423414,-4.969481,0.262612,-2.766350,-0.025483,0.824763,-4.045076,-2.171239,4.488510,0.435652,1.511124,-3.548845,-2.619556,1.594440,0.188757,-1.025575,-0.917844,3.852809,-4.200415,1.567888,3.277230,4.580065,-4.034700,-2.827387,-1.274300,-0.252541,1.020081,-4.956969,1.887112,2.306742,0.121616,-1.330454,4.406110,-4.019135,1.129032,2.389447,4.525132,-2.722709,-4.185461,2.003693,-3.514359,3.535417,-3.030946,-0.288858,-3.020875,-0.177465,-1.034425,-1.331980,2.711417,2.490463,-1.660360,-2.506333,-1.855983,2.203284,-4.043855,0.025483,-2.528306,4.251076,-2.683950,0.643178,-0.095981,-1.038697,2.573778,0.471969,2.305521,0.021821,2.821284,4.774468,-1.734214,3.522904,4.206519,-3.149358,-2.342448,-4.463485,-3.555254,-1.249275,-4.258705,1.046937,-2.711722,4.117710,-4.110385,2.032685,-0.485702,3.472549,4.980773,-2.470016,1.995453,-2.747124,-4.464705,3.477432,1.414991,-3.083132,3.653523,-4.843745,-3.810694,-0.572375,-3.189642,0.046541,-0.840022,-4.573351,0.584277,3.898892,0.615711,-3.584552,-1.631977,-2.151402,-1.788232,1.248665,3.133488,-0.628529,-4.654530,-2.741020,-4.691763,4.903562,4.550768,-3.676717,-4.169591,-3.069094,-2.526170,1.181829,-1.563311,3.367565,-2.003388,2.324137,0.257118,2.027497,0.063326,0.754265,4.769280,-1.989959,-3.221076,-3.053835,-3.820460,-3.192999,2.339702,1.305734,-0.706961,0.942259,3.356578,-3.554643,3.932463,2.963195,1.137577,-3.409375,-2.027497,2.589953,1.488235,4.427473,-1.950591,0.837275,3.595538,0.701163,2.007965,-1.077151,4.554125,-3.113651,2.148961,4.771722,1.101566,-3.768883,3.342540,4.931639,-4.876705,3.495743,-4.935606,4.710379,4.487899,-1.308176,1.421705,4.351176,-4.222388,-4.855953,-1.771447,4.050569,0.476852,-2.826167,1.198614,-4.359416,1.179388,-2.271645,4.306314,3.744163,-0.623951,1.262703,2.394024,4.209265,1.392102,2.188635,-2.924436,2.650075,4.023713,4.201636,0.003510,0.890378,-3.548235,0.800043,2.563402,4.134800,-0.016938,2.307352,-3.945280,-3.328806,2.187109,-0.288858,1.425367,-1.075014,-3.010498,0.632191,2.615894,3.668477,-2.712027,-2.267373,2.581408,4.208350,1.644795,4.880367,-3.947417,2.353435,1.628620,1.377148,-1.903897,-1.015503,1.361583,-0.430769,2.537767,-4.969787,-4.165014,-3.853420,-0.686514,-4.331645,-0.439924,2.446516,4.806818,-4.438154,2.108371,4.074068,4.237953,-2.059236,2.113559,-4.848628,0.166478,-4.653005,-3.708457,-2.490463,-3.831446,4.849544,-4.958190,0.130772,-0.245827,-4.454329,1.193731,-0.838191,3.582415,1.161077,3.459120,3.802454,-0.956603,-4.443342,1.156804,-1.613666,1.264534,3.962981,1.766259,-4.031953,-0.396893,-2.256081,-2.122105,3.723716,2.693716,-4.485458,-4.901120,-4.519639,2.105014,-1.586505,-2.520066,1.689962,3.674276,2.350078,2.022004,2.153539,0.580615,-4.961852,-1.169927,1.814783,-2.781915,0.627003,-1.526994,4.930113,-2.068697,-0.262307,3.112125,-2.069002,-0.321207,-2.269204,2.961364,-3.707541,2.683340,-0.998718,4.645070,-4.286782,-1.866665,0.125278,3.009278,2.929930,-3.002258,-0.333110,2.954649,-3.532365,-0.984069,-2.545701,2.850276,2.650075,-4.072848,1.146733,-3.907132,-2.829829,-2.000031,2.892697,2.373272,-2.455367,-2.075716,3.904080,-4.790338,-3.243965,1.130863,-0.251625,-2.682424,3.402356,-3.401746,4.179968,0.370647,-1.341136,-2.790460,4.314554,0.719474,-4.626759,3.724937,4.969176,-2.369610,-0.400555,1.425367,4.969787,-4.394208,-0.115513,3.501541,3.247627,-2.649770,4.625538,0.236976,-2.469100,-1.059145,2.801141,-1.942045,3.448439,3.770409,-1.600848,-2.491989,-3.146306,-3.179876,3.843043,4.212012,-2.811823,-4.170812,2.738273,1.888028,4.685965,0.917844,-2.752922,1.477554,-0.755486,-0.765862,0.403912,-4.554735,3.765831,-3.820460,-1.316416,1.323435,-0.218665,-0.218360,-4.860836,3.551286,-1.823023,-0.229957,-1.583148,-2.319254,2.826472,-2.072665,-2.040010,-3.989837,-0.051729,1.266366,0.722526,-1.299631,0.997803,4.606922,-0.307474,-0.553758,1.906034,4.105197,-0.450301,-0.239418,-3.520463,-1.694235,-0.237892,0.932493,-3.225654,-1.724448,0.436262,-2.274392,-1.749779,3.380078,1.234321,2.875912,2.528611,4.268166,-1.328623,-3.546709,-4.443648,-0.373699,2.101962,-0.850703,3.995025,-1.733909,3.711509,3.552507,-2.357707,3.102664,2.824641,2.474593,0.703909,-1.406446,-0.157933,-1.609394,-0.275430,-1.802881,0.118564,3.055055,0.990478,3.409680,3.094424,1.353038,-4.780877,0.950804,-3.005310,-1.541643,2.345805,-0.346232,4.407331,4.348735,4.219031,3.626057,-0.950804,4.750359,-1.980193,3.241523,-0.957823,2.569506,-1.782128,0.527512,-2.999817,-1.124454,-0.128636,0.509201,2.247536,-2.502670,1.090274,-4.927671,-4.521165,2.293619,-2.529221,0.910215,1.172063,1.163213,-3.684042,-1.888943,-1.932279,-4.143040,3.451796,0.959044,3.029115,1.652425,0.456709,-2.503281,-1.410108,-4.050264,-4.889218,-0.572680,-0.489059,-0.135044,2.883236,-1.093936,-1.352123,1.865444,2.262185,3.790246,-2.547533,-2.477340,1.751610,-2.090670,1.412549,4.441816,1.335643,-2.081515,-4.254128,-3.574175,-3.769799,3.291879,1.662801,-4.055757,-4.268777,1.028016,-1.495865,-1.037477,4.975585,1.622211,2.074190,1.198309,2.419660,-2.128513,4.475082,-0.134434,0.859554,3.074282,-4.242225,-0.029145,4.792779,0.186316,2.705313,-0.779290,1.945097,-1.502884,-4.949644,0.605640,1.766869,-0.611744,4.455245,-3.276315,-1.285592,-2.264931,-3.448744,4.903867,3.132878,0.517441,1.362194,-2.809992,-2.456587,-0.802179,2.414472,4.257485,1.159246,-2.566759,-0.145116,-2.690054,0.430464,0.681326,-2.116001,-2.966857,-1.557817,-0.738701,1.816919,3.658406,0.970336,1.437880,-4.913633,-2.796258,2.008576,-1.914579,1.501663,1.952422,-3.416700,-4.504074,3.068789,4.231849,3.666036,-2.103488,-1.304209,-2.442244,-3.008972,-3.767968,4.085665,4.202246,-3.395032,4.785760,-1.866359,-2.750786,-1.057924,2.188635,-3.858608,2.204505,-1.747948,-1.610004,-4.839167,2.215491,-2.811213,4.146092,1.777551,-4.033174,-0.631581,4.588916,-2.350993,2.318644,1.714988,3.442946,3.111209,0.738090,-0.596484,-0.552843,4.159520,1.601764,1.211737,1.545915,3.125858,-4.580370,-1.903897,4.413129,-1.643574,-4.953001,2.803278,0.869930,3.208869,-0.049287,3.326365,2.761162,-0.326701,-3.417005,-1.975005,-3.151494,-3.058412,3.938871,-4.784234,-2.710807,0.224464,-1.657613,-4.951170,1.255379,0.138401,-3.456679,-3.519242,-0.736564,-2.029633,1.169927,-2.839595,-3.227790,-2.865535,-2.390362,-0.966674,-1.387524,-3.868374,-3.619648,-2.514878,2.811518,3.326670,0.049287,-3.168584,-4.625843,-1.147038,-1.233406
-0.034333,2.585376,3.960845,3.474990,4.983215,2.390667,3.117008,0.856807,-3.412732,1.426283,-0.827509,-0.917234,-4.904172,-0.747856,-3.091372,-1.577349,0.855586,-3.642842,-4.725333,-4.215979,-3.120670,-2.505417,3.629414,-2.762993,-2.478561,-3.087405,2.297891,-2.409589,-4.003571,-2.956786,2.760552,1.082339,-1.439711,-2.791986,-2.221595,2.244179,-1.835231,3.909268,-3.221992,1.006653,-4.604480,-0.739311,-3.202460,1.101871,-0.491195,-0.867489,4.316385,-4.166540,-2.622608,-2.441023,-1.728721,0.268410,3.160955,-1.018555,-0.417646,3.919340,-3.491470,4.884945,-2.511216,2.977538,2.112949,-3.606830,-1.980499,-3.840602,-1.579485,-0.618152,4.901120,3.227485,-1.682028,3.673055,-1.778161,0.249184,-0.399030,2.876522,1.161382,0.660573,-1.957610,-3.563494,0.098422,-3.812220,0.869625,0.448775,-1.587725,-3.301340,3.465835,-1.192206,-0.713675,3.040101,-2.895138,1.251717,-2.172765,1.925565,0.534837,-0.137791,-2.183752,-3.059633,3.221076,0.583056,3.397778,4.718009,3.062380,1.323435,1.025269,0.354472,-3.606525,3.203681,1.972564,1.129948,3.081606,-3.492080,0.721915,2.584155,4.537339,-2.090976,-0.452742,-3.974273,-2.554857,0.521104,4.598987,1.525773,1.031678,3.350169,3.804285,-4.537950,0.678274,1.700644,1.899014,-3.320566,-4.302347,-4.898679,2.899411,0.321512,4.080172,4.314554,-4.672842,3.405713,2.025361,3.984954,0.503403,1.194037,1.074404,2.504196,-0.783258,-1.567583,0.648366,-4.363994,-2.910703,4.511399,-1.187628,-4.519028,3.941008,-3.384655,-0.927610,1.328318,-2.527390,-0.071871,-3.977020,3.971526,-3.420972,-1.056703,-2.349162,0.039521,4.600208,-1.042970,-2.884457,-2.088534,-2.170324,1.796777,1.811731,1.775414,-0.411542,4.849849,2.531358,-4.606616,-4.824824,-2.543565,0.533921,2.138585,-1.986908,3.729820,-4.656972,2.860347,2.294839,-4.139683,1.073794,-1.852016,2.448653,-3.024232,4.110080,-3.449965,4.729911,-2.388531,-0.057833,-4.689016,1.256294,4.855647,1.976226,-4.806207,1.796777,-1.763817,0.130161,-4.056978,3.624531,1.406140,2.024445,3.958708,4.752190,3.691977,4.586779,-1.263314,0.856197,0.568712,-1.124149,-0.356609,1.206244,-2.875912,-4.056063,-0.416730,3.909879,3.571123,-3.456679,-2.875301,-4.212928,-3.124332,2.495346,3.644063,-2.813349,-2.440107,2.531663,-2.947630,-2.945494,-4.256569,0.420392,-1.332286,-1.428724,-4.515671,-1.810511,4.793390,0.664846,1.486404,2.262185,-0.436262,-4.280984,-2.772149,-4.688406,0.627918,-1.216926,-1.416822,1.654561,4.220862,-1.402478,1.991485,-1.010315,1.195868,-4.250160,1.240730,4.297769,0.577258,-1.727195,1.926786,-3.286386,2.190466,-0.006867,-2.348857,-4.815363,4.942625,1.950591,-2.980895,3.724326,2.303995,2.192907,-4.499496,2.078768,1.566057,4.264504,1.219367,4.613941,-1.576434,-0.304117,-1.273995,-4.761040,3.458815,4.814753,-0.172887,1.177862,2.076632,-2.820978,-4.477218,3.398389,4.462874,1.958220,-1.875820,-3.482925,-2.875607,3.563494,-2.395550,-4.011811,2.571947,2.846919,1.256600,-4.611194,-1.289560,-4.821467,0.708487,1.616718,4.501633,-0.283364,-4.632557,0.807978,3.453322,-4.822687,-3.645894,2.793817,1.509293,2.426984,-0.019074,-3.100528,0.891903,-0.802179,4.852290,-3.090762,-3.534501,-2.750786,1.633198,-2.000641,-3.817103,-2.720267,-0.439009,3.458815,2.174291,1.907254,-1.244087,4.006317,4.044465,2.027192,2.394635,-2.481002,0.940733,-3.136235,-2.189550,1.982940,3.951079,3.023011,0.581225,-0.522935,-4.604480,2.862789,0.668813,4.008759,-3.420057,-2.507553,4.670400,1.004822,0.562609,4.715262,3.247017,1.279794,1.507157,-2.780999,-2.209693,-2.714469,-2.820978,1.340831,-4.611499,4.461348,-3.850368,1.705527,-3.842128,-4.508347,-3.732566,2.056185,1.997284,0.289163,-4.035615,-2.409589,0.833613,-0.489364,4.955138,-0.887631,-4.582507,4.421674,-4.108249,4.312113,0.731376,0.921506,3.543352,-3.513138,-0.928220,0.540330,3.050478,-3.980071,-3.124638,-3.778649,3.829920,4.920347,2.339091,-4.298379,0.683462,-0.256813,-2.091281,0.302286,-1.322520,3.205817,-3.310190,1.940519,3.354137,-0.199438,-3.149968,-3.822291,2.835932,-4.270302,3.068789,4.117710,3.389843,-1.533708,-0.897397,0.959044,-4.990539,-3.741417,0.526292,4.025849,-1.421094,2.885067,1.711020,-1.918851,1.181219,-2.020783,-3.896451,0.738395,1.114689,-1.766869,3.870205,-4.218116,-0.821100,-0.211646,-4.036531,-2.788018,-2.208777,-2.864010,-1.318247,1.824854,4.499496,-1.169927,-2.226173,3.138066,1.449782,-4.670095,-3.836940,4.478744,-2.623829,-0.713675,4.341105,4.043550,3.671529,3.577532,-2.495346,-0.257424,1.100650,-2.584765,-1.508683,-3.356578,-1.274911,-4.170507,0.577868,4.823298,1.592608,2.841121,-0.794855,0.442976,-1.238289,3.642537,-3.307749,-2.139500,-1.779992,-3.908353,-1.000549,-4.413434,0.259560,-3.161260,-1.394848,3.905606,-4.129917,2.389142,2.559740,-3.037355,1.718955,0.424360,-0.223548,-2.854549,-1.731162,1.687826,-3.376110,4.552904,2.609180,-2.249977,4.880367,-0.618152,2.551805,4.964293,1.114689,0.033723,3.562578,-0.072787,1.558428,4.756157,-4.916074,-3.244575,1.522721,-0.369427,-2.180700,1.490982,3.432875,0.725578,-1.469008,3.948332,2.538072,3.216193,3.925138,2.314982,4.359111,-4.708243,0.178381,0.818659,2.935423,-0.336467,-0.326701,-4.225745,3.937651,0.475936,1.502579,0.320292,1.704306,-1.552019,-2.696768,3.161260,4.268777,2.044893,-1.009705,1.624348,-4.566332,-2.501755,-0.057222,4.347819,-2.036958,-4.511399,-3.789331,3.907743,-3.055361,-2.702567,-0.693838,4.700613,-2.602771,-1.752831,-2.865841,-3.607746,-4.827876,1.236152,4.637440,-1.755577,-4.777215,-1.814173,0.702689,4.634693,-3.701743,2.211524,2.906430,-2.922910,-3.875698,-1.676840,-3.349864,3.064516,-3.864101,-4.518723,0.254982,-2.967467,-0.174718,-2.193518,2.574389,3.773766,3.760949,-2.235328,4.690542,-0.404218,-4.651479,-0.861385,2.254250,1.555681,-3.606525,2.593310,0.032197,0.065767,-3.477432,1.655171,-4.776910,-4.805597,-4.465621,1.912442,1.107059,1.970733,-1.261177,1.250191,-2.412336,-4.996643,4.344768,3.934294,0.193945,-2.268288,-3.038575,-3.646809,4.098178,-3.385266,-3.720664,-2.762688,4.719230,-4.423200,4.983520,0.156407,1.468398,1.018250,4.971313,1.120487,-3.797266,2.705008,-4.066134,-0.911130,2.947630,0.850093,-4.638050,2.202063,0.452437,4.699698,4.039277,-2.453536,4.139378,2.932676,-3.912931,-2.727592,-0.989868,1.193731,-2.373882,-1.133915,0.071871,-2.936949,3.106937,2.397076,1.846217,-2.216712,3.383740,2.552416,3.519547,1.052126,4.589221,-1.734825,1.305429,4.192175,1.868496,-2.244484,4.571825,2.014069,-2.956481,1.793115,-2.697684,-1.316111,4.263588,2.996460,1.453749,3.904996,2.704398,3.976409,3.766747,-1.270943,0.385907,2.144078,2.598193,1.311838,-1.838893,3.988922,-3.662984,-2.083346,-2.055269,-3.358104,-0.037080,-0.508286,4.243751,-0.462203,1.309702,-0.880612,3.048647,3.985260,3.603473,0.661489,-2.846309,3.462477,-4.170812,3.907437,1.963408,2.445296,-2.507248,-3.464003,0.848567,-3.413953,-0.661184,-1.787927,4.120457,2.048860,-3.409375,-2.882626,0.673391,-3.180181,-3.728904,4.241310,-3.626057,1.802881,-4.834284,-4.266030,-1.756188,4.511399,-0.003204,-1.358226,-1.490066,3.171331,-3.636128,0.330058,-2.420576,4.047517,-1.982025,-3.085574,0.002289,-0.197607,3.030030,1.004212,2.485580,1.706748,-1.585284,4.078341,-1.978973,3.505203,-0.222633,3.798791,-4.812616,-0.240638,-2.460860,1.583148,-3.308359,-3.525651,-3.691366,0.738395,-3.788415,-3.179571,-1.038392,0.476241,-2.398907,-0.230873,1.986602,-3.880276,-4.479659,4.449751,3.666341,0.813776,1.556597,-1.960967,1.651814,-0.949583,4.893185,0.004120,1.494949,-2.673879,1.592914,0.499435,2.697378,2.237465,1.559038,-4.260231,3.844569,1.332286,-2.769707,-1.840724,3.384655,-2.973266,3.081301,4.163488,-2.389447,-1.097293,-0.017243
-2.702872,2.416608,4.693289,3.489334,-0.367901,0.383160,-4.725028,0.115513,-0.811335,-0.242470,3.977630,0.661184,-3.792688,-3.107852,-4.483322,4.652394,-3.919034,-1.297800,4.877010,4.956359,1.756188,-3.296457,1.439711,-3.365429,3.422498,-0.802179,-1.316111,-0.901059,-1.700034,3.162786,4.763787,-4.372539,-1.664327,2.412946,4.275796,-0.689566,-1.379284,3.591571,-3.467971,-0.520188,4.347514,-3.442030,0.651418,-2.307352,-0.891598,0.732597,2.774285,-2.671133,2.362285,3.957488,-4.276406,-4.139683,-1.135441,-4.555040,-3.580279,3.862270,-2.108676,-0.633106,1.356700,-0.176550,-4.946593,0.650197,-4.536424,4.821772,4.527879,-0.453963,4.654530,-3.879055,4.504379,-3.474075,-2.620472,3.763390,3.673971,4.078036,-4.499802,-0.796381,1.560869,-3.046815,-0.216224,0.064852,0.516831,-2.560656,0.346843,0.065157,2.185583,-2.790155,-2.650685,-1.816919,-3.744163,2.321390,2.254555,-3.872951,4.309366,2.917112,4.970397,-1.837367,-3.420972,4.199499,-2.820368,2.371136,4.433271,0.234535,-2.824030,-2.607654,-3.610797,-2.846919,-3.485366,3.720969,0.481429,-2.694632,3.794519,3.614154,0.781732,0.937986,-4.122593,-1.324046,0.900754,-3.048341,1.867275,-0.819880,2.268593,-0.695669,0.149083,4.193701,0.014191,0.619984,3.813135,-3.438368,4.257790,-0.431379,4.764092,1.822718,-0.379192,3.576312,1.841334,-4.894406,0.777764,3.432569,3.248543,-4.914548,-3.151494,1.351512,-1.382946,-0.956297,2.456282,-0.945006,1.009705,-1.888638,-1.744896,-2.563402,4.175695,-3.252205,-1.255989,4.371014,-4.624622,-4.480880,0.179296,2.228309,-0.916013,1.241951,-3.606220,1.662191,1.882839,3.550371,-4.656667,3.224128,3.858303,1.954863,4.185461,3.377941,-3.183538,2.449873,-4.295633,-3.532670,4.625538,-2.267067,3.902554,-0.794855,-4.000824,0.103000,1.555376,-0.756706,-4.962157,1.094241,-2.439802,4.388409,-0.169836,-3.086184,-3.123112,4.023713,4.438459,3.738670,0.880917,-0.699332,4.573351,1.941130,0.939207,3.662679,2.272866,3.303476,3.020264,0.262917,-0.102390,0.279702,-3.847316,-2.159337,-1.245003,1.374096,2.544481,1.615497,2.665639,1.693319,2.171850,0.762810,1.781518,2.739189,-0.343181,-0.962706,-3.027284,0.498215,-3.757591,0.100558,0.093234,-4.100314,4.674673,4.117710,0.435652,-3.305002,-0.191198,-2.811213,2.692495,4.827570,2.754143,0.174108,-3.267769,-1.647542,1.360363,-1.527604,4.505295,1.971038,4.869381,-0.674612,4.389935,-4.761040,-4.464400,-1.801355,-1.704917,2.514878,-4.963683,0.810419,1.825465,3.706931,-1.526078,2.365337,2.828608,-0.113376,3.792688,0.558641,-1.367382,2.824641,-0.583972,3.913541,-2.712027,2.516099,-2.079684,2.010407,3.123722,1.758629,-1.444288,-0.824763,1.936247,1.841029,-3.574480,-1.812952,-3.884243,-1.591693,1.142460,-4.432661,-4.969787,1.566362,2.763909,-4.987487,0.972167,-0.713675,-2.168798,0.537278,-4.013947,-1.827906,3.315989,-4.118015,-0.110630,0.653859,1.286508,1.758324,4.792169,2.670217,2.115696,-2.517014,-3.562273,0.901059,-0.969420,-1.425367,-2.328104,3.613239,1.826380,-3.134709,4.350261,4.182104,2.548753,4.697256,-0.998108,1.351512,0.966369,-0.238197,2.560656,-4.704276,2.637562,2.148350,-0.528428,3.541826,-2.613147,0.158849,-3.506729,-4.179662,1.008484,-3.541826,0.500046,1.903897,-2.001862,1.116214,-4.397565,1.495254,-1.860866,3.108768,4.898679,0.229652,4.744865,-3.163396,-2.838984,0.853755,-2.625965,-4.771111,3.785974,3.640400,-3.166143,-4.012116,-3.700522,-4.893490,-4.722892,2.542955,-0.248573,-0.906247,-0.788141,-3.727683,2.294534,-0.726188,-1.767174,1.560869,-3.730430,-2.856685,-2.710807,0.246132,1.108890,4.568773,-4.702445,-2.972655,3.364513,4.945067,-2.081820,2.390973,4.180883,2.029633,-2.698904,4.617298,-0.478378,0.515000,-3.380688,-2.565844,3.461562,-2.597278,2.199011,4.877316,-0.144200,-1.761376,1.058840,-0.081942,2.705618,-2.723624,-3.326670,-1.574297,0.522019,-4.372845,0.772576,-4.978332,-4.990234,-3.538163,3.985260,2.394635,-0.619678,1.325571,3.146001,0.630360,-3.397778,-3.372448,-1.925871,-1.873074,2.911008,4.371014,-4.362774,0.655080,-3.119449,-3.818934,3.912931,0.121006,-0.623035,4.700003,4.257790,-0.395367,4.701834,1.402783,4.105808,-3.774682,-1.760765,4.906919,-1.705527,-1.595355,0.921506,-1.172369,1.743065,-0.914487,-4.179968,3.251289,1.289560,1.469008,-2.817621,-1.120792,-0.499741,-1.162297,-2.782220,-2.084567,-1.734519,-4.981689,0.953856,0.750908,4.991150,-2.944273,4.469893,2.513047,-0.797906,-3.347728,-3.179571,-1.459853,2.368389,1.944792,0.967284,2.846309,-1.236457,-3.831141,4.021577,-1.368603,0.175634,4.787896,2.119968,4.913633,2.273782,-2.365642,0.240028,-1.672567,-4.550768,-2.359844,2.268899,4.168371,-2.056795,2.704703,1.641133,-4.266945,4.069491,2.275613,-2.148961,-3.974273,-4.652394,-4.804987,-0.837886,0.888546,-2.638173,0.381024,-3.186285,-2.379070,0.150914,-3.099612,1.051210,-1.848964,4.949339,-4.998169,4.278237,0.817133,-4.915159,4.666128,1.656087,-0.171361,3.853420,3.237861,4.453719,-3.537553,-2.826472,-1.293527,-3.536332,1.062502,3.845485,0.187536,-1.198920,-0.100558,1.212043,2.178564,3.388928,-4.040498,-0.950194,4.144261,0.449385,-2.279275,-0.509507,1.998810,0.313272,4.976806,-4.207434,3.041322,4.855953,-4.221473,-2.227393,0.915403,-1.125370,3.550981,-3.293405,2.147130,-3.276925,-1.557207,-2.478561,0.828730,4.506821,1.985076,1.079592,3.010804,3.162481,-0.893429,4.376202,-2.639698,2.726066,-3.421583,1.458022,3.656880,3.106632,1.946013,2.878353,-4.325541,1.673788,2.011017,-3.502152,0.031281,2.976318,4.927976,-2.551500,-2.452315,0.902585,4.975585,0.066683,-1.303598,-1.407971,4.067049,-0.386212,-0.310526,-3.583331,-0.939817,-3.405713,0.776849,3.338878,-1.066774,1.482742,3.312326,1.961272,0.882138,2.675100,-2.846919,2.581408,-0.588855,-4.527268,4.952696,-3.439283,-2.530137,4.918821,4.909665,4.326151,3.706626,0.287332,-1.460158,-1.692099,4.895932,4.053316,-4.973144,-3.863491,-2.395550,3.141118,-1.281625,4.403363,-1.840724,-4.725028,1.330149,-1.701559,4.977416,-1.762291,-4.583117,-2.555467,2.320475,4.851680,0.681021,3.231147,-0.457930,1.495865,-0.331584,-2.035127,4.880673,2.971740,4.426862,1.153142,-2.131260,1.525468,0.681326,3.222297,-0.582446,2.848140,1.092410,1.996673,3.638569,-3.144475,4.158910,2.238685,0.466781,-3.930326,0.327006,3.571123,3.149663,-0.590991,1.870632,-2.911313,-0.344707,4.201025,-1.899625,-4.023713,2.077548,4.230628,2.471847,0.439924,3.084048,-3.364818,3.146306,2.268899,3.482009,-4.537645,3.574175,-0.660268,-0.040437,4.696341,4.658803,-4.627064,-2.936644,-1.428114,-4.934690,-4.743339,2.479171,1.988128,1.237678,1.248360,-0.327006,-1.172979,3.681295,0.368816,-3.038270,0.999329,1.083560,-1.699728,-2.931150,-3.977020,-1.176336,0.100864,-3.767968,-4.048433,3.442946,3.046815,-3.075198,-4.540086,-0.367290,1.916410,3.252510,1.904508,1.304514,2.030854,3.087405,-4.832148,3.306223,0.355083,-3.995025,0.103610,-4.657277,-0.014496,1.083560,-0.615101,4.669790,-1.678060,3.627277,-0.415204,-0.885189,4.248024,4.880367,-1.717429,-3.001953,4.626453,3.791467,-4.975280,-4.494919,-4.577624,4.890133,3.942534,4.084445,-2.228614,1.339915,0.842463,4.421064,4.295938,-2.770318,2.583544,3.561052,-4.007233,-1.833399,1.550798,1.737266,5.000000,4.229408,3.038575,1.469314,3.548845,4.350871,-1.641743,-0.507675,4.427778,-3.812830,1.479995,-1.918851,3.257088,0.538804,2.020783,-2.666555,-2.105014,4.381390,2.396466,4.968566,-4.714347,1.577654,1.942351,-4.788507,1.057619,-4.676504,-4.179052,3.322398,2.192297,1.397595,1.527909,-2.672658,-1.928922,-3.729514,0.805536,3.525956,0.211646,-0.854976,-0.216529,-2.674490,-3.990753,1.979278,-4.851375,-4.027680,-3.204291,-3.435316,-0.831172,4.740898,-4.474471,2.715995
1.371654,3.137150,4.403668,-3.365734,-0.301065,2.693106,-2.232582,3.514054,-1.054567,2.896054,0.537584,3.444777,-0.705130,-3.167364,-2.458419,4.681082,2.766961,3.098086,4.035920,3.334605,0.385907,-4.463485,2.726371,3.557085,-2.114780,-2.617115,-2.390973,-2.727592,2.760552,1.352123,-0.062716,-2.477035,0.479598,2.254860,-3.369396,4.490951,2.669301,3.693197,-3.559832,-1.742149,-4.916074,-4.600818,4.175695,-2.633290,-1.825465,2.785272,-1.684164,-2.754448,-1.934721,-4.744255,2.308573,-2.443464,0.753960,4.861141,4.873959,2.534715,-2.651601,1.836756,-0.375530,3.377331,3.149968,-1.393933,-0.684072,-3.254952,-1.605121,-1.201056,-4.963378,-1.559343,3.472854,2.853328,-4.348125,-3.674581,-3.573260,-3.237251,-2.184057,1.535844,-4.447615,-4.471725,1.861476,2.063204,4.906613,-2.116916,3.880581,-2.239296,-4.461653,3.845790,-0.690176,0.838496,0.259255,1.670431,-1.667074,0.906552,4.753410,-4.247108,-1.589251,-1.364330,2.853938,2.058626,4.252602,-2.910092,-1.208075,2.627491,0.542161,4.800104,4.226661,-4.271523,-2.269204,-0.364238,2.876217,3.219855,-3.792077,-2.456282,0.558336,1.675924,-0.836360,-4.790643,3.453322,-1.149480,-0.545518,0.706961,2.401654,2.032380,0.787835,1.201056,-3.950468,-0.144200,-1.467483,1.762291,0.656301,4.136326,0.471969,4.356975,-0.628834,3.281198,2.812433,1.075625,-1.202277,3.852199,1.754662,0.663015,-4.344462,1.827906,-4.052095,2.411115,1.351817,0.141758,0.133518,-3.522904,-2.726371,4.048128,-4.709159,4.691458,-1.378979,0.884274,-4.395428,0.913266,-0.419477,-4.210181,-2.445601,-4.996033,-2.336039,-0.054170,1.451613,-0.527512,0.017548,2.893612,0.726798,2.860042,-0.481735,-4.499191,-0.715812,-1.073489,3.464309,-4.865108,2.236244,-4.299905,2.679678,-0.397809,0.327616,3.451491,3.838771,1.422926,3.365123,-4.344462,2.827082,-0.999939,2.961669,2.008881,1.950285,-3.756371,-0.087130,-2.447127,-1.199225,-2.784967,-3.489944,-3.019959,-0.399030,-2.644581,-0.888241,-1.826685,4.827570,-2.144383,1.278878,4.048433,-0.063326,4.735099,2.789544,-3.239998,-1.002686,-0.810114,4.845882,3.331858,4.048433,0.772881,-3.216498,-3.223823,-2.009491,-0.033418,4.599902,1.765648,3.825037,1.717124,-3.393811,-1.086612,-1.946013,-3.517106,-3.471328,-3.264107,1.053346,0.370342,-0.643178,-4.652089,2.228309,0.908383,0.260781,0.962401,2.770928,0.034944,1.888333,-4.749748,3.823206,0.851314,0.351115,-1.369823,2.867061,-0.292825,-4.782098,1.541643,-3.855251,0.182043,3.821986,2.773675,-0.066073,0.523240,-4.804682,-1.097598,-1.526994,1.102176,3.951994,3.908353,1.369213,3.454848,-0.586108,3.029420,-1.714377,-2.535630,0.314493,-0.084689,3.727378,-1.746117,0.374310,1.144902,-0.262307,-0.655690,-4.931944,-2.828303,-0.680410,3.648640,4.901120,3.753319,-1.613361,-1.141545,-4.506211,2.935728,-0.931883,-1.212348,-0.195471,-2.350993,2.169103,-2.763298,2.785272,-1.021912,1.606037,-4.063082,3.796655,0.174718,-1.373486,3.142033,-2.913144,-3.534501,-1.371960,4.423811,-4.347514,4.729301,-1.615802,2.239906,-1.215094,2.093417,-3.504898,-4.168065,-1.372570,-2.475204,4.874874,-1.980804,-3.955962,-4.532456,4.082308,0.448775,1.118961,-4.404889,0.316935,3.864101,-1.402173,-2.260964,-3.117008,4.958495,3.581500,-3.946196,-2.058626,-3.629414,-2.212439,1.485794,-2.640614,1.388440,1.690268,-3.398999,0.467696,-0.079196,2.851497,1.844996,1.544389,-2.695547,-4.244362,-2.717521,4.829707,2.501450,3.463088,-1.103397,1.892605,-2.743767,-3.612629,3.495743,3.153325,2.773370,-1.478774,1.296884,-3.617512,-4.527879,-3.591876,0.249794,-0.017243,-1.606952,1.188238,1.159246,3.868374,-0.195166,-0.982543,-2.328410,-4.243446,-4.416486,0.180212,0.188452,-4.319742,-3.073672,2.206336,-2.235023,-3.464614,-0.046541,-2.695853,-2.936338,3.477737,-1.226081,-0.578784,2.417219,-0.022431,-1.433302,1.248970,-3.930021,3.349254,0.244911,-3.521989,2.657094,-2.435224,3.265023,-2.376324,-3.017518,-3.834803,-1.857814,4.726249,-0.836055,3.081606,-4.763787,-4.754021,-3.801233,4.179662,1.369518,0.461898,4.024018,-2.661367,0.836665,-1.317026,-0.879086,3.879666,2.376629,0.593738,3.738975,-0.848567,-1.341136,-2.962279,3.789636,-4.909970,-0.145116,4.555956,3.483535,2.565844,-2.146519,-1.009400,-4.234901,-3.677023,2.682424,2.471236,2.613453,0.335551,-2.300333,4.087497,4.263588,-3.620258,-4.880978,-0.431990,1.422926,3.647420,-1.574602,0.277871,-0.465560,2.202368,3.252815,-3.159124,-0.847041,-1.900845,3.276925,-2.293924,1.498917,2.975097,2.693411,-2.032685,3.248848,-4.074984,1.839198,-1.251411,-0.371258,0.477157,-2.480697,2.470016,-0.131993,4.473861,4.607532,4.303568,4.081698,-4.317911,0.472274,-4.867855,-4.362163,0.933103,-1.194037,-3.670614,-1.918546,1.611835,4.402753,1.661275,0.663625,3.307749,-4.540086,-3.364513,1.553850,2.436140,4.963988,0.601978,2.785882,-2.354350,-2.285684,1.919767,-3.993194,-1.175420,4.560228,1.502274,3.088931,1.515091,0.404523,-4.942930,0.665456,-0.449995,-2.460860,-0.674612,2.658315,3.729514,0.877255,2.640919,-0.147557,-0.662404,-3.361156,-4.884335,0.587939,0.326395,1.060671,-1.230049,1.623127,2.967467,0.682852,2.911924,3.239692,-3.207953,0.784478,-4.912107,-2.353435,-4.373760,3.524125,2.910398,4.749138,-3.460952,2.349773,-2.926572,4.340190,-0.490585,4.242225,0.880306,-1.215400,-4.367351,-3.649556,-3.421888,-4.749748,-3.329112,-1.412244,3.828394,1.555376,3.767052,-1.256905,0.615711,4.687796,-1.873379,1.678365,1.910916,-3.932768,1.491897,-0.833003,-3.598895,2.607044,-0.794855,1.942351,-3.401440,-2.366253,3.689840,0.513779,2.640614,0.742668,1.148869,-3.684347,-4.907834,0.631275,-0.698721,-0.250099,-2.930845,-0.009308,-1.033815,-3.313242,0.984680,-3.492691,-2.696463,-0.015107,0.241249,-0.959349,-4.466536,-2.408368,1.175420,3.039491,-1.065249,3.792383,-4.432051,4.259316,1.945708,-4.840693,-0.965148,4.841914,-3.828089,-2.219764,-4.392376,0.822932,4.118625,-2.692495,3.819544,-4.876095,-3.543046,-1.588336,4.605090,-4.899289,-4.360637,-4.813532,-3.666646,-1.301462,3.673666,-0.925169,-2.721793,-1.711936,-3.130436,-4.123203,0.844905,-3.762169,-4.626453,-1.597186,3.861049,1.287423,0.296182,-3.667562,3.248848,-0.216529,-3.745994,-0.155492,1.388440,0.842463,2.132481,-1.422620,-4.518418,-0.497604,-2.117222,2.484970,1.238594,-3.078555,0.169836,-3.850063,-3.814661,1.696066,4.675893,3.115787,2.920774,1.348766,-2.119968,1.799524,-2.379070,-1.941740,-3.876919,-0.446028,4.114353,-2.311625,4.767144,-3.569903,-1.167486,-3.818323,-4.733268,-4.784845,-3.043153,2.376934,2.966247,-0.702383,-4.937437,1.316721,3.425550,4.931333,0.585803,-2.894833,0.098727,-0.547349,3.414563,-0.620899,1.172063,2.021393,-0.075228,2.453536,-1.628010,-1.561480,4.767754,1.207770,-4.439070,-3.386792,0.724662,2.771538,-0.069735,4.234901,1.941130,-1.927702,3.603168,-4.787286,0.851009,2.312845,-1.541643,-3.547014,4.107334,-1.568804,1.993316,1.523942,-2.175512,2.617725,-2.969604,2.782525,-2.543260,-4.060640,3.087100,-1.480605,2.609485,1.145512,2.214576,-3.315073,2.112033,-1.293527,-2.873470,1.761376,-0.347758,1.157720,4.421979,-3.659932,-4.708853,-0.196387,0.718253,3.971221,3.171331,2.849971,4.509568,4.841304,0.723441,-0.977660,1.557512,0.849788,-0.303812,-4.263588,-3.368786,1.639912,4.310282,-4.118320,-0.592822,-1.851100,-3.144169,2.281106,-2.659841,-4.757988,-3.957488,3.887295,3.323008,-0.009919,-1.581622,2.781610,0.939512,-2.847224,-1.836451,-3.963897,-4.869381,-1.564837,-4.420148,1.501053,1.083254,-2.928404,-0.418256,1.578570,-0.847957,4.308145,4.503464,4.052095,-1.369518,-0.661794,-3.463698,4.023103,-1.818140,-0.737480,0.107883,-3.971526,-4.256264,0.626698,-0.488449,0.394452,-4.285257,-0.894650,-3.892178,2.889340,-3.757286,-1.107364,-3.600421,1.743065
4.421064,-1.635945,1.302072,1.089969,2.205725,3.567461,1.914884,4.901425,0.872982,-3.890652,2.112033,0.466781,-3.181097,-2.997681,3.258919,-4.508042,-3.476821,3.024537,1.371960,-2.131260,3.482009,-2.833186,2.032991,2.185888,4.929502,-0.275735,3.367870,2.040315,1.155278,1.591082,2.404706,2.209998,-4.768365,-3.671834,-4.874874,-0.245216,-4.035615,2.562487,-4.481796,-1.895962,1.878872,3.278756,3.950468,3.196966,-0.948668,3.570818,0.163121,-4.269082,0.605335,3.411817,1.216926,-1.404920,0.674612,-2.996155,-0.316630,3.531755,0.656911,-4.722587,2.407147,-3.894314,0.561693,3.092288,-4.854732,3.034913,3.268990,-2.289041,3.399915,0.944395,4.511399,0.104831,4.750664,0.613575,-3.608966,-4.348430,3.008972,-4.230934,-2.755974,-4.206214,-0.501877,0.494552,-4.335307,-2.786187,1.774194,4.313944,1.503800,0.091403,-4.898068,-0.985595,1.649983,2.007355,-3.001648,-3.729820,3.410291,-0.947142,0.152440,0.128636,3.300729,0.708182,4.038362,3.421888,4.059420,0.053865,0.531175,2.168493,-2.306742,-4.122898,3.841517,-2.975097,-2.624439,-1.765648,0.074923,-4.150670,-3.998993,4.033174,-3.262581,-3.556780,4.214454,4.195532,-2.509690,3.529313,-4.277322,-1.030763,2.475814,-0.969726,2.710807,2.942442,-0.482650,-0.285806,-0.842769,-3.672140,-3.484756,1.261177,4.884030,4.082614,0.343181,2.819758,-1.868496,-0.582751,2.563097,1.116214,-0.511948,3.268380,-2.733085,-1.825159,4.976501,-3.716391,1.363109,1.714377,1.112857,4.894711,2.612842,2.282937,-0.246437,-1.969207,-4.263894,-3.805506,-4.464095,-3.957793,1.895352,-1.672567,3.732261,-1.608783,1.869106,3.849757,1.324046,1.675008,-1.767479,2.931455,-0.885189,4.545579,-3.147832,-2.491073,-2.314676,1.083254,3.010193,4.163182,-4.985656,-0.807062,2.470016,2.170629,-1.430250,-4.420148,2.795953,0.796381,-0.318155,3.872341,-4.760735,4.885250,3.021485,-2.553026,2.503586,2.816706,-1.019471,3.531449,2.699515,-4.112827,1.780602,0.129246,4.807123,3.179571,1.113773,2.348247,-4.050264,0.980712,0.133518,-0.320597,-4.196753,0.818049,-2.397382,0.800348,-1.560564,-4.832453,-2.983642,-2.544786,-3.071230,4.901730,0.510422,3.986175,1.007263,-2.464522,0.364849,4.063692,3.121891,0.341960,-4.079562,1.194037,3.169195,-2.613758,-1.283761,4.555040,-2.763604,4.553209,3.662984,-3.275704,0.658742,1.621601,-0.937986,4.870602,0.707266,-4.543138,3.290048,1.957915,-0.784478,3.374584,0.948057,-0.463118,0.463424,0.743583,-3.696249,-1.322520,4.624317,1.892911,-3.173772,0.610523,2.092502,-1.623127,4.632862,3.637654,-0.996887,3.671224,-1.342357,-2.126072,-0.745720,-1.646931,-4.642628,4.385662,3.345286,4.834895,0.762200,0.281533,-0.654469,-4.290750,1.688131,-3.670003,-3.695639,4.772027,-1.078677,-1.347240,-4.586779,4.780267,0.189673,1.064333,-0.763115,1.015809,-4.271523,-0.380108,4.320048,4.707022,4.260537,-4.067049,-2.510910,-4.620960,2.192907,0.822016,1.155889,-3.806421,3.857082,4.855647,-2.063204,1.335643,-4.411908,-2.649464,-0.095676,-0.483261,1.471450,0.394452,2.774895,2.653127,3.556169,-0.555589,0.355998,3.781396,4.357891,-2.923521,-0.444807,3.276315,4.457381,1.436354,1.271859,-2.569811,3.008972,-4.036836,-2.523118,-1.540117,3.973052,1.946013,-0.201270,0.000763,-4.118015,0.470748,-0.075228,-2.848445,-2.043672,-4.671926,-2.868282,-4.866634,0.377056,3.439894,3.258614,-4.376202,1.534623,4.365825,0.429853,4.829402,0.060884,-4.543138,1.851100,2.358318,4.459822,4.215979,0.978271,4.957579,-1.853847,4.424726,-0.620594,4.176000,2.711112,-2.394330,-1.396069,2.013459,-2.783441,-3.619953,-3.637959,3.623615,-3.654439,1.277352,2.339702,1.126896,-4.796136,-2.431257,3.948943,-2.396466,3.601337,3.682211,-2.663198,-4.680776,-2.386395,-2.239296,3.959014,-2.741935,1.246223,3.928495,-1.969512,-3.988311,-3.996857,4.824824,-4.828486,-0.898312,1.183050,1.973785,-2.446211,4.783013,2.707144,0.545213,-4.135411,-2.596362,3.297678,0.073397,3.400830,-3.623920,1.814173,-2.304605,2.602466,-2.177953,4.563280,-4.527268,-0.659047,2.959227,-3.606220,-1.644185,-4.724418,2.285073,4.389935,4.355144,3.584552,-0.370952,1.972869,3.485061,-1.608783,-4.875790,-3.772851,-2.965026,3.194220,1.172674,-3.738365,3.740196,-1.389660,0.457930,-4.583728,4.404584,4.751579,0.073397,-4.868160,1.547441,-1.462294,0.823847,3.290353,-4.371319,1.269417,-4.231849,4.840999,4.421979,-3.239387,-2.939390,-2.474593,-2.909482,-4.643239,-4.843135,0.510422,-0.461898,4.138462,-0.556505,-1.255074,2.586596,-1.367382,4.359416,0.852229,-0.449385,-3.659627,0.063936,3.368480,4.771111,-2.609790,1.722312,-0.855892,-0.336467,2.636952,-3.536332,2.714469,-2.146825,4.510788,2.079379,0.457625,-4.048433,0.936155,-3.480789,-1.649068,1.541643,-2.372662,2.256386,-4.865719,4.930723,-0.924863,4.571825,3.699301,-3.761864,3.539995,-2.168798,-1.488540,4.376507,2.357707,-1.188238,1.882839,-0.513779,-1.121708,1.140629,-3.100223,-4.603565,-2.657094,-0.088656,-0.169836,3.662984,-2.983337,0.537584,-0.190893,-4.249245,1.886502,0.907163,-1.373180,4.927366,1.238594,0.900754,-1.574908,4.420454,1.427503,-1.666463,0.116123,3.412732,4.148534,-4.609973,0.336467,-2.571947,1.527909,4.604480,-0.249489,4.675283,3.338878,-1.542863,0.511032,4.910886,-3.337352,1.646931,-4.305399,2.386090,3.301950,0.100558,-1.477859,-0.563524,-4.741508,-4.216590,4.175695,2.278970,3.595233,1.375011,2.025666,-4.422285,0.982238,3.866237,1.083560,-2.655263,3.254341,1.149480,-3.514359,0.730461,0.279397,0.657216,-0.173803,4.276101,1.458327,4.114048,1.152226,-2.817011,-3.835108,-2.536241,-4.572130,1.163823,4.442732,0.037996,1.287423,-4.560839,-1.737877,2.020173,4.882504,-3.558611,-1.335643,4.278237,-3.358409,-1.212958,-0.910215,-0.380718,3.753014,-0.918455,0.214698,-0.464339,-3.820154,-0.880917,-3.397473,-4.501938,-0.973693,0.039521,0.484787,-1.134526,-0.939817,4.003265,2.981201,-1.531266,-1.788232,4.949950,-1.921903,-0.067293,1.857204,-4.998474,-0.331278,-4.199499,4.695120,-1.928617,-3.024232,0.520188,2.040925,-2.756584,-1.337474,-0.644704,-0.662404,-2.516709,0.950499,-4.712516,-2.296670,0.243690,0.051424,2.967467,-1.670736,1.528214,4.229713,3.778954,3.533891,-0.027314,-4.195227,1.079287,-2.708975,-3.489944,-1.590167,-0.320597,3.045900,2.178564,-0.186621,-1.378368,1.624042,-4.362163,-4.378033,1.324351,-2.945494,-3.044679,4.176305,2.148350,3.113041,-0.778069,-2.055574,3.456374,-1.598102,4.565416,1.740928,2.217933,2.777337,-3.882107,3.066042,0.233009,2.935423,2.507248,4.892575,-2.973266,-0.027314,-3.576617,-3.797876,-0.514084,-3.268685,3.838160,0.592517,-2.707450,-2.258217,-4.577013,-1.741844,-1.773583,-0.424970,-3.256478,1.667684,2.386395,4.418012,-1.217231,0.241859,-0.594348,4.684744,-4.642323,4.349651,-2.285073,1.474197,-1.003601,3.930631,-0.079806,4.689016,1.832789,2.062899,3.355052,-2.373882,3.080996,-1.218146,-0.128025,3.853725,-0.339824,-4.534288,3.935209,-0.815912,1.520585,-4.899289,3.074892,-3.441725,-1.758629,-1.262703,-0.231483,-3.346812,-1.537370,3.451186,-1.188238,2.022309,-1.292611,2.118137,-0.763726,-2.414167,3.164617,0.321207,4.844661,-4.718925,0.989257,0.697806,2.419660,-4.316385,2.686087,0.037996,1.670431,4.415265,2.137669,-0.544603,-4.017304,-3.852199,-4.162877,2.929930,-1.970428,4.022492,-4.105197,4.548021,-0.692618,-2.718131,-1.628010,-0.258034,-2.336344,4.948729,3.513749,0.849483,1.872158,-1.657918,-0.565050,2.299722,-2.676931,0.262001,-4.171422,-4.259926,1.888943,3.640400,-0.744804,0.422224,-3.973968,-2.519456,-3.424635,-0.854671,-3.817408,2.894528,-1.907559,-4.912107,-4.436018,-2.952513,-3.038270,-0.175634,1.327403,-2.169713,-3.567156,-2.152318,2.262490,-2.940001,1.487625,-2.090060,-3.974578,-4.966124,-3.566851,-3.511307,-0.014496
4.242836,-4.984436,3.697470,4.743950,-4.947508,4.616688,-3.051698,4.396649,1.177557,1.091494,2.683340,2.593921,-2.254555,-4.181799,1.479690,-1.535539,-0.222633,1.513260,-3.145695,1.465957,3.886685,-1.619770,3.063906,-0.778069,1.014893,-2.846919,2.227393,-2.588122,3.015992,0.597400,-3.925443,-4.226966,0.898007,0.027619,2.637867,-0.721915,-2.459639,-1.588641,3.193915,-1.448256,2.695853,-3.384350,-0.222022,-1.412549,3.087100,4.358501,-1.427503,-0.171972,-4.583117,2.432783,-0.512253,0.672475,-4.898373,-2.238685,-2.752007,-4.531846,-1.465346,-2.152928,4.292581,-2.941221,1.704001,-3.822291,0.806452,-2.059542,2.964110,-4.846797,2.192602,-0.902280,2.786187,-1.906339,-0.702994,0.574206,-1.711936,-3.109073,1.701865,2.847835,-4.633778,-3.130131,-0.604114,3.066347,-3.765526,-4.584643,3.137455,-4.790643,-4.811090,-4.063997,-1.179388,-1.759545,0.403302,3.717917,-3.841517,1.306955,4.577319,-4.762566,-3.005615,0.055086,2.240822,-2.504807,3.555864,3.120975,-3.466140,-1.070742,1.960051,2.859127,3.269295,-1.527604,1.289254,-0.628529,-4.906308,4.321879,3.542436,1.901761,3.561052,-1.029847,4.778436,-3.348643,1.924345,2.076937,2.765130,-4.910276,-3.533586,-2.273171,1.441542,1.808679,-0.822932,-2.347942,-2.487106,-4.004791,-0.410016,-3.031861,-0.516221,-4.421369,-1.408887,3.996551,4.446699,-1.886502,2.016816,0.728019,2.936949,-2.532273,-3.157598,-4.504074,-2.833796,0.370037,-2.211219,4.418012,2.948241,1.885891,-2.854244,3.168584,0.626087,3.879971,-4.367046,-4.351787,-4.681082,-4.470504,-2.892087,1.109500,1.797388,-0.045930,4.935606,-3.701132,4.295633,-3.985565,2.827692,4.186987,-3.416089,-0.641957,-2.029939,-4.162877,2.604907,1.758019,-0.752739,-3.013550,2.985778,2.819758,-1.626179,-4.108554,-2.253029,3.112430,-3.245186,4.008454,0.511948,2.787103,-4.125950,-3.931242,4.532762,4.747917,4.036225,1.110111,-4.153722,-3.565325,-2.735527,1.026795,3.872036,-0.715506,-2.824946,-1.796472,4.761040,-0.075228,3.632466,-1.206854,-2.185583,2.176428,-4.994201,3.200629,0.279702,3.911405,3.834498,0.336772,0.837275,-2.157201,0.714591,-2.793817,-2.907346,0.299844,4.223914,0.386822,-2.615284,-2.947020,-0.309305,0.966979,2.220985,0.255287,4.626759,-0.495773,-4.342936,-4.443342,3.628498,2.563402,1.929228,3.459120,0.568407,-2.598804,-2.349467,3.969390,0.878780,-3.643147,4.891049,-1.382336,1.750694,-2.487716,-4.555956,-1.097598,3.050783,3.185064,1.602069,-4.780267,-3.222297,2.814264,3.741722,-4.651784,-2.137364,1.805933,0.045015,-3.455763,4.132969,2.895749,-1.342051,0.312662,-1.755272,1.594440,-2.397076,3.918424,-0.594958,2.278970,2.760247,-2.303995,-2.311319,-3.512528,-0.775933,2.224952,-1.234321,-0.011139,-3.644673,4.428083,1.852016,0.178686,1.834620,-3.339488,-1.305124,0.374310,-4.968871,-2.150792,-3.593097,2.564318,-4.996033,0.743889,1.958220,-4.822077,3.442640,4.345683,1.143681,-2.562181,-2.141026,-4.427778,-0.167089,-3.144169,-4.647816,-0.771966,0.320902,1.436659,2.246620,0.330668,0.585498,3.149663,-0.078890,-2.130650,-0.731071,4.235511,2.148656,4.048738,4.196753,2.904294,4.244362,-1.916410,-2.760857,-0.006867,-0.652944,-1.391491,3.339183,3.140812,2.142247,3.761254,-3.492996,0.047456,-4.663686,3.004089,0.604419,-2.624439,-0.800348,-0.250404,-2.276833,-3.139286,-0.512253,-1.154057,1.977752,-4.809870,4.053926,-2.011322,1.515091,-0.785699,3.464614,-2.877438,-3.433790,3.052614,-4.065828,4.891659,-3.661153,-1.345103,1.884976,-3.794824,2.575304,-3.613849,-1.548662,-0.022126,2.579882,-2.810907,-0.763421,1.107974,-0.466170,2.893002,-0.363933,-4.242836,2.905820,-3.770714,3.040712,3.994110,-3.227180,-2.880795,-1.771447,-1.139103,-1.133610,-3.211615,3.265328,-4.066439,-1.849879,-3.719749,-3.783532,2.426069,3.747215,0.925779,-2.008881,-0.086825,3.028199,-2.671133,-2.374187,-0.272683,1.669210,4.441816,-4.676199,-4.908139,3.499405,-4.725028,3.558916,-0.940123,2.941221,0.824152,1.559343,2.310099,-2.135838,2.757500,3.482925,-0.126804,-4.338969,-3.558000,-4.403974,0.845515,0.356914,0.862300,2.769707,0.152440,3.568682,-3.007141,-0.398114,-3.575701,-2.878048,1.196173,-3.514969,-4.948119,0.144505,-4.804071,-4.074984,0.476241,-1.559648,-0.796991,-0.572680,-3.220771,-1.035340,-0.260781,0.261391,0.642262,-2.792596,-1.262093,2.416913,-4.275185,0.300150,-4.526963,1.064943,2.535020,3.658101,-2.115696,4.834284,2.848445,3.969085,4.857784,-4.784845,2.743461,-3.656270,-3.973357,3.409986,3.308969,-1.561785,0.656301,-0.070650,3.092898,-0.640126,2.169103,-2.736442,1.349376,-3.825648,-0.118564,0.926695,-3.848537,-4.179662,4.506821,-0.806757,-3.571734,-4.753105,-1.008789,-3.157598,1.989959,-2.413251,1.245613,3.213141,0.604114,-2.822199,0.332499,-0.107273,-3.813746,1.243171,2.673269,-1.655782,-2.834407,1.044496,-0.162206,2.788324,-0.913266,0.322428,4.478439,-1.347850,0.516831,3.830531,-4.029817,1.897183,-3.688925,3.784143,2.322001,-0.462813,-2.691275,-2.972655,-0.081332,-3.338878,0.512558,0.739921,-2.342753,0.272683,-1.177252,-0.513169,-2.957091,-4.742424,4.383831,1.431471,4.800104,2.794427,4.603565,-3.479263,-0.430464,-3.484451,4.916074,4.455550,-0.751518,-3.260445,-2.659536,-4.744865,0.536973,-1.921903,-1.093631,0.240638,-2.745293,0.735954,-0.997497,-3.770409,-1.010010,0.816523,-0.283975,0.775628,-3.356578,-0.059359,-1.780297,1.249275,-3.573260,-0.503708,-4.723502,-4.417096,-1.115909,-0.170446,-1.084170,-2.513047,4.493088,-0.311441,-2.649770,3.948943,2.409894,-3.764306,0.192419,-2.165441,3.926054,0.936460,2.035737,3.396558,-2.812128,1.640217,-2.539903,-2.495041,4.753410,-3.833277,1.526688,4.415265,0.540635,-2.292093,4.822687,-3.117924,-2.264931,-2.643056,-2.880184,1.435133,4.215674,4.080782,-1.291086,0.624561,-2.939085,-2.553636,3.472243,0.055391,2.705008,3.412732,2.756279,3.015992,4.294412,-1.498001,4.109470,0.519578,2.817621,2.661977,3.943449,-0.433821,3.568072,-3.867763,-1.816614,-2.557909,4.497665,0.627918,-0.028230,4.864498,-1.969512,0.150609,-1.519974,-4.213538,2.895749,1.741844,-2.099216,-3.321482,-2.459639,1.490066,0.676748,3.089846,1.689352,-3.895535,4.029206,-3.690451,-2.389447,-4.632862,3.850978,-2.060152,-2.347942,-4.223609,-4.973449,-4.810175,-0.393536,0.695669,2.237770,4.703360,-3.524125,-2.683950,0.319987,-2.262490,2.188940,-4.249245,-1.763512,4.499496,-0.160375,0.569323,-4.277322,0.456404,4.009369,0.084384,-3.328806,2.429426,3.730125,3.708762,-1.680807,-2.712027,-2.342753,2.686697,0.295877,1.051210,-1.988128,4.521775,2.597888,1.213874,4.854122,-3.597674,-3.447218,0.106662,-2.750786,-2.049471,-2.167272,2.105319,2.897580,-1.406140,-4.418317,2.498093,2.773980,-0.117954,-3.282113,0.826899,2.359233,-1.944182,-0.523850,-3.485672,-3.992584,-2.816095,-4.751274,-0.413068,-3.971831,-1.822108,2.792291,4.309061,3.030946,3.997162,3.856471,-1.460768,-0.892819,-3.639485,4.305704,-3.376110,0.404218,4.272744,-0.211951,-1.365551,0.657216,-0.321818,0.019684,3.769189,2.238685,0.561083,0.742668,0.722831,-3.706626,-3.206732,-2.576220,2.847224,-1.485183,-0.947142,-0.247963,0.903806,2.130039,-3.879666,1.000855,1.230659,4.654530,0.865963,1.314280,2.129429,-0.023652,0.240638,-1.015809,-3.711814,2.340007,-0.415204,-1.224250,2.054353,3.781091,-3.435316,1.367077,1.361888,1.585589,-4.949339,2.965026,-2.861568,-2.672048,4.248939,-0.840938,-2.007355,4.056673,3.399915,2.075106,2.999207,3.182318,-2.643361,4.894711,4.397565,-2.359539,3.352916,2.796564,1.010010,2.883847,4.275185,4.390545,0.196387,2.267373,-1.246834,2.698904,1.155889,-1.605731,3.377331,-0.246437,-2.611621,-3.020875,-2.643056,3.866237,1.131474,4.792169,4.936522,3.639485,-2.422102,-1.749168,-4.128391,-2.222816,1.695456,4.216590,-0.708487,4.759514
-4.548021,-0.439314,1.245613,1.440016,-1.730247,1.064638,1.259957,4.637745,-1.493118,2.210913,-1.794031,4.772942,-1.206854,-1.564531,0.801263,-4.379254,3.023011,-2.603687,3.048952,-0.760369,-2.179174,-4.173864,-0.067293,0.135350,-3.706626,-0.472579,3.678243,-2.269814,-3.122196,-1.923124,-4.107944,1.193121,-4.899594,0.797906,-4.105808,-4.305399,1.059450,-4.434492,0.552538,4.152501,0.440535,-2.993408,-4.066439,3.525651,1.882839,-4.345683,-3.914457,-0.276040,-1.498001,4.627369,-0.742363,0.191198,-3.611103,-4.615772,-3.123417,-1.771447,-2.108676,-0.870540,-4.409467,-1.882229,2.494430,-4.579760,-2.311930,-4.893490,3.110599,4.548021,0.211646,-0.677358,0.592212,-4.752800,-1.926481,-2.326884,4.281594,4.303568,1.490066,2.797174,1.404004,-0.385296,3.041627,3.128910,3.125248,3.273568,4.677114,3.139592,0.080721,-3.767663,-0.029450,-2.184973,-4.813227,1.111942,1.944487,0.436567,-3.444777,4.716178,1.772362,-2.277139,-1.687521,-3.181097,-1.327708,1.398816,2.144383,-3.218635,-3.694113,0.251930,-2.624439,4.563280,-4.009980,1.740623,2.397992,-2.308878,2.042451,-2.784661,-4.745781,0.749687,-0.436262,-0.184790,-3.797571,-1.050905,-0.022126,-0.898618,0.057222,2.342143,4.635914,1.495865,1.133305,2.245705,1.798914,0.577868,-1.400342,-3.568072,-2.685476,-3.690146,-4.946287,4.653615,4.295022,-2.748650,-3.868068,1.059450,2.112644,4.821467,3.968780,-4.927671,0.023957,3.675802,2.313761,-2.717215,-4.263894,-2.737968,-3.875393,1.925565,4.225745,2.608570,3.442335,2.500839,-2.875607,3.417310,2.363811,2.103488,-2.014679,-4.480575,0.927915,-4.979858,3.738060,3.756676,2.721793,1.160466,-2.351299,4.348735,-3.978545,-0.121311,4.098178,1.816919,-0.717338,4.758904,0.485397,4.514145,0.790277,-4.087191,-3.424024,-2.164220,-4.720756,1.365551,-3.397168,-0.831782,-4.655446,4.080477,4.432661,3.634602,0.444197,-3.803674,-2.888424,4.708548,1.314890,-2.970519,-2.894833,-1.250191,2.611621,-3.588214,-1.462600,-2.467879,1.577960,-0.080111,-2.250587,-2.182531,-4.430830,-2.437056,3.487197,2.047029,-3.767052,2.491379,-2.972961,-0.794855,3.160955,1.284677,-2.438581,-0.074313,4.829402,2.386090,3.144169,4.894711,-0.365154,4.243446,2.519761,0.617847,4.841609,-0.281533,-1.858730,1.615192,-3.751183,-1.669210,-4.306009,3.103580,-3.602863,2.894528,0.433210,3.226569,4.120151,2.110508,-4.347209,-1.096072,3.254036,-4.317301,3.595843,4.350871,3.326365,3.511917,4.115268,-3.661153,0.023347,-4.464705,1.406751,-4.743645,-1.741539,3.776208,4.114963,-3.966948,-4.349956,3.157292,-0.865658,-2.010407,-0.777764,2.651906,4.414350,-2.324442,3.138676,3.326365,1.076846,3.759117,0.288247,4.839778,0.168920,-1.972869,-4.472945,-3.035524,4.350566,1.566362,3.395337,-2.311625,-0.159154,0.177160,-1.883145,4.458907,-1.070742,-1.908780,-1.299326,0.139317,-1.636250,4.053011,-3.052614,0.229347,3.933988,-1.177252,1.182440,2.922300,-3.444472,-1.824244,3.522904,-1.448256,0.171361,0.442671,3.491165,0.000763,-3.216803,2.671133,-4.210181,0.626392,-1.077151,4.457991,-4.949950,1.267586,4.877926,3.523515,-4.637440,2.899106,-3.015992,2.083956,-2.591174,-3.511002,-1.703391,-1.912748,1.000549,-3.369091,-2.047029,0.377056,-4.157079,0.501877,0.538499,1.842250,-1.666158,-1.280099,-0.229957,-0.381939,-2.792901,-0.343181,1.807764,-3.597980,-4.158910,3.769799,-1.493118,1.943571,4.035615,-0.484176,-4.072542,-1.227302,-2.924741,-2.589343,-1.594440,1.230354,4.893490,3.795434,3.505814,1.859951,-0.859554,0.869930,-1.833705,4.227271,0.979797,4.563280,1.346019,-3.773766,-2.582324,-3.207953,3.488723,2.937864,-1.021607,3.683432,-1.884976,3.100223,-3.457289,-3.690451,-4.141209,-1.745506,0.158238,-4.488815,-3.745689,-1.367382,-2.367779,-2.638173,-2.409589,4.840083,-4.273049,0.839106,0.145421,-0.594043,1.760155,4.267556,3.111820,-2.740104,-1.568804,2.090976,0.523545,-0.808283,-0.316935,-1.457411,-3.495132,-2.632679,0.408185,-0.231788,-4.858394,-3.043458,-2.180700,0.972777,-4.702445,2.934202,-2.711722,0.145726,-4.315165,-3.877224,0.473800,4.932859,0.498825,-2.466048,-1.454970,4.215369,0.933714,-4.925840,-1.685080,0.956297,2.889035,1.675314,4.098178,-2.117527,-3.821070,-1.085391,3.101138,2.557299,-4.439680,-4.815363,-2.836543,3.412427,-1.113773,2.476424,-1.342662,3.299203,2.704703,0.838496,3.357799,2.122410,0.608081,4.576098,-1.898099,-4.884030,4.652089,-0.753044,-3.955046,-1.669820,-4.850459,3.524735,-2.676931,-2.117222,-0.838801,4.985961,-2.056490,4.548326,2.983032,3.884548,4.705802,0.235450,-1.042360,3.980071,-1.026490,-2.072054,1.909696,4.475997,-2.893918,1.640522,-4.476913,2.136143,0.360881,-2.043062,3.975799,-2.362896,2.082125,-4.283425,-0.865352,-4.775079,4.987487,-4.597156,-1.364025,-0.269326,-3.634602,4.805292,-4.847102,0.015412,3.993805,2.509690,2.168188,2.901547,0.592822,-4.212012,-3.437452,-3.344371,-0.370647,4.441206,3.335215,-1.915189,0.277871,-2.838679,2.760247,2.307657,4.355144,1.978973,-4.698172,-0.735954,3.041017,-2.647328,4.594104,-3.972442,-3.805200,-4.534288,3.797571,-1.021912,2.085177,4.294107,-4.347819,4.902341,0.337077,0.001984,1.529740,-4.919736,-4.078951,-3.760338,-0.196387,1.427808,-3.015076,1.889859,-1.151006,-1.254769,4.346294,3.838771,4.984436,2.146519,-4.540086,-3.671224,0.663625,3.726463,0.669118,3.453932,3.239387,-2.473983,4.553209,-3.637349,-0.398724,-3.135319,0.186926,1.732688,-2.990967,3.095035,-0.875729,3.073061,-4.574267,-0.153050,4.912412,1.426283,1.671041,1.823939,2.957091,-2.976012,0.700247,2.211219,4.548936,-1.537675,4.327067,-2.241127,-2.142247,0.960570,2.699515,-4.393292,3.718833,0.263222,-1.157720,0.904721,-0.991089,3.750572,1.577044,-0.698416,-4.560533,-4.683523,-2.864010,3.356883,-3.431349,-4.418317,4.777215,-3.060244,0.849483,3.997162,-3.281503,-3.315989,3.524735,4.407636,-2.300943,4.549547,-4.815973,0.634327,4.482101,0.563524,-0.206763,3.640095,0.611744,-0.199744,0.005036,-3.164312,-3.262276,2.660146,2.573473,1.098209,1.817530,2.511826,1.673482,-3.945280,-4.492172,-0.238197,2.946715,-0.798517,-2.933897,-3.589434,-3.921171,-0.586718,1.061586,0.161596,-1.270943,-3.585162,-4.780877,2.140110,-0.385296,2.769097,0.705435,-2.709281,3.573260,-0.054170,0.164037,1.514481,-3.594928,-4.960936,3.822901,4.601123,2.318949,-0.312357,-1.023133,3.030641,1.781823,-2.231971,3.162786,1.697287,2.596057,3.416395,-3.661458,-1.376843,2.009491,-4.051180,2.378460,1.721702,2.674490,3.235115,-4.802850,1.674093,0.264443,0.093539,-0.183569,-0.015412,-4.432966,3.269295,3.683432,-3.731040,-1.140934,-0.446638,-1.443373,3.849452,-0.619373,-1.386608,-1.727195,-2.293924,-2.280496,-2.911008,2.700735,3.863186,3.917814,-4.475997,3.202155,4.253517,-0.887631,4.690237,-0.090182,-3.858303,3.527482,2.867977,-3.868984,0.156713,-1.379589,0.647450,0.196387,-3.999603,-3.792688,4.814142,0.058748,-0.103000,2.369610,-2.128513,0.961486,2.838984,-1.043275,4.781793,1.485183,3.699606,0.505844,3.464003,-1.716514,-3.728599,-0.624561,0.634632,4.827265,4.290445,-3.078860,-0.463729,4.458907,3.512528,3.516495,1.126286,3.082217,4.904477,-4.768670,-4.717093,1.789148,-1.992706,-0.011139,3.595843,4.741813,-1.456801,1.000855,0.298624,2.621693,-0.683462,0.307169,2.911924,-3.044374,-1.516312,0.220191,-0.849178,-4.362774,4.247108,-4.505600,1.670125,4.946898,0.034944,4.032563,-2.801447,-1.608478,-0.763421,-1.066164,1.636250,-2.326273,3.546403,-0.290078,-2.335734,-3.899197,3.986175,-4.531846,-3.556780,-0.253151,-1.335032,-2.118748,-0.047761,-3.316294,-3.659017,-3.245186,-4.464400,-0.410016,-0.155797,-3.993805,-0.779290,2.049471,-1.573077,2.864315,-0.634632,3.856471,3.101444,-1.895657,-2.799005,-4.364299,4.029817,0.132908,-4.164708,-1.907865,4.024934
0.730155,4.268777,-3.799707,-2.770318,-4.734794,-2.001862,3.650472,-2.967467,-4.800104,2.762993,-2.142247,2.284463,-4.315470,2.997986,0.854671,-4.120762,-3.930631,1.557207,-3.630634,4.761040,-3.865627,2.267678,-1.586200,-4.584338,-4.141820,1.880398,1.682638,3.919340,1.530656,2.974487,-0.914182,4.594409,-3.971831,4.385968,-3.280587,-3.655660,-3.937651,0.713370,1.591693,0.728324,4.210181,-2.527390,2.415693,0.830256,-1.455275,3.454543,-1.220283,5.000000,-2.322306,-3.144780,-0.989563,4.511399,4.019440,-3.262886,2.039399,-0.783258,3.077944,-3.615375,3.585162,0.245827,1.605731,0.116123,1.965545,3.821375,2.404706,0.117344,3.851588,-4.751274,-1.396069,4.855647,-4.727775,-2.852718,-4.774163,-4.363079,-1.808374,0.975524,0.845515,2.875301,-2.042451,-4.071627,-2.838069,-1.375927,1.947539,4.252907,-0.705741,-3.053529,4.716483,-2.944578,4.609668,-1.324046,-0.041047,-0.337992,2.900021,2.136143,4.605396,0.585498,-4.280068,-3.621784,-4.647206,3.174078,-2.303079,-1.497391,2.956786,3.997162,-2.374798,1.623737,4.583117,-2.970824,2.159032,-4.958495,-0.457015,-2.299112,-0.084994,3.183844,-1.281930,-4.127781,-1.201971,4.880062,2.989746,1.796472,4.361858,-0.471969,0.982238,4.133580,2.016816,1.722312,1.440626,4.078646,0.899228,0.895260,0.542467,4.663381,2.211524,-2.453536,-0.529038,-0.702383,-0.151830,2.613147,2.548753,-1.387219,-3.879055,1.547746,1.252937,-0.334330,0.392315,-0.331889,4.422590,-3.430433,3.431043,0.334941,-0.032502,-3.385266,-4.694510,2.527696,-1.603900,0.937986,-0.376446,-0.624866,3.470412,3.805200,1.929228,4.208350,0.301981,-0.428022,-4.920957,-4.309671,-3.795129,1.381420,-0.603198,-1.402783,4.611194,0.660573,0.429243,1.800745,-2.632679,1.483352,2.112339,0.022736,-4.277322,-1.142766,-1.843165,0.921506,-4.680166,-5.000000,-0.524766,4.073153,-4.496750,2.665639,0.448469,3.408155,-1.744896,-0.418256,1.859340,-0.330973,-2.925352,3.069704,3.294931,4.450362,1.109806,-1.106449,2.836238,2.381817,4.854732,3.418836,-3.156072,3.019654,-1.271249,3.126774,-2.344890,-0.994446,0.844905,0.559862,2.001862,2.061983,-4.719535,0.753655,-2.033601,3.376415,-2.830134,-2.780999,3.283639,-0.054170,-0.080721,1.538285,2.800836,3.442030,4.867550,-4.363689,-2.084262,3.155156,-1.300241,0.791803,-4.206214,-0.415510,-1.073794,2.446821,1.187933,0.236061,2.741935,4.881893,-1.335948,4.188208,-0.424360,4.814447,-1.946318,-3.008667,2.644276,-2.011017,0.937986,2.460860,-0.175939,-2.185888,0.982543,2.926878,-0.851924,0.116428,-4.071627,4.504685,-0.751213,3.066042,4.061556,-1.054262,0.051729,-3.654439,2.959838,-1.364635,4.035615,-1.383862,3.346202,-3.705710,3.373974,-2.653737,-4.155553,-4.046907,3.265633,0.070650,3.463698,-3.243355,-3.230842,1.132389,-2.388836,-3.836634,1.456191,2.978759,0.461898,4.101840,3.190558,-3.929716,1.479080,4.646290,-2.649770,-3.535722,0.913877,-3.224128,2.804498,-4.862056,-1.913968,0.776849,-1.045717,-1.889248,-2.733390,1.851405,1.154668,1.431471,-1.035035,-2.503281,4.826960,0.090793,-0.555284,0.218360,3.575701,4.922483,-3.730430,2.133091,1.620075,-3.447523,2.701041,3.033082,-4.142735,0.467086,-1.248054,-1.531266,-2.134312,2.250282,1.717734,-0.588244,1.160161,-2.936338,3.988311,0.064547,4.016999,2.427290,0.959349,-4.624012,3.176214,-1.640217,-3.144475,4.827265,-1.264840,3.949858,1.273385,4.048128,-4.454024,4.410688,4.259621,0.830561,1.430860,-2.311014,2.741020,-2.903378,-2.477645,4.686575,-3.891263,3.387097,1.051210,2.154149,3.780480,-2.568285,-4.117710,2.330546,2.543260,3.366039,1.120487,-1.625263,-3.502457,3.150578,3.093509,-0.332499,-2.590258,-3.235115,1.027711,-3.965423,-1.712546,2.731254,1.726890,4.960936,-2.010407,-4.469588,3.567156,0.853450,-0.314188,1.480605,-4.878536,0.419477,0.973998,-0.372173,-1.274300,3.219855,-1.528825,-0.772881,4.298379,1.458327,4.691153,0.361187,3.724631,-1.924955,0.016022,-0.731376,1.123844,-2.797479,-2.417219,4.943846,-0.695364,-3.955046,3.888211,-1.435133,-2.275002,2.249062,2.931150,2.319254,2.269509,-4.176916,-3.297678,-0.815302,2.153233,-0.328532,-0.165868,0.230873,4.271218,-2.197180,1.222724,1.001770,0.296793,-4.720756,0.434431,3.543046,-3.149052,-1.038087,1.712851,-4.362774,4.047212,3.125553,3.392895,3.809168,2.728813,-1.006653,-4.461653,1.658834,-4.288308,2.264321,3.617512,0.095370,3.341014,-2.311319,1.019471,1.022828,-1.321604,4.758904,-1.761071,1.048463,2.630238,3.572344,1.528825,-3.229011,4.329508,4.938963,-1.162297,-1.783654,-2.915891,3.782311,-4.152196,1.975921,-4.794610,-0.090487,-0.079806,0.619373,2.025056,-4.796136,4.765007,-0.064241,4.419538,1.307566,3.644978,0.570544,4.147923,-3.146916,3.928495,-4.380169,1.320994,-1.689352,0.800043,0.744499,0.310221,3.508866,2.947325,-1.635945,3.410901,1.894436,-1.970733,2.499313,2.571642,0.594653,0.744194,-4.183935,4.503769,0.340129,1.308481,-4.554430,-0.518967,0.314493,-2.844783,-0.869625,-0.856502,-4.007233,-4.327677,-1.731468,3.617817,-0.968200,0.783258,-0.585803,3.266854,3.269601,1.191595,0.796381,-4.620350,-4.094516,3.097781,-4.577929,1.117130,-2.083956,-4.801935,-2.678457,3.022095,2.771233,-1.212958,2.502060,-1.591082,-2.484359,0.762810,1.170843,-1.053346,-4.725944,2.361064,2.790155,1.741844,3.246712,1.421094,0.525987,2.241737,-4.747917,1.000855,-3.344066,4.264504,2.889645,2.150792,-4.506211,-2.530137,4.369182,3.661763,-4.601733,-2.412336,-4.913938,-3.402661,-3.573870,-0.292215,-1.004212,-3.576006,-4.809565,-0.048677,4.846797,0.551317,3.491165,-4.165319,-3.654439,4.095126,2.274697,0.635243,0.307169,1.674703,-2.508469,2.072970,1.855068,-1.940214,-0.591601,0.624561,0.737480,-4.523606,1.938688,-2.225257,-2.182836,0.384381,3.559526,-0.475631,-4.200110,-2.458419,-3.631855,-4.536729,3.265023,4.165624,4.850764,-1.277047,-3.943754,2.004913,0.914182,-2.879574,-4.896847,0.133213,-3.243660,0.806146,4.725944,-3.721274,2.127293,-3.272958,0.492721,-0.497909,-2.453230,-4.779046,0.692923,2.031159,0.045625,-0.949278,0.481124,3.073061,2.983337,0.191198,2.764824,2.408368,-3.484756,4.685659,4.887997,-3.415784,0.264443,0.878780,-4.819636,-4.483932,4.761650,1.341441,-1.565447,2.314066,3.220466,3.800317,4.366741,4.143345,0.206153,1.382336,-1.869106,-3.068789,-1.240730,-2.509995,-3.052614,1.738182,2.541429,-4.383526,1.904813,-4.403668,4.561754,-0.585498,-0.999329,4.637745,-0.952025,3.334300,-1.514176,2.315592,-1.974395,-0.864437,-3.433180,0.540941,-0.834223,-1.402478,-1.460768,-3.461562,-3.536332,-2.274697,-2.594226,3.238166,0.315104,2.779778,-2.952513,-3.986175,-1.453749,3.430128,4.006012,3.585162,4.966124,3.353526,-3.056581,-4.112522,-3.002258,3.584246,-2.159642,-3.268380,-1.041749,-1.069216,3.993500,4.056978,2.541734,2.773675,4.876400,-4.402753,1.073489,0.551317,2.929319,2.770013,-0.903195,-2.748039,2.332072,0.597705,3.853420,-0.778069,4.832759,-3.521073,0.221107,-4.398175,-3.315378,-4.379254,-4.328898,-0.294351,-4.234291,-4.059420,-3.192389,-4.349040,2.928709,0.255593,4.052095,0.560167,-3.343455,-1.431166,-3.968780,-2.364727,-4.917905,-1.734214,0.242470,0.428022,4.429609,-4.965819,1.541337,3.612934,-2.053438,2.318033,-4.968566,0.575121,4.389019,2.118442,4.908750,3.129215,0.113681,4.957884,-4.178747,3.679159,3.853114,1.813257,-1.679586,-4.870296,-1.777245,-4.163182,4.946287,-1.130863,-2.965026,-3.326365,-1.473586,-3.875393,2.469710,-4.810785,-0.756401,3.015381,1.176946,1.419568,2.032380,4.603870,3.363598,3.557695,0.874508,-1.732688,3.932157,0.785699,1.547136,1.698202,-0.265358,-2.230445,-0.605945,-4.157384,1.998505,3.624531,3.677023,-1.902982,-2.006439,3.165532,-4.928587,-3.932768,0.999939,3.257698,-2.128819,-2.790155,2.637562
2.073885,3.460036,4.663381,-3.378552,4.077120,-3.382519,4.582202,-1.991485,-1.462294,1.218146,-4.710990,-3.010193,4.397565,-3.112735,3.557085,1.301767,-0.706656,3.178655,-1.672262,-3.692282,-4.443648,2.830744,-2.808466,-3.177435,0.993530,0.670339,-4.073763,-0.264443,-2.732780,-0.277566,-3.579669,1.495865,3.686789,1.087832,3.284555,-0.474715,-0.779901,-0.843684,4.468673,1.620685,0.542467,-1.288949,-3.805811,2.402570,-1.067080,-4.508347,-2.483139,0.882138,3.828700,-3.223212,4.828791,-1.800439,-4.145787,3.547929,1.615802,-0.394147,-2.863704,0.798212,3.781091,-0.261391,1.713767,-2.450789,-4.151891,-4.732353,3.859523,3.135319,-1.646016,3.963286,-2.875912,1.321604,1.746117,4.251381,1.917936,-1.184576,-2.902158,4.323099,4.433576,-0.263527,-1.048463,4.855037,4.736625,2.603687,0.601367,4.405499,-3.175604,1.407056,-2.867061,1.550188,-1.528825,-2.677541,-3.471938,2.817927,3.669393,2.633595,4.148534,0.489364,-4.515976,3.423109,0.909299,-0.677664,2.128208,2.597583,0.459761,-3.735923,4.072237,-0.195166,-4.321574,2.216712,-4.997253,-0.191198,-0.203406,-0.087741,4.442427,-4.114353,2.464522,-3.032472,4.837336,-0.200659,-3.929716,-1.824549,0.937986,4.923704,2.627491,-3.904996,4.269692,4.069491,-3.461867,4.008759,0.517136,-1.415601,3.550676,0.302286,2.632984,0.282144,1.218146,-1.664632,-2.523118,2.765740,1.176946,0.861080,-1.191900,3.709983,-1.448866,3.058412,4.432051,4.663076,-1.200446,3.243355,0.324564,-0.071261,-2.683035,-4.685354,-0.460677,1.093936,2.100742,2.004303,-1.288339,-1.236457,4.797662,2.986084,-0.023957,-1.934416,0.440535,-3.084964,1.101260,-0.515000,1.190985,1.454054,1.665853,1.596881,4.396039,0.346538,-1.922208,-2.747734,0.275735,1.610309,-4.744865,-0.212561,-0.449385,-4.100009,-2.219153,0.810724,-3.675802,-0.887326,-1.660360,-3.861354,-3.467666,-1.707968,-3.743553,1.435743,-2.731559,4.894711,3.941618,4.124424,-2.695853,4.486373,4.059725,3.128605,4.111606,-3.079165,-4.765007,3.009888,-2.298196,-3.923917,-0.896481,4.061861,-3.406018,3.197272,-3.476211,4.923399,-3.776513,2.919248,-4.236732,-0.725883,-4.893185,-3.972747,0.467391,3.175909,-0.930662,-1.982635,0.226905,4.616993,-1.144292,-2.479476,1.556902,1.831568,1.429029,3.651997,2.096164,1.947539,0.275124,-3.649861,-4.156774,-3.471633,-4.977721,-1.234626,2.239296,-4.424116,-4.307840,-4.238868,-3.088015,-3.452406,1.888028,-2.405927,-3.108463,-0.039521,2.241127,2.827998,-1.888638,-1.864834,4.421369,-0.447859,-1.992706,-1.348460,1.026795,-1.038697,1.027406,-0.929136,1.665548,0.362712,-0.138096,4.489425,-3.460341,1.667989,0.211646,4.489425,1.848659,4.441816,1.901761,1.045717,2.318644,-2.443159,4.157079,3.950774,1.174505,-1.469008,-2.152013,-4.677419,2.866146,-3.402356,2.524949,-0.240333,-1.140019,-3.420057,1.046327,1.696982,1.811426,-2.371746,-0.378887,-3.462477,-1.574297,-4.119846,-3.930021,-2.886288,-3.674581,-4.887082,4.123814,2.041231,-4.766533,4.445784,-3.430433,-2.466353,-2.215491,-2.849361,-4.942625,-0.766472,0.277261,-0.352031,-0.623035,-4.372539,-1.316416,4.731132,4.022492,-0.395672,0.220191,-1.902066,4.854122,-0.278481,-4.198279,2.244179,3.669088,-2.259438,3.685263,-3.220771,3.496658,3.993500,-0.384381,-0.763115,2.426069,-2.854549,3.793298,-4.570299,-1.215094,-0.084384,-0.036775,3.422498,-4.524522,-2.688528,-3.047426,0.176244,-3.714560,-1.046937,-2.042146,4.936216,1.981414,2.037263,-2.101352,-1.584979,-0.997497,-3.492386,4.153111,1.844386,-1.436354,-0.999939,0.981323,4.947508,-1.020386,-2.887204,2.955870,-3.097171,-0.973083,0.576647,-2.294839,-0.640126,-4.848933,0.879391,3.290963,-4.436628,0.335856,-4.089022,0.519578,4.659108,-2.556383,1.190985,-4.484848,-4.767754,4.842219,4.237953,2.854854,-2.847530,-2.872250,3.649556,4.581896,-4.222694,-1.239204,-0.550096,-4.586169,-2.415998,3.420667,-3.730430,-0.547044,1.287729,-3.102359,-4.079867,-1.288949,3.513749,-3.665120,0.925474,-1.234016,3.078860,3.624836,-4.427778,1.859035,2.952513,-4.216895,-3.955657,2.745598,3.952605,0.106662,-3.800928,-2.389447,-0.755181,-3.072451,0.553453,1.368603,3.704184,-2.221290,1.035340,3.646504,-2.798700,1.782434,-0.926389,-1.221503,-4.120457,-1.927702,-0.424055,0.113376,0.481124,-2.934812,-1.633198,3.949858,-4.215369,-1.608478,-0.353252,3.415479,0.224769,-1.701254,-4.970702,-2.400433,-0.258339,4.340190,0.726798,-3.749351,4.938353,0.161596,4.438765,-4.645070,-4.403058,-1.802271,-1.484878,3.903165,1.624042,3.091067,0.947142,-2.835017,4.480575,3.646809,0.754570,-3.221992,-1.834925,-3.866237,-0.670644,2.965331,3.811304,-3.251595,4.299600,-0.805536,-3.042848,-3.952605,-2.524949,4.592273,1.557512,3.170110,3.437757,4.422285,-0.207984,2.653127,0.337382,3.946501,1.742454,1.660970,-0.540025,-4.028291,3.989837,0.435041,-4.874874,-2.592395,1.203497,3.779565,1.480605,-4.866634,-0.218665,-3.605609,-2.249672,-3.501236,-2.400128,-0.130467,-1.492813,4.765618,-1.056703,4.149449,0.522324,4.799493,-1.330454,1.286203,2.762688,-0.665761,4.678030,4.287088,1.093631,1.109500,2.737968,-1.125980,4.253212,1.202887,2.747734,0.965148,2.654958,-1.135441,0.475326,-2.307962,-3.410291,3.170110,3.857692,4.763787,-4.619434,1.799524,-2.094943,-2.008576,4.059725,-2.740410,-2.711417,1.786096,-0.875423,-4.139073,0.660878,2.441023,-0.056001,-0.240944,-4.220557,-0.988647,-2.636036,-2.625355,-0.505539,-0.395062,-3.909879,2.508774,1.660054,-4.105197,2.396466,-2.543870,-2.965331,3.668172,3.731956,0.441450,4.233985,2.220679,1.783654,2.677236,-4.206214,0.413678,-4.441511,-4.629505,-1.588031,2.202673,-3.951994,1.978362,-2.574084,-0.550401,-0.963317,-3.969390,4.593799,4.836421,-2.382122,-0.166173,3.235420,2.684256,0.979797,4.364299,-0.198218,0.499741,1.021607,-4.334696,-4.067354,-0.946532,3.367870,-1.937162,0.063326,3.806726,4.334391,-0.493637,2.645497,-4.501938,0.418867,-0.644704,4.044160,2.705924,1.871548,3.915983,-0.827204,4.189428,-3.091067,0.046541,-2.070528,3.834498,-1.863002,2.141942,-4.504379,-3.995331,-2.257607,2.807550,1.559954,4.118625,3.015992,2.537767,2.533494,0.257424,-1.228523,-1.287118,-4.188818,-1.374401,-1.779687,-0.777154,0.151830,0.669118,-1.132694,1.031983,1.228523,4.665517,4.985961,-1.000244,-3.579058,-2.400128,3.240913,-4.734184,-2.091281,2.141026,3.015687,4.516282,-1.876125,-3.477432,-1.988433,-4.562059,-3.365734,0.151830,0.676443,3.680685,2.512741,2.750786,-3.970916,-3.367870,1.255379,-0.155492,-3.557085,-4.675283,0.317240,2.413556,3.943754,3.782311,2.321085,3.513443,1.595050,1.119266,0.003510,-0.316019,0.524766,-3.289132,1.965239,-0.045930,4.160741,3.736534,3.280892,0.255593,-3.767052,1.418958,0.037385,-3.936735,4.112827,1.264840,1.859645,1.067080,4.040498,-2.376324,1.485794,4.692068,-0.185095,-2.126377,-4.541307,-3.720054,1.499832,2.549974,4.990539,-1.255379,-4.285562,0.726493,1.065249,-0.493332,4.066134,0.965758,2.845698,1.533708,1.290780,3.145085,3.439589,2.284463,-0.334941,1.475112,2.093417,3.378857,1.247749,4.023408,-3.124943,-1.197394,4.516282,-0.946226,-3.094424,4.459517,-3.038575,3.492996,-1.794336,-3.118839,0.200659,3.841517,2.217322,3.916288,-0.826594,4.835505,1.063417,-4.804987,1.982330,-3.822291,-1.391186,-4.797662,1.938078,2.646413,1.385388,-3.248543,-1.621296,-2.106235,-1.560259,-2.313761,-2.184057,-2.748650,4.173559,-1.383557,1.980499,-0.149998,3.230537,4.501022,4.320658,-4.631642,1.500137,-2.108676,1.522721,-4.274880,2.295450,-3.352611,1.613056,-2.977844,1.768395,3.939787,-4.796442,2.056185,2.626881,3.346202,1.447035,-1.292001,0.216834,-3.136845,-4.743339,4.525742,0.026093,-1.362804,-2.635121,2.807245,0.680410,2.229530,3.770104,0.503403,1.487625,4.233375,-3.857082,3.249153,-1.403699
2.047029,-0.244301,-2.166967,-1.169317,-1.378979,0.486312,-2.573473,-4.737846,1.992401,-2.527085,-0.127110,3.583636,2.412030,2.973876,4.360027,3.344371,4.887692,-4.004791,-3.216803,3.114872,-0.055696,1.254463,-0.889157,3.635212,0.425581,0.033113,3.067263,-1.982330,-2.864925,4.491867,3.445387,3.061159,1.147343,2.002167,1.358837,0.741447,-4.418928,1.060060,2.750175,3.940703,4.668264,-4.654836,2.462691,-4.524827,2.910398,-2.511826,-0.805841,4.491256,2.154454,-0.897092,1.641438,-0.719474,-0.615711,-1.343272,1.145207,0.588855,3.050478,3.731651,1.157109,4.473556,0.748466,-0.757927,-1.168706,-1.226081,-3.945891,-1.824244,-0.941343,2.258827,-2.665029,-3.587909,-3.743248,0.510422,-3.655660,-1.811426,4.222083,-2.388531,-0.585803,3.771630,-0.634327,-2.307047,-0.942564,-4.100314,-2.362285,-4.589831,-1.205329,-3.443251,0.455794,-0.594958,-0.986816,0.639210,-0.048982,-2.179785,-3.323313,-1.917631,-1.157414,-0.073397,-3.307749,1.004517,-4.748527,2.925962,-2.247536,-2.565538,-2.226783,-2.007965,0.461592,-1.817530,1.111026,4.613636,0.558641,-1.581622,-2.408673,-2.702261,-4.947813,0.519883,4.872433,3.703879,4.077120,-0.247963,-4.849544,-1.739708,-3.714866,-0.657216,-3.809778,0.336161,0.586718,-3.487503,-0.522324,1.023743,2.047945,-3.972747,-4.181188,-2.401044,4.765618,2.830439,3.688925,-0.282144,-0.478378,0.319987,0.651112,-3.584857,-0.958739,-4.164708,3.151799,-2.033601,-1.343577,-0.091403,-4.992065,1.673482,-4.805902,0.852535,-0.099948,-4.356975,1.899625,1.240730,-1.822413,-0.388958,2.207251,-2.154149,3.298288,-3.118229,0.171056,1.596271,-1.795862,-3.553728,0.368511,-0.884579,-3.044679,-0.666677,-4.910581,2.406537,1.927091,-1.736045,1.622822,-1.758324,1.888333,4.671926,-2.549059,3.824427,1.269723,2.144078,-3.827784,0.280007,-4.063387,0.355083,1.953032,0.544908,-4.221168,-1.452223,-4.670095,3.207953,-0.572680,2.630848,-1.827296,-1.123844,1.414075,4.949339,0.619068,0.619068,-2.913450,0.795160,-2.206946,-4.940794,-4.414350,0.718253,-0.874508,-4.331339,-3.793909,2.699820,-1.921293,4.837642,-1.555071,3.252510,-4.900204,-3.730430,1.056703,1.509598,1.604205,4.278848,0.422529,-4.638050,-2.191076,1.536760,3.550981,3.712424,2.228004,1.844081,-3.982818,3.901028,-4.363994,-0.518052,0.159154,-1.626179,-2.678152,1.708579,3.836940,-0.350505,-3.565325,-4.038667,-4.927671,-2.351909,-3.754540,-1.667989,2.884152,-1.551408,4.127781,4.869381,-0.382855,-1.466872,-4.926450,2.279275,-4.901425,3.581805,1.560564,-0.417646,-2.082430,-4.119541,-2.426984,-2.710807,4.145482,-0.592822,-0.397198,-4.342326,-1.187323,-3.348033,2.428510,-1.402783,0.451827,-3.757897,2.498398,4.776299,4.017609,-4.572130,-3.280892,2.503586,2.499619,-3.505203,-0.531175,-0.062105,2.538987,1.164739,-4.354228,-2.805109,4.361553,2.046724,2.564013,1.908475,1.338694,-4.797357,-1.492203,4.814142,-0.507981,2.886898,0.762810,-3.087405,2.248451,0.524461,0.927915,4.780572,0.765557,-3.007141,0.326701,-4.418012,-4.867244,2.262185,3.330332,-1.639912,-3.233894,1.465651,1.399731,3.148747,-2.695242,-0.544908,-4.333171,4.487289,4.325846,4.910276,0.860469,0.889767,-0.812555,-1.942045,-1.606342,-3.167364,-2.686697,1.070437,1.423841,-1.174810,-3.769494,-4.801325,-0.302591,2.125462,1.675008,3.710593,-3.007752,-0.338603,-2.925962,4.686575,-1.028321,-0.277261,-3.278146,2.748039,4.258400,3.986175,-2.040010,3.768273,-3.455153,2.430342,2.670217,1.637471,0.554064,-3.285165,3.399915,1.138493,-0.345012,-1.427503,4.428694,-3.998383,-2.044893,4.786981,3.086489,-3.804895,4.677114,-4.687185,1.639607,3.516495,3.630940,-3.892483,-4.942320,-0.450911,-4.400616,3.224738,4.967345,-4.958190,-3.554643,-0.252846,-4.887082,4.780877,-1.248360,2.110508,-1.364635,-2.994018,-0.188452,-2.615894,2.474899,1.448256,3.778649,-1.927091,-0.781121,-4.963683,0.789361,-3.999603,1.704001,-0.654164,0.869015,1.835536,0.681326,-1.154668,-4.560839,1.827906,0.863826,4.010590,4.231544,-1.688437,-4.336222,-1.640217,0.424970,-4.457686,-4.066439,3.480789,1.820582,-2.573473,3.024537,1.106449,0.861690,-1.289865,1.472976,-3.695639,1.313974,-3.814051,1.628315,0.843379,4.420454,1.482742,-2.464217,0.795770,2.338786,1.998199,0.384686,-2.556688,1.678976,1.541337,2.835017,-4.456160,4.948424,-2.757805,4.537339,-1.974090,2.722404,4.294107,4.155248,1.170232,4.348125,-4.909970,-1.796472,-0.658437,-0.004120,4.319132,2.018036,3.336741,1.872768,-3.423414,3.163091,1.403394,-2.594226,-1.938078,2.595752,-2.997375,2.213355,-1.081423,3.896451,2.369610,-4.328593,-2.220069,-4.124729,1.935026,-3.107547,-4.913327,-1.124760,4.678030,3.926054,-3.263497,0.072787,-0.537584,3.992279,4.625233,-1.899625,2.426984,-2.431867,-4.351787,2.296060,0.486312,4.129612,-4.278848,-3.108463,0.009613,2.365642,0.379803,-4.539476,4.736930,2.683035,-1.472976,-4.074068,1.995758,4.803156,0.887631,1.453139,1.281930,-1.729331,-0.271157,-2.472457,4.265114,-1.313364,1.417737,0.544298,0.283670,-2.524949,-1.632282,-1.794031,-3.610187,-2.004608,1.948759,-2.944884,-3.992279,-4.179662,2.909787,-2.553941,-4.732047,-4.019135,0.889157,1.269417,1.080203,5.000000,-0.433821,2.745903,0.005646,0.520798,-0.978576,-2.402875,1.995148,-3.650166,1.864528,0.907163,-1.950285,-4.281899,4.697256,-1.009400,-4.127171,0.579699,1.467177,-4.426557,2.571337,-0.243690,0.283059,-2.392804,-1.531571,3.745689,0.244301,1.019776,1.097598,-1.002686,-0.143284,1.723838,3.428297,-0.521104,3.591571,2.190161,-4.603870,-1.664937,-1.849879,-1.100040,2.798090,-2.538682,-4.998779,0.988952,2.606738,-2.203894,0.747246,-4.606006,-1.218451,-1.847438,1.884976,-1.181219,-2.376629,-4.607532,-4.473251,1.825159,-3.252510,3.766747,2.639088,-4.631031,-3.271126,-3.778344,-4.639576,-4.912412,-0.511948,-4.502548,4.970092,3.655965,2.476730,-2.181005,2.056185,-3.483230,2.726066,-3.002258,-4.539171,1.310617,-0.176855,1.759239,1.552934,-3.699606,1.873074,4.102451,0.394452,-1.880398,3.512223,1.508072,0.368206,4.145177,0.036775,0.807367,-2.178564,-0.187231,-3.294626,-3.476821,3.292489,-3.811609,-2.719962,1.496170,0.882138,-1.897794,0.868099,2.607654,2.332987,-1.835231,1.127812,-0.585192,2.376324,-3.027894,-3.101138,-1.492203,-3.088626,4.817804,-1.676229,1.400037,0.582446,-4.782708,-2.484970,-1.230964,-4.692373,-4.434492,-2.159337,-1.144902,-3.669088,-4.767449,0.883358,2.834712,-2.644581,-3.585467,-4.863277,4.976806,1.320994,-1.948454,-4.495224,0.398419,-1.612140,-1.876736,-2.336955,-1.769616,-2.307352,4.636219,-3.654134,3.005615,4.432966,0.616016,1.622517,2.079684,-1.151921,3.414869,2.222510,1.904813,-1.342051,3.648030,-0.023652,0.959044,1.519364,4.072237,4.431135,2.150182,-0.934019,3.718223,1.703085,2.504196,-0.908994,-2.411725,-3.366649,2.951903,-2.560045,-2.765130,2.305826,-3.974578,-3.830836,2.528001,-4.010895,4.278237,-0.460372,-0.071566,-4.429609,-2.762993,4.402448,-2.422407,-4.463179,-0.293130,-3.455458,2.515183,-3.427381,-0.768914,-0.448469,0.337687,-2.170934,-4.472945,-2.247841,2.613147,-4.063997,-0.293741,-0.189367,2.359539,-0.186926,-3.909268,4.521165,2.904599,-4.658803,4.443342,-4.623707,0.434736,-1.034425,-4.585864,-4.533982,-4.450056,4.281594,-2.968993,-0.730461,4.134495,0.674306,-4.971007,2.906125,2.853938,-1.928312,4.845576,-0.595569,-0.401776,-3.128910,-1.914884,0.555895,4.176305,-2.893307,1.272774,1.909391,-0.425581,-4.084750,-0.299539,2.475204,-0.900754,-2.632374,4.188513,-4.302652,-0.293130,3.725242,3.564714,3.260140,-3.160955,2.181921,0.683157,-1.714072,1.075320,-3.837855,4.788202,-0.507981,1.912137,-4.772027,-1.961272,2.867672,-1.014893,2.663503,-0.993835,2.430342,-3.953520,4.796747,0.955992,-3.369701,-1.994842,1.124149,-2.271340,1.959136,-3.651387,-0.704215
-4.970397,0.328227,3.256783,4.029817,-0.057527,1.781518,-0.283975,4.010590,-3.523515,-0.899838,-2.045808,-4.159215,-0.037080,-4.133885,3.501236,-0.891293,-1.889248,4.543138,-2.807855,1.624348,1.534928,-3.858608,2.425764,-1.098514,1.571245,-1.971343,-2.014069,-3.064211,-1.814478,1.442152,1.745811,2.348857,-4.202551,-4.723197,-4.440291,-1.045717,-0.175939,-2.297891,-3.336436,4.818415,1.757714,2.174291,-4.113742,-1.136662,-4.405194,-0.596484,-2.005829,1.092715,3.422803,1.845302,4.475692,-4.515671,2.978759,2.268288,4.078036,-0.371563,4.995727,2.971740,1.414075,0.160070,3.143864,-2.794122,-1.055483,-1.938078,4.385357,-0.635548,2.653432,2.886288,2.547533,-4.492477,-3.272652,-0.030976,2.935423,0.781732,-2.449873,-0.305033,0.788141,-4.707633,2.328104,2.872250,1.399731,-4.998779,2.654653,1.287729,4.707022,-0.798212,-1.670125,-2.502670,2.169103,1.140019,1.748863,2.918332,-1.261483,3.344981,-1.837367,-1.716514,-2.252419,4.224219,2.137669,-4.475387,1.513565,-2.505112,-4.485153,-4.860530,-4.519944,1.009095,-2.813654,-1.886807,-1.290780,-3.467055,0.000458,-3.548845,-1.472365,-2.949156,-4.890133,1.389660,2.152013,3.145390,-0.929136,3.341319,3.094119,-4.974059,4.012421,2.644276,-4.832148,1.765648,-3.820460,-4.825739,1.903897,4.301737,3.175298,1.882534,4.186071,3.774071,-4.803156,-3.682211,3.926969,1.755272,0.598010,-0.791498,-3.413038,3.938871,1.073183,4.147313,0.356609,3.846095,-3.214362,3.459120,4.808344,-1.884976,-3.247627,-1.695151,-3.164312,-0.064852,4.788812,2.084872,-3.308054,2.187719,-3.661763,1.207770,1.933500,-3.144780,-3.508866,2.283853,2.090365,2.266762,4.506516,-0.193945,1.870632,4.731742,-4.848933,3.384045,-4.287088,-3.865322,2.169103,-1.410718,1.498001,4.051485,4.188818,0.476852,-3.767357,-4.060335,-1.611530,3.845790,1.521500,3.984954,2.225562,-0.701163,1.633503,2.142247,-1.457106,-0.831172,1.980193,1.956084,4.373455,2.366253,0.814997,-1.291391,-1.261483,2.217322,1.970733,4.462264,-0.226295,-3.645283,1.441542,-0.440840,-3.525956,2.719352,-4.374065,-0.856502,-4.612720,0.736259,4.045381,-3.739280,-2.443770,1.733604,4.341411,-1.894742,-3.968474,-2.341838,2.377850,-3.026368,-0.738701,2.156285,-4.750969,2.487411,0.671255,3.079165,0.010834,-3.353221,-0.248573,0.477767,-4.052095,-1.716819,4.956664,-0.851314,3.188421,-1.537675,3.737754,-0.208594,-4.522080,3.412427,0.012970,-2.156896,-0.071871,-3.468886,4.394513,4.051790,1.547441,-3.960540,-2.520676,-4.153111,-4.627674,-0.160680,1.522721,3.580584,4.008759,4.144566,0.797906,0.684988,3.391675,-2.558824,-4.035005,1.826685,4.586474,-3.656270,2.752922,-1.893826,4.433576,4.907529,0.270241,3.373058,2.853023,3.960234,-0.740532,0.716727,-0.374310,2.017731,-4.395428,3.194220,-1.545305,4.342326,-0.596789,-2.138585,1.128117,1.707663,4.919736,-2.835627,-0.410627,-4.563890,1.728416,-3.241829,-1.267281,0.264138,2.363201,3.815271,-2.267983,1.605426,-3.221686,4.880062,2.717521,-1.230354,-1.054872,-2.656789,-1.387524,0.700858,-4.116794,3.586993,2.945189,-4.201941,4.451277,1.869411,-0.559252,2.381207,-3.800317,3.011109,4.216895,1.360973,-4.393597,-3.056276,2.384259,-2.317118,2.000336,-1.813562,-2.126988,2.100436,0.490280,4.306925,4.293802,-0.157933,2.211219,-3.564714,-0.355083,-2.262795,-0.801263,-4.106113,2.681509,-3.637959,4.203467,-4.002045,3.756371,-1.235542,0.760979,3.096866,-2.054353,2.336650,3.829310,-4.083224,3.274483,-4.606922,-3.698691,-2.733085,1.848659,-4.981689,1.713767,-2.830744,-3.287301,-2.252419,-1.545305,1.477859,2.242653,-0.360271,-4.207739,-4.949950,0.882138,-2.689444,-2.970519,3.529923,4.046297,-3.516800,0.100558,2.805719,-0.009308,-0.380108,0.922727,0.208899,-3.528397,-0.798517,-0.187231,-3.486892,0.998413,-1.789148,-3.716697,2.794733,-3.499100,4.388409,2.531053,1.218757,-4.783929,-0.184790,0.926695,3.817713,-1.388134,2.397992,-4.175390,-1.684774,-3.842128,0.803095,4.998474,-4.932554,0.756096,-0.583972,1.019471,4.178137,3.644063,4.880673,-2.111728,-3.149052,-3.416395,0.780511,3.235420,0.047151,4.149449,2.033906,1.395154,-1.500443,3.921781,-4.449751,-2.322611,3.159734,-2.591784,-1.274300,-0.860469,0.126804,-0.501572,2.327494,2.174291,-0.867489,-0.735649,-0.660573,2.229225,-4.363689,-0.076754,-3.674581,-4.034394,-4.403668,0.772271,-1.125370,1.172063,-3.019349,-1.090579,-2.308267,4.743950,-2.922910,3.549760,-3.106632,4.041414,-0.332194,0.753655,1.076235,1.940825,1.129032,1.378063,2.714164,0.888241,-0.480819,0.060884,-3.547319,-3.731040,-4.282205,-1.945097,1.858119,4.407636,0.678274,-2.278359,1.188543,-4.491562,-2.145909,1.495865,3.744163,-3.149663,4.867855,3.138676,3.365123,-3.452406,3.474990,4.084750,0.634022,3.189337,1.897183,2.702567,-3.651387,1.671041,-1.423231,-0.724052,-2.172155,0.530869,1.421400,4.519944,4.609973,1.099734,1.599322,4.446394,-4.890439,3.782311,-4.052400,-0.611744,0.794549,1.779382,-2.942442,-0.003510,-0.558031,-2.437361,-4.905393,-1.976531,4.043550,2.418744,0.424665,4.702139,-1.087832,4.368572,1.098514,4.536729,-0.436262,4.780877,4.265114,-2.684561,-2.073580,-1.012146,-4.428388,-3.840602,-0.551927,1.219977,-4.383526,4.417707,3.656880,-0.835749,-2.488327,-0.777764,4.745781,-1.528520,4.624622,4.519333,3.734703,2.510300,2.556688,1.379589,-1.218146,-2.308573,4.423200,-1.587725,-4.802850,-0.328227,3.494827,0.086215,1.729637,0.745109,2.268593,-4.227271,4.682913,3.742332,2.022309,-2.674184,-3.571429,2.744987,1.923124,-1.989959,-0.124668,-4.072848,1.749474,0.585803,-4.543748,0.842158,-2.713858,-2.629322,2.200537,-2.542650,2.461165,0.083773,-0.551927,-0.736869,-2.721183,2.288125,0.771050,-2.246620,-4.378338,2.244789,-3.333079,0.601367,1.974700,-1.013977,-2.418744,-1.160772,1.135746,-0.572069,3.825648,3.353221,-0.016022,-0.672170,3.953215,-3.992889,-4.647206,-4.097262,-1.846217,-4.290750,-2.913755,4.920957,-1.769005,4.731132,0.327921,0.076144,0.721915,-4.407025,-3.886380,-2.535325,4.727775,3.831141,4.327982,2.967467,1.009400,-3.050172,-1.917325,-4.644154,3.919340,4.886776,3.589129,2.936644,2.724845,2.285379,4.576708,-3.462477,3.890347,-2.097690,-4.673757,-3.339488,0.877560,1.454970,1.380810,-2.398602,3.029420,3.220161,1.989959,-3.641011,0.096591,-3.296762,3.362377,-0.860164,3.974273,-0.315714,-3.226875,3.272347,4.202551,3.953520,0.605029,-2.654042,-1.193121,-0.944700,0.370952,-2.614673,-2.974181,0.344401,-4.208045,1.868191,-4.499802,-3.326060,-1.013062,3.408155,4.479659,-1.977447,2.837764,-0.092318,-4.388409,-1.623737,3.592181,2.997986,-2.123020,4.178442,-3.229926,-3.426466,3.229316,3.655354,0.431379,3.239998,-1.495254,-2.663198,4.866634,1.482437,-4.833674,-4.922483,2.782830,1.371044,3.440199,-0.103305,-0.967284,1.610920,2.408673,3.945891,3.964202,-4.243141,2.624439,-3.081606,-0.561998,0.396283,2.806940,2.213660,1.591693,3.119755,-2.819147,1.164739,-0.602588,3.088931,-4.975280,0.649281,3.087710,2.013764,-1.013367,4.387799,1.504410,-1.646626,3.732871,3.249153,2.437666,2.551500,1.491287,4.869991,-4.985961,-3.879971,-3.947111,-2.096469,-1.800745,2.381817,1.789453,1.212043,4.475692,1.686911,-0.743889,3.308969,2.759026,-1.085391,3.938871,2.372356,-0.384991,-3.929106,-0.294351,2.133091,2.840510,-2.201147,3.531755,3.956572,-3.531755,2.609485,3.053224,0.428022,1.262703,-2.351604,3.516190,0.754875,-0.236061,-0.188147,-4.316080,3.296152,-0.052950,1.019471,1.263619,-4.466231,-3.443861,0.461898,-2.587512,-3.198492,4.176305,1.635029,-3.107547,4.073153,1.107059,-3.032472,-4.572436,-3.863491,-1.899930,-2.136448,2.835932,-3.544877,1.020081,2.964415,-0.512558,0.034639,1.496170,2.445906,4.663076,4.605090,4.622791,1.165960,-1.635334,1.433912,-2.225257
-1.530961,3.149663,-3.921781,-0.401776,-2.534410,-2.457198,4.392682,3.238777,1.595660,-2.402264,4.101535,2.870418,1.288949,-1.839198,-2.747734,-2.409894,-1.461379,0.406964,3.859523,1.735130,2.193823,-2.791986,2.051607,-4.310892,1.789453,2.893612,-4.964293,-3.757286,2.723014,-1.029542,0.190893,0.561083,0.592517,2.361370,0.601672,2.832881,-2.494736,-2.275002,4.346904,-2.346416,-1.826075,0.422224,1.854457,-0.786004,-1.392102,1.686300,-3.365429,0.346232,-4.783319,2.566454,-0.293435,0.500046,-2.863704,-1.800134,3.024537,-3.293710,-0.412152,-1.018250,2.225562,-3.409986,1.087527,0.189367,4.003571,-2.501450,2.314371,-3.373669,-1.577349,0.803095,-0.549181,3.850978,1.490677,-4.558702,-0.189673,2.546312,-1.708884,-0.240638,2.559740,-2.401349,2.001556,-4.284036,2.353740,-1.553240,-0.903500,4.514756,-1.307566,2.260353,-3.938871,-2.277139,-1.187628,-3.485672,-2.084872,2.942137,-3.074282,2.521897,3.869289,-1.909085,-2.379070,-3.516190,0.422529,3.365429,-3.766137,-0.376446,-2.787103,4.934690,4.006928,3.962065,-4.066134,-0.559252,0.841853,-4.695425,-2.368084,3.360546,3.467666,-0.005341,-1.307566,-3.708457,1.826075,-3.001038,0.832392,2.228614,1.497085,1.889859,-4.592578,-2.110813,4.967040,4.280984,-2.650075,2.155980,-0.438093,-4.713736,-0.954466,-4.312418,4.849544,-3.440809,-0.534227,4.777825,-2.671743,-2.525254,-1.132694,-1.495560,-4.785455,2.023225,4.368877,3.253121,1.138798,1.967986,-3.281198,3.655049,-4.437239,-2.161168,3.570513,4.023713,-1.262398,4.320048,-0.431379,-0.665456,4.002655,1.592303,-1.430860,-0.177770,0.248878,-0.801874,-1.702475,-1.748558,-3.645589,3.986480,2.763298,3.928495,-4.597461,-1.297189,2.738273,2.509995,1.501358,2.786493,-0.383465,-4.321574,-2.989746,1.937468,2.963805,-0.257424,2.990967,-1.985992,-2.928709,-2.777337,0.692923,-4.172033,-3.173467,0.493027,-3.113651,-1.606647,-1.787622,1.531877,0.856502,-2.803888,3.747826,-3.149968,-4.131748,-0.953551,-1.818140,1.657002,2.919553,-3.924223,4.756157,2.328715,-0.413068,0.438398,-2.657399,1.236152,1.787927,0.286111,-1.223029,3.003479,1.261788,-1.427808,0.692618,-3.748436,-3.415784,1.251411,-4.828181,-0.107273,0.535142,-3.564714,3.528703,-1.960662,1.621601,1.070132,2.527390,2.589343,2.574084,-3.307138,3.361156,-2.454146,3.631245,0.836360,3.692892,4.144566,3.418836,-4.364299,-1.923429,0.835749,-4.760430,0.210425,-2.928709,-2.799615,1.588031,-1.626484,0.354778,-4.150975,4.695425,-1.761681,4.158605,1.373791,-4.072237,-4.719535,-1.671346,0.411847,1.842860,-4.578234,3.330027,1.887417,-0.284890,-0.308084,2.502060,1.490066,0.352947,-2.960143,-0.117344,-0.546129,1.007569,-3.152104,-1.088748,-4.299600,-3.803674,-2.281716,2.321696,1.407971,-0.754265,4.090243,-1.459243,1.066774,2.372051,-2.749870,4.901425,4.089328,-1.894131,2.305216,2.986389,0.028230,-0.117344,-2.333903,-3.587603,-3.524125,4.599597,-1.378063,-3.630940,3.697165,4.962157,1.554155,-4.777215,-4.933775,4.425947,0.356609,3.500931,-2.633595,2.550584,1.630757,0.565966,0.012970,3.573870,0.206458,4.295938,-2.731864,-3.977020,1.561480,0.078890,2.504196,-3.826868,2.696463,4.437239,-1.419263,3.165227,-1.970122,3.593402,3.397778,-1.403699,1.874599,2.289346,4.687185,-1.601764,4.059114,3.173162,3.103580,-0.191198,0.256203,2.062899,-2.318339,1.258126,3.581194,-0.596179,2.715690,-2.027192,-0.979492,3.228401,0.129551,1.120182,-2.741935,3.932157,-3.603473,3.296762,-0.544603,-3.819849,-1.926481,-1.823023,-0.447249,-1.746117,-4.990844,-2.862178,-4.347514,4.151585,-4.707938,0.664235,-2.952818,-1.245003,0.999023,-2.645497,-1.547136,1.377148,-1.193426,-1.663106,-1.985382,-2.001862,4.528184,-0.094150,0.641957,-2.491989,-4.360332,2.196875,3.239387,2.263710,0.857112,-3.295236,3.395032,-1.723838,0.823847,0.468001,-1.913358,-4.661855,-1.021302,-0.280923,3.972747,2.407453,-3.342540,0.825068,-4.176000,-1.447035,1.499832,1.323130,4.666433,4.785760,3.214362,-1.132389,2.190161,-2.925962,-4.225440,0.899228,2.992798,-4.131748,0.099948,2.848750,1.216315,2.440107,-3.712119,-2.310709,3.140507,-2.651296,-0.539109,4.649648,2.296365,1.352733,-1.713157,-0.103305,-1.336863,4.071017,0.240944,-2.992187,-1.492813,0.714591,2.664724,0.037385,-3.572039,2.193823,3.691061,-3.006531,-3.821986,-1.081118,2.093112,-3.459120,1.808374,3.604694,0.124058,-4.265114,-4.287088,3.388928,-1.595050,1.604511,-4.870296,-3.416089,-3.073672,4.396344,3.659017,4.365825,1.227607,-4.709464,-0.634327,2.719047,-2.187719,-3.597064,-3.973357,4.948729,-2.134617,-4.118015,-0.917234,0.068209,3.333995,-4.080172,2.862484,-2.616810,4.432661,-3.517716,0.635853,2.574694,2.638478,2.576830,4.066134,-4.399091,-1.764428,-2.133702,3.613849,-4.269997,-3.525346,2.444380,-3.536637,4.009064,1.406751,-2.417524,3.533280,-1.509293,1.454054,-4.737846,2.125462,2.527390,-4.213843,-4.694510,-4.213538,1.439100,-4.445479,-2.085177,-2.061983,-2.120884,-0.944395,4.436628,0.835139,1.198614,4.881588,4.157689,-3.576006,1.129948,2.120579,-0.045930,0.655080,1.098819,1.673482,0.593738,-2.187414,1.476638,-2.257607,2.517624,-3.567766,-1.912137,3.561357,-1.098514,3.358409,-3.714866,0.423444,-1.181829,-2.490768,-4.101535,4.075900,4.309366,-0.085910,-2.618030,-2.462996,-1.820887,1.578570,4.459822,4.404584,0.323954,-4.251076,3.591266,1.712241,-4.591052,-3.870815,-4.437239,-3.599200,-0.293741,-2.379681,-0.475936,4.466231,-0.097201,1.141240,4.774773,-3.158818,1.697287,-0.906858,0.619068,1.086001,0.992004,3.032472,-0.398724,2.932981,-4.504379,0.110630,4.429609,-3.236335,-0.451216,-0.149083,3.903470,-0.928526,-0.015717,-2.185888,-1.837367,3.976409,-4.164403,-2.275613,-1.441237,4.850154,-0.294351,-1.385693,2.471236,1.120792,3.607440,-1.448561,-1.622517,4.314554,-2.910092,1.510514,1.488845,2.396161,0.462813,-1.050295,-4.735099,-3.525651,0.930052,2.661672,-0.878780,-1.064638,4.446699,0.449995,-2.362590,-2.941221,1.110111,1.206244,1.585894,1.190374,-3.099918,0.941038,-3.915067,1.524247,-0.420698,-3.666646,-3.801233,2.562792,1.563921,-2.633595,-4.714652,-0.686819,-2.418134,-4.397870,-3.584246,4.287088,-0.071871,-0.331278,2.169103,-0.638905,-0.869625,4.512314,3.120670,1.564531,2.835627,-4.015168,0.332499,-3.145085,0.734428,-2.675710,2.163305,0.945006,-1.668600,-0.908078,0.702689,1.241340,-2.623524,-0.869625,-1.849269,-1.039918,-4.233375,4.102451,-1.549577,-4.517808,4.738151,-0.825678,4.485153,2.006134,-3.851588,-2.591784,-3.844264,-3.434400,-2.322916,-4.578845,-0.348064,-2.524339,-1.258126,-3.121586,3.221381,-2.738578,4.954222,0.379498,-0.239113,-3.857082,3.921476,3.303171,1.534928,-0.869930,0.208594,-1.830653,-2.666555,-4.205908,2.273476,3.087710,-2.613453,-3.220466,-0.814081,2.843867,-3.656880,-3.888211,-0.053560,2.200232,-0.369732,3.374279,3.213446,-2.040620,3.503372,4.806207,0.253456,1.365856,4.099094,-2.607959,-1.072268,-2.603992,-4.193091,4.999695,1.523637,2.511826,4.268471,0.632496,4.250465,-2.572558,4.316080,3.858608,1.203192,-3.536943,-1.829432,-2.525254,0.615406,0.041353,4.200110,2.476119,-3.792993,1.888638,1.559648,-4.615772,1.444899,-2.490158,1.024659,-2.994629,-0.478378,-4.506516,-2.676321,-3.327280,-3.124027,-1.789758,3.292184,1.042665,3.055055,3.468886,1.151006,1.503189,4.738456,3.694418,1.229438,-0.741447,-3.261971,4.183325,3.441420,2.150487,-2.221290,-2.990967,1.826991,2.282937,3.878750,2.130345,-2.526475,-1.492813,-2.860652,2.268593,0.128636,2.836238,2.759941,3.122501,3.816187,4.842524,2.083346,-4.529405,-3.230232,3.112430,4.494003,0.737480,0.994140,-2.191076,-4.027985,-3.428297,1.767785,3.413343,-2.877132,4.013642,2.401044,-4.298074,-1.508683,2.802973,4.559008,2.029023,-4.029511,-3.605609,-0.535752,-1.034120
