-0.227103;-0.375759;-0.184805;-0.260643;-0.21981;-0.194723;0.0250099;-0.232475;-0.025132;-0.372433;-0.393399;0.0744499;0.307123;-0.352504;0.170797;0.488556;-0.190573;-0.286828;-0.164266;0.167287;-0.0270241;-0.0388043;-0.137776;-0.182638;-0.28869;0.0496078;-0.420804;0.0420087;-0.0562304;-0.46643;-0.117756;-0.028489;0.328761;-0.210196;0.0851009;-0.16686;0.179067;0.396084;0.406095;-0.383145;0.0898618;0.372066;-0.129292;0.492828;0.310907;0.187704;-0.0887631;0.137196;0.394101;-0.0543992;0.445128;-0.377438;0.147725;-0.356777;-0.287225;0.0287332;0.428617;-0.0783563;-0.343104;0.430662;-0.196707;0.206687;0.123493;0.419614;-0.390255;-0.351039;-0.333216;-0.186209;0.450591;-0.230735;0.238914;-0.285516;-0.350703;0.214713;-0.454741;-0.435575;-0.299432;-0.466979;0.347621;0.364071;0.246025;0.370266;0.4953;-0.297388;-0.393582;-0.00111393;-0.0336161;-0.240471;0.402066;-0.418058;-0.300104;-0.0668813;0.292077;0.0800043;-0.499817;0.25222;0.364223;0.206839;-0.2051;0.227439
0.206351;0.340114;-0.472411;0.298029;0.190573;-0.206473;-0.0334635;-0.469237;0.00184637;0.356594;-0.289361;-0.273003;-0.0583361;-0.492096;-0.325953;-0.40582;0.0387432;0.209037;0.330287;0.137959;0.497101;-0.315943;-0.00248726;-0.0684988;-0.486236;0.0923643;0.446287;0.417814;-0.00328074;0.499817;-0.389676;-0.09859;0.214194;0.0551012;-0.317438;0.386227;-0.0927;-0.222373;0.376919;-0.0854671;-0.103473;-0.137288;-0.362728;-0.434843;-0.286309;-0.089404;-0.424619;-0.234733;0.290643;-0.0141453;-0.081988;0.0734123;0.235466;-0.0872066;-0.254692;0.0891293;-0.271538;-0.28634;-0.198202;-0.353938;-0.431974;-0.404538;0.160176;-0.0555589;0.39819;0.392087;-0.479522;-0.220908;-0.350703;-0.132466;-0.0749382;-0.480346;0.2228;-0.213004;0.170766;-0.00114444;0.451048;0.161519;-0.300439;-0.0348064;0.364284;-0.427274;0.249321;0.256584;-0.204855;-0.0157323;0.0450911;0.350581;0.352412;-0.0548265;-0.186941;0.448088;-0.204825;-0.407254;0.397794;-0.253624;-0.161367;0.360042;0.264245;0.0580309
-0.0772881;-0.20513;-0.33404;0.431394;-0.0249794;0.396329;-0.239494;-0.0702994;-0.301172;-0.124836;0.453063;0.224448;0.41818;-0.255638;0.250267;0.159413;0.010361;-0.354305;-0.0950804;-0.0583056;-0.0419172;0.31933;0.13271;0.116016;0.0514695;-0.378262;0.182791;-0.0216224;-0.227897;0.499329;-0.45706;-0.414487;-0.110126;0.322596;-0.439238;0.016129;0.303858;0.488739;0.262261;0.0405744;-0.341517;-0.302667;0.148579;-0.145222;-0.233055;-0.193381;0.253136;0.03502;0.371639;-0.324274;0.239097;0.369533;0.274285;-0.100146;-0.180471;-0.276635;0.366451;-0.156148;0.281091;-0.407193;-0.408567;-0.118641;0.392056;-0.494629;0.369411;0.244896;0.476959;-0.0783563;-0.483886;0.393643;-0.0620594;-0.204398;0.187735;0.305048;0.00514237;0.449248;-0.118397;-0.403317;-0.00361644;-0.08211;0.0256203;-0.115833;-0.131855;0.422422;0.185965;0.281732;0.338679;0.124897;0.425871;0.451689;0.364772;-0.176626;-0.154256;0.109027;0.253197;-0.257347;-0.163869;0.387234;0.188101;0.0768303
0.0750298;-0.0284585;0.45584;0.440123;-0.199606;0.406491;0.14803;-0.117908;0.38934;0.483001;-0.375149;-0.37637;-0.224662;0.112079;-0.481109;0.169973;-0.265587;-0.408841;-0.438597;-0.0434431;-0.42819;-0.330897;0.0122227;0.184896;0.240257;0.31634;-0.0257424;0.00364696;0.421171;-0.393765;0.374233;-0.308069;-0.400082;-0.385647;-0.109668;0.000747703;-0.333308;-0.258812;-0.391324;0.308832;0.0735649;0.365139;-0.310419;-0.250755;0.0800348;0.231742;-0.175558;-0.0370342;0.117176;0.485656;-0.234642;-0.364406;-0.197439;-0.248711;-0.291986;0.47354;-0.363399;0.168569;-0.190573;-0.224113;-0.0881222;-0.210074;-0.378506;0.258385;-0.133534;0.245201;-0.277825;0.285333;-0.38699;0.0799432;0.324915;0.166219;-0.125996;-0.325983;0.147786;-0.327174;0.0551622;0.146718;0.324061;0.433561;-0.312037;0.15389;-0.365658;0.36053;-0.227348;-0.0154271;-0.156911;-0.233329;0.0526292;-0.137806;0.419095;0.328211;-0.248161;-0.142567;0.42233;-0.451109;-0.193472;0.318354;-0.161641;-0.116993
0.122089;0.224662;0.140614;0.172292;-0.113422;0.371914;0.363033;-0.446135;0.472442;-0.208151;0.463286;0.494995;-0.0431684;0.315882;0.258507;0.111042;-0.207114;-0.31341;-0.285455;0.423032;-0.337672;0.125111;-0.130146;-0.289392;0.0409406;-0.240776;0.175405;-0.382595;-0.49176;-0.180563;-0.467986;0.164144;0.332759;0.00868252;-0.193899;0.32635;0.363552;-0.0479293;0.10509;0.333033;-0.240165;0.133229;-0.406095;0.341914;-0.410031;0.2228;0.134114;-0.351863;-0.169698;0.206229;-0.474303;0.0823847;-0.203909;0.216269;-0.365352;-0.245567;-0.464782;0.476989;0.18569;-0.200827;0.215995;0.265343;-0.497284;0.280328;0.0402081;0.296472;-0.0221107;-0.091174;-0.286737;0.439299;-0.450072;-0.267846;0.00163274;0.168111;-0.0259255;0.450133;0.40997;-0.34286;0.163778;-0.4859;-0.491821;-0.0764031;0.386258;-0.33404;-0.0595264;-0.0740226;-0.407346;0.0722526;-0.35287;0.0236366;-0.335719;-0.289392;0.330409;-0.295923;-0.14391;0.164388;-0.304132;-0.0162206;0.21865;0.481597
-0.499512;0.389401;0.279931;0.25454;-0.0617237;-0.0749077;-0.231956;-0.423307;0.395535;-0.0673696;-0.343654;0.0323649;0.106067;0.250084;0.312037;0.376125;-0.261711;-0.424253;0.029252;0.0577868;0.445219;0.443419;-0.271294;0.249443;0.408383;-0.284967;0.104144;-0.469512;0.407437;-0.0023957;-0.00257881;-0.112415;0.446165;-0.110462;0.283532;0.18453;-0.0334941;0.463988;0.0463424;-0.240043;-0.318323;-0.105762;0.32693;0.307672;-0.440275;-0.3717;0.22512;-0.303491;-0.0113681;0.0183874;-0.363948;-0.113849;-0.345698;-0.188314;0.402615;-0.405423;0.163045;0.408841;0.165059;-0.125996;-0.0612354;0.296228;-0.310541;0.251091;0.427488;-0.441832;-0.0444502;-0.412198;0.139302;-0.124165;-0.214194;0.319544;-0.440306;-0.0818354;0.296838;0.226035;0.461272;-0.467833;-0.0460677;0.392056;-0.353236;-0.362056;-0.488983;-0.486419;-0.344447;0.235191;-0.384091;0.20629;0.463805;0.427305;0.363338;0.471526;-0.289972;-0.130909;-0.423795;-0.0223548;0.477874;-0.455046;0.0970031;0.311335
0.165853;0.282983;-0.130512;-0.143788;0.477111;-0.0880917;0.0936155;0.454649;0.058916;0.466796;0.233116;-0.491211;-0.17568;0.349696;0.158284;-0.322291;0.486328;-0.148122;0.204825;-0.174032;0.336238;-0.056505;0.429655;0.380886;-0.202322;-0.262993;-0.15453;-0.245994;-0.212973;-0.469237;-0.0848567;-0.0167699;0.411679;-0.161031;0.0867183;0.252098;0.0375835;0.314203;-0.348842;0.442045;0.257225;-0.0315104;-0.296564;0.374264;-0.210898;-0.399899;0.48822;-0.102741;-0.159841;-0.169088;-0.0882748;0.476379;-0.0377361;-0.338191;-0.499054;0.441252;-0.0656301;-0.0480514;-0.408811;-0.451811;-0.299066;-0.27224;0.0235145;0.0129856;-0.10152;-0.271355;0.132984;-0.329524;0.00120548;0.0949583;0.309565;0.417936;-0.382992;-0.395016;-0.087878;-0.403012;-0.0348064;0.367061;-0.182516;0.47235;0.0669424;0.372738;0.385342;0.461425;-0.319971;-0.18218;0.120502;0.272912;-0.490997;-0.402829;-0.186331;-0.390561;-0.278222;-0.120594;0.441923;-0.408811;0.304285;0.16805;-0.389828;-0.443999
0.284234;-0.244591;-0.184866;0.393307;0.355312;-0.0249184;0.312494;0.0669424;-0.0670949;0.159505;-0.131001;0.484222;0.172781;-0.290979;0.180593;0.366329;-0.016068;0.178396;0.237754;0.27752;-0.433226;-0.21279;0.41937;0.468352;-0.492035;0.260277;-0.403684;-0.310175;-0.0367595;0.404508;0.0262917;-0.365566;-0.040849;0.32812;0.32049;0.16036;0.345393;-0.29104;0.264183;-0.0447859;0.4288;0.0178076;-0.228111;-0.204581;-0.179983;0.102741;-0.241356;0.0575426;-0.475433;0.041612;0.208396;-0.362087;-0.190939;-0.33224;0.221;-0.0633717;-0.125721;-0.323664;0.319056;0.0620594;-0.134083;-0.283471;-0.204337;-0.0871151;0.254723;0.376675;0.384426;0.292657;0.11681;0.467986;0.0330058;-0.285791;0.345698;-0.486602;0.0615711;0.0497909;0.327296;-0.151936;0.486969;-0.317194;0.108844;0.236808;-0.205618;0.318293;-0.40643;0.41586;-0.0624256;0.107288;-0.208426;0.464751;-0.151387;0.242332;-0.341029;0.414029;0.238853;-0.320307;-0.444029;-0.00386059;-0.0279397;0.144887
-0.144642;-0.0552843;-0.208823;0.0775933;-0.267296;-0.250847;-0.320307;-0.327692;-0.330592;0.27047;-0.360805;-0.328974;-0.300104;0.124561;0.163991;0.0638905;-0.0658132;0.239769;0.194388;0.35461;0.387112;0.493866;-0.170217;-0.453764;-0.354579;-0.162038;-0.417386;-0.495605;0.404172;-0.187307;0.454711;-0.146962;0.403073;-0.136891;-0.383023;0.0602283;-0.204917;0.359096;-0.0258339;-0.130634;0.477508;-0.273431;0.395322;-0.267541;0.417112;-0.403226;-0.108386;0.401425;-0.498932;0.378964;-0.477142;0.334101;-0.0557115;0.163381;0.313593;0.0708182;-0.215506;0.360744;-0.039903;0.237907;0.496796;-0.0161901;-0.390011;0.334376;0.258263;-0.0217139;0.495117;-0.0417035;-0.105518;-0.491546;-0.300867;-0.371517;0.0388958;-0.395627;-0.158559;-0.141499;-0.463927;0.0764946;-0.0420087;-0.361354;-0.37936;0.104175;0.360836;-0.0174718;-0.0971862;0.404233;-0.242698;-0.305872;-0.308344;0.385891;0.41055;0.0121921;-0.312403;0.198233;-0.378292;0.287347;-0.424589;0.0765862;0.31637;0.349147
-0.451323;-0.10622;0.0149998;-0.281579;0.297235;0.323054;-0.0299234;0.321924;0.488739;-0.481903;-0.249901;-0.135212;0.275628;-0.282556;0.0521714;-0.482055;-0.141316;-0.321497;0.0244606;0.0757012;-0.361385;0.348201;-0.120502;0.240684;-0.0133824;-0.324091;0.0800043;0.191733;0.165395;-0.0243385;-0.12212;0.0914182;0.431761;-0.257103;0.488403;-0.310755;-0.147664;0.333033;-0.320154;-0.32342;-0.136799;0.407163;0.0611438;-0.049852;0.104846;-0.447996;-0.152791;0.439604;-0.435972;-0.0203101;0.384823;-0.343867;-0.446623;-0.286279;0.218833;-0.382138;-0.439879;0.168081;-0.0188452;0.308466;0.495178;-0.475646;-0.116932;0.325068;0.37402;-0.185202;0.0922117;-0.127735;-0.0396588;0.115986;-0.224296;-0.24221;0.403867;-0.239463;0.0905637;-0.453673;0.403531;-0.027604;-0.0975524;-0.472015;-0.0726493;-0.167623;-0.485595;-0.342616;0.0202185;-0.020127;0.186544;0.119678;-0.269402;-0.0428327;-0.27224;-0.320215;-0.311914;-0.397153;-0.0584887;0.47116;0.362056;0.399808;0.205649;0.380062
-0.46646;0.184896;-0.0311441;-0.318049;0.0113376;0.126331;0.444121;0.0861995;0.123066;0.374355;0.280572;-0.15511;0.0133213;0.292535;0.495544;0.0826289;0.279504;-0.324915;0.446959;0.00312815;-0.0231788;-0.143025;0.128712;0.129261;-0.476348;0.122486;-0.430937;0.232139;-0.461333;0.319391;-0.385952;0.106342;0.140645;0.0839412;-0.12331;-0.153218;-0.257469;-0.416166;0.133686;-0.216117;-0.128864;0.184835;-0.0493942;-0.266655;0.0428938;-0.0527512;-0.18334;-0.283776;0.22805;0.35931;-0.429411;-0.193442;-0.0662099;0.212424;0.399045;0.261528;0.437712;0.025895;0.187918;-0.408383;0.202994;-0.0736564;-0.490905;-0.273797;0.00639363;0.388546;0.0229041;-0.0687735;-0.189413;-0.256279;-0.422422;-0.365261;-0.0883358;-0.137867;-0.21218;-0.182424;0.393246;-0.0850093;0.372616;0.123951;0.418821;-0.376522;0.0343486;0.349574;0.392788;-0.100299;0.160085;0.462615;-0.477783;0.286981;0.126362;-0.185507;-0.189749;0.104785;0.488739;-0.30401;0.011948;-0.29461;-0.162587;-0.104541
-0.415128;-0.25219;-0.399808;0.415403;0.164785;-0.104266;-0.426359;0.00315867;-0.402158;-0.154592;0.464415;-0.347316;0.0609912;0.0899838;0.221213;-0.267052;0.301263;0.32635;0.439482;-0.100238;-0.474456;-0.0891903;-0.380978;0.446959;-0.0279092;0.26989;-0.442991;0.253197;-0.305353;-0.32757;-0.343562;-0.0189978;-0.408994;0.269189;0.43231;-0.31634;0.206931;-0.193594;-0.00410474;0.476836;0.3464;-0.0806146;-0.200705;0.430601;0.0200964;0.412381;0.42053;0.338832;-0.236961;0.431028;-0.329005;-0.478545;-0.147786;-0.0662099;-0.193167;0.31634;0.456328;0.368282;0.124409;0.416654;0.2481;-0.0411237;-0.277612;-0.289453;-0.489105;-0.487823;-0.289209;-0.221274;0.270775;0.146138;-0.351497;-0.29342;0.484832;-0.150899;0.490875;0.367092;-0.18215;0.275475;-0.172201;-0.169515;0.0381024;-0.316248;-0.305231;0.0574206;-0.43704;0.423612;-0.263176;-0.468719;0.187002;-0.122333;0.00755333;-0.0136265;-0.477844;0.26513;0.183981;-0.111988;0.18273;0.212455;0.478942;-0.179128
0.245231;0.498199;0.031785;0.44174;0.015305;-0.122059;0.0587939;0.152852;-0.367763;0.395322;-0.455138;0.152547;-0.457305;0.0857112;-0.242851;0.0186621;0.374935;0.479034;0.362484;0.48175;0.244469;-0.192892;0.42935;-0.456328;0.0229347;0.322901;0.0960875;-0.401395;-0.399258;-0.363277;0.186178;-0.288263;-0.324549;0.477081;-0.447844;-0.287255;0.0963622;-0.219413;0.429228;0.259819;0.29751;-0.480804;-0.420225;-0.469207;-0.150655;0.169393;-0.489319;-0.302606;-0.33871;0.230277;-0.456725;-0.161214;-0.134754;-0.303095;0.0189062;0.451109;-0.0872372;-0.104907;0.419919;0.208823;-0.0842769;-0.416776;-0.311792;0.134205;-0.237144;-0.271508;-0.477599;-0.168569;0.0426191;-0.137074;-0.0656911;-0.0588244;0.304071;0.42581;-0.153127;0.472411;-0.313166;-0.00148015;0.0142369;0.167135;0.451659;-0.161336;0.0452132;-0.445158;0.442228;-0.381405;-0.188345;-0.147542;0.0102695;-0.224052;0.0228736;0.366359;0.434507;0.381252;0.247063;-0.44763;0.365139;-0.0704825;0.161519;0.390805
0.325098;-0.0378582;0.312677;0.231315;-0.201315;-0.0752129;0.166677;-0.234428;-0.0598621;0.16805;-0.267144;0.282586;0.431822;0.496857;-0.459685;-0.136433;-0.475555;0.174947;0.24929;-0.327204;-0.209738;-0.209098;-0.321314;0.000106815;-0.379849;-0.108631;-0.469176;0.2116;-0.00379955;-0.211661;-0.405271;0.265099;-0.429106;0.446654;-0.290979;-0.0540635;-0.415647;-0.142659;0.265984;0.47998;-0.349452;-0.195791;-0.462065;-0.320276;-0.0561998;0.428709;-0.392972;0.279839;-0.182791;0.5;0.179647;-0.381588;0.383938;-0.203391;0.0672781;0.320338;0.0921506;-0.494568;-0.385922;0.138508;-0.173849;0.0445112;-0.146443;-0.390164;-0.436491;0.216056;-0.325587;-0.318079;0.120319;0.0957213;-0.222129;-0.0335856;0.0155492;-0.435514;-0.292962;-0.224174;-0.0141148;-0.110645;-0.270104;-0.400235;0.18215;0.258995;-0.143086;0.17687;-0.421476;-0.318964;-0.225211;-0.181509;-0.373928;0.146565;-0.0224769;0.140919;-0.318506;0.468749;-0.124256;-0.138173;0.242698;-0.29873;0.166158;-0.182485
-0.477996;-0.456542;0.241661;-0.143056;0.388913;-0.362423;-0.0759758;-0.230644;0.212638;0.165181;0.29986;-0.0991699;-0.362972;-0.351497;-0.0585192;-0.383084;-0.182272;0.363369;0.293725;0.267296;0.153859;0.269127;-0.491974;-0.192007;0.0448775;-0.136952;-0.494781;-0.260918;-0.295709;-0.135456;-0.45233;-0.487945;-0.438841;0.135456;0.102863;0.0649586;0.280602;-0.256554;0.278954;-0.359951;-0.0651723;-0.426237;-0.386013;-0.458434;0.355953;0.396359;0.5;-0.0113071;0.201376;-0.205985;0.0226905;-0.279382;-0.236442;-0.141346;0.498932;-0.489929;0.0551622;0.0607166;0.49234;0.240837;0.200613;0.199179;-0.41113;-0.293695;-0.334193;-0.162282;-0.286676;-0.215018;0.35696;0.133381;0.268151;0.148915;0.119526;0.46411;-0.124348;0.161946;-0.330805;-0.238517;0.00532548;0.123402;0.485565;-0.0453047;0.266655;-0.486236;-0.300348;0.432035;-0.350429;0.398801;-0.492462;-0.073809;0.49353;-0.352382;0.140004;-0.270104;0.465697;0.12215;-0.0798822;-0.352443;0.331111;0.492889
0.440428;-0.410276;-0.205802;-0.161824;0.389981;0.216208;0.19451;-0.316919;0.0634022;-0.465789;0.336695;-0.36639;0.0825983;-0.141652;0.236808;0.263176;0.362728;0.0373394;0.0657826;0.406949;-0.146535;0.355251;0.0714896;-0.47882;0.0872066;0.0125584;-0.239586;0.262749;0.0645924;-0.40643;0.120472;-0.0543382;-0.490234;0.426328;0.166005;0.0312967;0.0257729;0.241478;-0.413602;0.307398;0.181356;0.0361492;-0.220573;-0.0868099;0.0611438;-0.450835;0.0505234;-0.133503;0.309656;0.25396;0.259453;0.248711;0.200583;0.274926;-0.304712;-0.295404;-0.236869;0.134388;0.461608;0.412534;0.495941;-0.264458;0.152028;0.181753;-0.299951;0.488098;0.09859;-0.166982;-0.0373394;-0.0174413;-0.0265664;-0.481567;-0.177877;0.119953;0.0252235;0.137104;0.146046;0.102588;-0.268426;-0.497314;0.253563;0.192434;0.148793;0.419431;0.312769;-0.356624;-0.259819;0.322108;0.0450606;-0.286279;-0.0359966;-0.36285;0.267174;0.164571;0.402524;-0.479339;0.302515;0.151265;-0.286706;0.129383
-0.207297;-0.0866878;0.184011;0.081225;-0.058977;0.169759;0.171987;0.261711;-0.28161;-0.374722;0.20983;-0.367977;0.0638905;0.494629;0.0582751;0.1957;-0.389767;0.450255;0.487609;-0.220847;-0.0336467;-0.0997497;0.0686514;-0.216422;0.0874813;0.00294504;-0.244926;-0.436735;-0.235405;0.323298;-0.462249;-0.412442;-0.235801;-0.461089;-0.0472884;0.0418256;-0.350368;0.100757;-0.276177;0.0244911;-0.184439;0.255211;0.321497;-0.00407422;-0.233757;0.333674;-0.281365;-0.36462;0.169393;-0.283868;0.125324;-0.237388;-0.283258;0.374935;-0.0171972;0.47998;0.322382;0.404233;-0.00105289;0.191641;-0.30987;0.4429;-0.494232;-0.343959;-0.218345;0.395688;-0.0795465;-0.272393;0.215812;0.359584;-0.408841;-0.055681;0.131153;0.16155;-0.191031;-0.382931;-0.457518;0.413846;0.266839;-0.422361;-0.277123;0.493194;-0.252678;0.240471;-0.357814;0.349818;0.320002;0.135731;-0.00642415;-0.446806;-0.170278;-0.430937;-0.160848;0.480071;-0.0425581;-0.435392;0.405942;0.0512558;-0.365688;-0.252709
0.0635853;-0.0760674;0.0906858;0.321223;0.0149693;-0.45529;0.321009;-0.200522;-0.269219;-0.029191;0.246086;-0.357234;-0.340358;-0.135456;0.353908;0.461974;0.244896;-0.431608;0.100024;-0.0584582;-0.220939;-0.33401;-0.150807;0.140187;0.127827;-0.0639821;-0.360897;0.324244;-0.146016;0.104541;-0.45233;-0.00926237;-0.226707;0.302881;-0.0547655;0.236442;0.473174;-0.363552;0.412442;0.128285;-0.17449;-0.228629;-0.394192;0.232414;0.0248573;-0.0552538;-0.148518;-0.042375;0.183248;0.305292;-0.251122;-0.130634;0.0130772;-0.0100864;-0.434599;-0.369198;-0.371273;-0.156789;-0.296655;-0.272912;-0.000839259;0.185629;0.020188;-0.370937;0.0814997;-0.463317;0.28399;-0.447417;0.168081;-0.300348;-0.455504;0.46997;0.477294;0.113636;-0.298242;-0.470611;-0.480132;-0.120411;0.0528428;-0.460784;0.272027;0.366451;0.0988647;-0.327692;-0.313959;-0.196524;0.392727;0.0479904;-0.42938;-0.234611;-0.291009;0.346767;0.370998;-0.044084;0.317652;0.114704;-0.118976;0.196951;-0.357662;-0.0865352
0.418332;0.0285501;0.0846736;-0.0277871;0.493042;-0.173055;0.295892;0.497925;-0.497589;-0.154012;-0.323054;0.299799;0.482116;0.0889767;0.388516;-0.115162;0.444761;0.416562;-0.348384;-0.319941;0.338496;-0.202506;-0.378872;-0.462096;0.155263;0.108051;-0.387753;0.181295;0.221;0.38638;-0.0380718;-0.255913;0.198752;-0.0514389;0.306543;0.0640431;-0.164174;0.271935;-0.443602;-0.116779;-0.013596;0.0522629;0.349116;-0.386441;-0.0592822;0.341304;0.262566;-0.177358;-0.407865;0.170156;-0.431028;0.0966674;0.473601;-0.434233;-0.188864;0.436583;0.193991;0.365871;-0.0176855;-0.156331;0.306635;-0.260979;-0.409299;0.250786;0.140431;-0.183645;0.390103;0.455596;-0.374905;0.340388;0.0577868;0.212027;-0.358028;-0.262108;-0.399258;0.136097;-0.0686819;-0.476928;-0.227958;-0.417417;0.0874813;0.436644;0.277795;0.148549;-0.326563;0.227714;0.0565661;-0.0400555;-0.0145116;0.484497;0.412503;0.398038;0.499603;0.420194;0.282769;0.421079;-0.469237;0.0199133;0.421537;0.138356
0.136494;0.455443;-0.219291;-0.207877;-0.204428;0.173666;-0.130329;-0.195853;-0.106433;-0.434751;0.374294;0.0429243;-0.453795;-0.380459;-0.182608;-0.0321512;-0.208182;0.471984;-0.458739;-0.193472;-0.315699;0.250359;-0.206381;0.421751;0.317682;0.126392;0.198538;0.0237587;0.313349;-0.0216224;0.393216;0.385006;-0.198141;-0.428617;0.112201;-0.287378;0.429868;-0.338496;0.499817;-0.164296;0.42349;-0.0700552;-0.0672475;-0.136982;0.240074;0.153706;0.133351;-0.0321207;-0.161275;-0.481475;-0.144704;0.456114;0.101245;0.481017;-0.0771661;-0.226524;0.434935;0.0854366;-0.0953551;-0.39111;0.0879696;0.142232;0.203879;-0.250481;0.209342;0.17391;-0.154622;-0.156056;0.183706;-0.4653;-0.258568;-0.269951;0.273186;-0.389431;-0.282769;0.483551;0.0970641;-0.494842;0.0774712;-0.156819;-0.0196081;0.118671;-0.00492874;0.169576;-0.296686;0.0254067;-0.49649;-0.406919;-0.318323;0.0563219;0.37402;-0.492187;0.110828;-0.00685141;-0.341548;0.0671255;0.103351;0.279778;0.17983;-0.162343
0.352321;0.157796;-0.248924;0.267754;0.351161;0.131794;0.403806;0.126453;-0.298639;0.171255;0.407804;-0.430357;-0.460631;-0.445189;0.363094;-0.0107883;-0.386166;-0.236412;0.145283;0.301782;0.0445418;0.32934;-0.0142064;-0.166982;0.294244;0.0440535;0.468108;0.454253;0.384487;0.437132;-0.278863;0.126637;-0.112903;-0.0735038;-0.408597;-0.489532;-0.277917;-0.450499;0.0746635;-0.2051;0.293512;-0.319483;-0.211386;0.404355;-0.00560015;-0.35931;-0.231773;-0.261467;-0.387692;-0.392972;0.363979;-0.39816;-0.333705;-0.273949;-0.474639;0.478332;0.206778;-0.160878;0.250267;0.308557;0.109638;-0.274712;0.481384;-0.0750603;0.395749;0.267815;0.231498;-0.19866;-0.393063;0.450896;0.218375;0.273339;-0.22985;-0.407224;-0.209464;-0.114429;-0.0195166;-0.27871;0.425596;0.0222327;0.134571;0.498321;-0.418271;0.47705;-0.153951;-0.400815;0.184408;0.118793;0.0733207;-0.0461592;-0.471404;0.309076;0.491974;-0.24514;-0.121326;0.228019;0.142109;-0.360012;-0.453459;-0.235435
0.3829;-0.0456709;-0.270318;0.1274;-0.315638;0.499145;-0.109668;-0.167074;0.288873;-0.327204;-0.0435347;0.226341;0.272637;0.411283;0.126942;0.19219;0.039079;-0.167135;-0.439207;0.210685;-0.225028;-0.00511185;-0.2669;0.415983;-0.0992004;-0.332301;-0.262444;-0.187582;0.0464339;-0.467467;0.318049;0.305658;-0.416593;-0.29049;-0.0903195;-0.295984;0.245323;0.021836;0.471068;0.347255;-0.132893;-0.0972777;0.388516;-0.481994;-0.225211;0.3511;0.234184;0.29342;-0.143025;-0.157735;-0.341304;-0.00840785;-0.150899;-0.399838;0.199911;-0.129292;-0.138142;0.136891;0.28872;0.236076;-0.314936;0.466247;0.233757;-0.388607;-0.101825;-0.10268;0.465606;0.131397;0.318537;-0.185507;-0.177999;-0.189413;-0.181082;0.349788;0.155507;-0.154164;0.0456099;0.354152;0.0443281;-0.391842;0.0675832;-0.425993;-0.111499;0.480316;0.489288;0.438932;0.171438;0.196005;0.0569628;0.366787;0.169088;-0.162008;0.290735;-0.00697348;-0.112354;0.149831;0.173147;0.229942;-0.489044;0.318934
0.425657;-0.438078;0.138783;-0.113697;0.404355;0.483917;0.0975524;-0.0605335;0.145833;0.488037;-0.395474;0.245079;-0.405057;-0.494171;0.0668813;0.476836;-0.454619;0.211539;-0.203635;0.195822;0.324274;0.0929441;0.421903;-0.261406;-0.247703;-0.303797;-0.219993;-0.329829;0.410489;-0.0492721;-0.434446;-0.0426801;-0.255272;-0.0198218;-0.476867;-0.481048;0.0396283;0.30636;0.460997;0.309961;-0.20748;-0.148366;-0.131825;-0.406003;-0.48059;-0.353236;0.416715;-0.437498;-0.476501;-0.350276;0.129688;-0.0446944;-0.341853;-0.417753;0.496643;-0.160512;-0.385067;0.190298;0.317316;0.202994;-0.231315;-0.165609;-0.444609;-0.481567;0.110004;-0.183432;-0.0168004;-0.0655995;0.297296;0.349574;-0.101581;0.249504;0.359004;-0.424924;-0.3052;0.326136;0.0775323;-0.462889;-0.43289;0.0999023;-0.413999;-0.483551;0.132527;-0.159047;0.209281;-0.367214;0.248985;-0.176443;0.0801263;0.120991;-0.187735;0.0600146;-0.43759;0.186819;-0.187246;0.255516;0.011887;-0.150349;0.433195;-0.360317
-0.0939207;-0.322718;0.468719;-0.168416;-0.125233;-0.180227;-0.149648;0.393826;-0.337886;0.248436;-0.44644;0.23278;-0.448515;-0.394131;-0.327692;-0.499542;0.284478;-0.426084;-0.0590991;0.154866;0.00544755;0.165334;0.483917;-0.165731;0.262688;-0.154836;0.0761895;0.202963;-0.402829;-0.110736;-0.306299;0.423215;-0.249016;-0.115528;-0.363155;-0.0890378;0.0256508;-0.221671;0.00691244;0.0307169;-0.177694;0.38345;-0.182363;-0.113819;-0.105213;-0.256584;-0.477233;-0.137165;0.346919;0.266259;0.240654;0.0787835;-0.0951415;0.0315409;0.457488;0.400052;0.496612;0.177877;0.490448;0.176412;-0.331202;-0.223563;0.491607;0.354457;-0.126698;0.0973693;0.274285;0.123615;0.153645;-0.325404;-0.257164;-0.248283;0.263329;0.07622;0.207327;-0.233573;-0.252953;-0.214194;0.363826;0.138203;0.0159764;0.101581;0.222648;-0.378048;-0.0514695;0.459166;-0.235557;-0.0871456;0.0476241;0.0845515;-0.39349;-0.227165;-0.31402;0.383541;0.459838;-0.21569;0.47055;-0.0265969;-0.341487;-0.113239
0.257103;-0.23629;-0.457213;0.353023;-0.153188;-0.00798059;-0.0233314;0.36108;-0.104419;-0.379025;-0.218406;-0.181936;0.0673086;0.00303659;0.367611;-0.407773;-0.0371258;0.218894;0.342616;-0.190573;-0.14449;-0.00389111;0.381771;0.370388;-0.23574;-0.385922;0.137776;0.344844;-0.103565;-0.298669;0.473479;0.398923;-0.00950652;0.332087;-0.202383;-0.0880917;-0.409421;0.327418;-0.213858;-0.0611133;-0.215995;0.168111;0.268609;-0.324915;0.432798;0.424955;-0.437498;-0.421323;0.43054;0.112781;0.0358745;-0.19219;0.0161596;-0.125233;0.179647;0.128498;-0.324671;0.402921;-0.0290078;-0.0506149;-0.338984;0.00114444;-0.190878;-0.360225;-0.335353;-0.302698;-0.195547;-0.212912;-0.331324;-0.18984;-0.297632;-0.450072;-0.487823;0.377651;0.223472;-0.236717;0.200552;0.352931;0.100574;-0.048265;0.490478;-0.025956;-0.405454;-0.0927;-0.218192;0.213858;-0.230064;-0.0121616;-0.152852;-0.283959;0.311243;-0.20748;0.43054;0.124012;0.161916;0.370388;0.246605;0.208274;-0.23339;-0.381527
0.411466;-0.300714;0.198263;0.0255593;-0.163778;0.231285;-0.0488754;0.417844;-0.385067;0.303797;-0.318781;-0.137043;-0.062212;-0.332789;-0.324854;0.388363;-0.439146;0.0381024;0.3287;-0.329676;0.363979;-0.449156;0.416623;0.350063;0.0274819;-0.147572;0.434416;0.132954;0.359676;0.245109;-0.206229;0.327174;0.305475;-0.214927;0.152974;-0.021775;0.168447;-0.25808;-0.337214;0.255181;0.0766472;0.325678;0.410245;0.245231;0.22396;0.0880612;-0.159658;-0.187216;-0.0819575;-0.0966674;0.4382;-0.320887;-0.0337382;-0.0641041;0.451415;0.379116;0.430662;-0.499908;-0.0646229;0.250938;0.283349;0.219199;-0.0981933;0.115589;-0.00645466;0.389126;-0.148122;-0.198233;-0.422514;-0.0462203;0.47589;0.172994;0.142537;-0.00209052;-0.200522;-0.187399;0.456633;0.163533;-0.440825;0.0235755;-0.425748;-0.103198;0.0869625;0.2987;0.0507675;-0.0690481;0.486206;-0.0820185;-0.224967;-0.0879696;0.380001;-0.170888;-0.0465255;-0.426878;0.012772;0.467376;0.274773;0.364101;-0.0133518;-0.32873
-0.211814;-0.0576952;0.41406;0.350307;-0.474273;0.431089;-0.232719;0.0605335;0.399686;-0.148091;0.2069;0.145039;0.406796;-0.363155;-0.330287;-0.405332;-0.329585;-0.37289;0.497772;0.286279;0.351924;0.464415;-0.110431;-0.246574;-0.0379498;-0.219199;-0.044908;0.147359;0.104419;0.0941343;-0.344813;-0.45703;0.181661;-0.185812;0.407254;0.247276;0.0956603;0.267052;-0.361995;0.265587;0.473357;0.142689;0.0649892;-0.417356;0.449004;0.273156;-0.0124363;0.414029;-0.465514;0.146718;0.369167;0.0847957;-0.391232;0.0647145;-0.00834681;-0.308832;-0.442656;0.347377;0.463378;0.201773;-0.405911;0.494446;0.36166;0.1545;-0.204794;-0.292657;0.291681;-0.39465;-0.12212;-0.321131;0.142445;0.485656;-0.246025;0.0566271;0.321192;0.0231788;-0.109394;0.486663;0.247734;0.384915;0.0084994;-0.356746;-0.110309;0.195639;0.149373;0.151692;-0.379879;0.0907773;-0.356014;-0.190817;0.178488;-0.0420392;0.0116428;0.0116123;0.0164037;0.0245521;0.322535;-0.209006;-0.190268;0.447295
0.0543382;0.370968;0.417508;-0.440245;-0.0257118;-0.354274;0.0694754;0.43469;0.0775933;0.489441;0.0637379;-0.0833003;0.114093;0.301599;-0.245048;-0.217887;-0.266289;-0.304743;0.115101;0.182028;-0.217307;-0.266137;-0.352474;0.0245827;-0.218894;-0.376614;-0.06386;0.453276;0.113392;0.265557;-0.389859;0.0769829;-0.0368511;-0.421171;0.00639363;0.108356;-0.476836;-0.00675985;0.310144;0.066393;-0.487884;0.0249489;0.455412;0.200125;-0.470763;0.337825;-0.433287;0.288842;0.2781;0.196677;0.222831;-0.0241249;0.190573;-0.279687;0.323908;0.291528;0.482849;-0.161184;-0.15627;-0.478118;0.173971;0.362728;0.247826;0.0796991;0.0987121;0.0694143;-0.141377;-0.467009;0.445799;0.213645;-0.0503708;0.448851;-0.147359;0.367885;-0.151296;0.207083;-0.41174;-0.000839259;-0.166921;0.441649;-0.145009;-0.311579;0.0959655;0.26458;-0.259178;0.398648;-0.432829;-0.0700858;-0.146657;-0.301813;-0.131672;0.0930052;0.166555;0.345454;0.18392;0.321833;0.111652;0.140767;0.32989;0.0166173
0.443602;0.452727;-0.199301;0.393796;-0.086108;0.324122;0.0759758;-0.309229;0.281579;-0.435759;-0.0316935;0.247551;-0.306848;-0.265831;0.293329;-0.378445;-0.0369427;0.430235;-0.356716;0.392178;-0.214499;-0.226951;-0.454649;-0.189627;0.409757;-0.492126;-0.214133;-0.0489059;-0.191183;-0.377804;0.18215;-0.476775;-0.125813;-0.112537;-0.417661;-0.00575274;-0.333247;0.230796;0.375668;0.185598;0.255943;0.342921;0.292962;-0.00508133;0.177664;0.428983;-0.219993;0.401669;0.0430158;-0.492309;-0.275689;0.411924;0.328425;0.166158;-0.183554;0.0990783;-0.12154;0.175497;0.327418;0.396512;0.153432;-0.12566;-0.41644;-0.201743;-0.248466;-0.273888;-0.0801569;-0.375515;0.238487;-0.0436872;0.392605;0.00721763;-0.18572;-0.323817;0.0338298;0.25338;-0.150319;0.398984;-0.0726493;-0.259209;-0.177206;0.354946;-0.111347;0.0040437;-0.312708;-0.488464;0.0294961;0.165395;0.203787;-0.295038;-0.0115818;0.368191;0.264794;-0.210959;0.108692;0.368343;-0.254204;0.208213;0.344661;-0.0599231
-0.0875118;-0.0996277;0.177816;0.252617;-0.0841243;-0.0636158;0.32403;-0.126331;0.406796;-0.198355;-0.487091;-0.443785;-0.199362;-0.272973;0.120899;0.464721;0.223838;-0.0254982;-0.0613575;-0.00312815;-0.326991;0.484283;-0.144917;-0.142354;0.418577;-0.210593;-0.261803;-0.458739;0.183401;-0.395566;0.294519;-0.122303;0.128468;-0.00611896;0.188528;-0.200095;0.176168;-0.472961;0.202811;-0.0120396;-0.297296;0.32577;-0.279443;-0.453551;0.131123;0.410428;0.311914;0.371334;0.455809;0.251579;-0.295679;0.362331;0.22982;-0.0674612;-0.0801263;0.137562;0.046617;-0.170248;-0.14098;0.406186;0.0469527;0.21688;0.113453;-0.3446;0.482421;-0.30105;0.288324;0.308527;-0.133076;-0.116962;-0.384274;0.00950652;-0.252556;0.191275;0.1404;0.191183;-0.374996;0.222709;0.258812;-0.417539;0.0572375;-0.429472;-0.10683;-0.188223;0.474029;-0.499756;0.0814386;-0.23809;-0.262871;0.395718;0.264428;-0.166555;-0.0245521;0.37875;0.0516831;-0.2275;-0.273553;0.00904874;-0.253075;0.219169
-0.0839106;0.470428;0.41464;-0.367061;-0.292688;0.149373;-0.231285;-0.248619;-0.250633;0.0127415;-0.335017;0.23809;-0.141499;-0.309595;0.478088;-0.32345;-0.338313;-0.330897;0.144704;-0.434111;0.234458;-0.495911;0.153829;0.4747;0.264;0.454527;0.26574;0.00944548;-0.230918;0.44879;0.24044;-0.246269;-0.0920896;-0.213553;0.35757;-0.165914;-0.095233;0.482543;0.0081637;0.269341;-0.372555;-0.33932;0.140065;-0.240684;-0.153829;-0.098529;-0.161794;0.0692312;-0.294733;-0.0479904;-0.179128;-0.334071;0.439238;-0.296991;0.132984;-0.237266;-0.135975;-0.160054;-0.181722;0.428068;-0.325007;0.0740837;-0.148946;-0.084582;0.082873;0.359767;0.108844;-0.129994;-0.181417;0.004532;-0.332514;-0.431486;0.0388653;0.077929;0.199881;-0.151448;0.163076;0.0253151;-0.24105;-0.116474;0.173299;-0.106861;-0.272668;0.459807;0.408353;0.0717948;0.213828;-0.0882748;0.383236;-0.0378887;-0.321619;0.371303;-0.334864;0.472106;0.0673391;0.488647;0.337703;-0.249901;0.238975;0.279015
0.0837886;0.0602588;-0.0381329;0.253655;0.41934;0.207022;0.266594;0.48941;0.108264;0.41464;0.432005;-0.205435;0.290643;0.06798;0.387875;-0.373623;0.354946;0.221061;-0.185446;-0.0830256;0.0854671;0.279168;-0.278741;0.4635;0.116688;-0.238762;-0.215934;0.0390484;0.225333;-0.451415;0.224815;-0.119282;0.491638;-0.473998;-0.487396;-0.28927;-0.139088;0.0219275;-0.331477;-0.053209;0.137043;-0.0464644;0.455168;0.258599;-0.0616016;0.0832087;0.232292;0.125935;-0.351619;0.292657;-0.240349;-0.444823;-0.109027;0.280694;-0.271569;-0.389889;-0.436888;-0.408811;0.30224;-0.0864132;-0.0449385;0.377529;0.4494;-0.224052;-0.0104221;-0.190786;0.347285;0.106983;0.111927;-0.472289;-0.359676;-0.233146;-0.138997;0.0572375;-0.167348;-0.486816;-0.346065;-0.423276;-0.403165;0.199881;-0.18569;-0.0403607;0.27987;0.384152;0.376125;0.487365;0.387631;-0.00202948;-0.305902;0.142842;0.329188;0.24044;0.392331;-0.109546;0.202048;0.346797;-0.318537;-0.151418;-0.100269;0.390927
-0.423154;-0.239189;0.322871;-0.223045;0.0479904;-0.327662;-0.025132;-0.42288;-0.369137;0.217795;-0.276055;0.370937;-0.465361;0.42642;0.0121006;-0.257042;-0.226432;0.451262;0.29281;0.0950194;0.355617;0.128346;-0.0216529;-0.0710013;0.0588549;-0.227775;-0.321741;0.256584;-0.17275;0.114124;0.0100864;0.29223;0.316584;-0.211203;-0.236747;0.0858028;-0.377956;0.276605;-0.301538;0.250511;-0.280999;-0.293237;-0.237693;0.443052;-0.352535;0.428526;-0.000381481;-0.247978;-0.0277261;-0.244438;-0.0557421;-0.349422;-0.450224;-0.208914;-0.23043;-0.330042;0.132649;-0.261132;-0.0200354;0.449858;-0.156789;-0.392972;-0.075396;0.321955;0.0480514;-0.289422;-0.0851314;0.0832392;-0.336482;-0.120991;0.226341;0.114582;0.424497;-0.224601;-0.233207;-0.498566;0.147176;0.232841;-0.308191;0.312952;-0.482665;0.0148167;-0.251549;-0.304834;0.435179;-0.0942259;-0.371151;-0.0647145;0.447905;-0.462279;0.115101;0.152455;0.301874;-0.140217;0.295953;-0.227714;0.144612;-0.343745;-0.362667;0.440428
0.408963;0.0199133;0.187613;-0.468108;-0.09035;0.186636;-0.301355;-0.0874508;0.184439;-0.362545;-0.0554979;0.1086;-0.389737;-0.125202;0.0181433;-0.459471;0.32638;-0.221732;-0.11153;-0.0219275;0.495148;-0.0526597;-0.00196844;-0.128529;-0.0680715;-0.0638905;0.182913;-0.283258;-0.364223;-0.21276;-0.303491;0.109729;0.251183;-0.229179;-0.38229;-0.353755;-0.00688192;-0.265404;0.425321;0.324091;0.0661184;-0.0282754;0.0195471;-0.39697;0.108661;0.0124363;-0.0276955;-0.220298;-0.305597;0.245781;0.286981;-0.167226;0.421049;-0.222465;0.449309;0.395291;-0.381558;0.430967;0.0506149;0.0100558;0.207389;0.296136;-0.235496;0.324854;-0.260704;-0.265496;-0.0417035;0.382748;0.149739;0.244774;-0.279595;-0.334986;0.255333;0.0962096;-0.414792;0.041673;-0.473571;0.136036;-0.263787;0.286981;0.166433;-0.323328;-0.0309;0.315119;0.0286111;-0.130634;0.1957;-0.206626;0.402738;0.47058;-0.229637;0.288202;0.201407;0.406827;0.419706;-0.399411;-0.421445;0.0450301;0.0572375;0.44763
-0.489441;-0.426145;0.263909;0.145528;0.371487;0.402829;-0.284051;0.45114;0.0337992;-0.0149083;0.341365;0.217795;-0.474151;-0.0293741;0.4859;0.0219275;-0.222922;0.095172;-0.129688;0.416684;0.482208;-0.287591;-0.380245;-0.0316019;-0.383847;0.374447;0.146718;-0.266839;-0.369381;0.367641;0.168691;0.328486;-0.136982;-0.390255;-0.358058;0.257103;0.190207;-0.185446;-0.107532;-0.360775;0.457152;0.330378;-0.27456;0.00895718;-0.28753;-0.441496;-0.205374;0.331477;-0.218101;0.358516;0.0124363;-0.102832;0.210654;0.34521;0.282647;0.249168;0.10625;0.485351;0.336421;-0.200064;-0.0867183;-0.101123;-0.0469222;0.294061;-0.34933;0.271722;0.347011;-0.227622;-0.356624;-0.214133;0.0017243;0.19509;0.279107;-0.0261696;-0.267479;0.378506;-0.177847;0.402554;0.258843;0.403134;-0.185141;-0.40585;0.0676138;0.148274;0.0980712;0.0888852;-0.150899;0.110218;-0.0176244;0.0571764;0.285913;0.159597;-0.399442;0.366573;0.47705;0.394436;-0.0265969;-0.489929;-0.222251;-0.254601
-0.180868;0.302301;0.33697;0.489105;-0.361354;-0.251274;0.112812;0.325709;0.107166;-0.00389111;-0.351741;0.177541;0.303888;-0.231803;0.387692;0.364498;-0.18923;0.194723;-0.18453;0.312586;0.2116;0.43881;0.198599;0.451964;0.0228431;0.0296793;0.213492;0.460906;-0.412717;0.306665;0.239158;-0.488678;-0.0381024;-0.119343;-0.402371;-0.327174;0.330927;-0.480407;-0.477233;0.131031;-0.0241249;0.363887;0.138997;0.376705;0.333216;-0.121998;0.230674;0.0217139;0.171224;0.445189;0.0843379;0.398434;0.417264;0.010361;0.184072;-0.401791;-0.333338;-0.321497;0.0415204;0.106006;-0.095294;-0.325709;-0.0576952;-0.31341;0.472259;-0.430906;-0.110584;-0.320826;-0.192679;0.182211;-0.474792;0.356319;-0.00697348;0.0616932;0.313227;-0.496277;-0.356685;-0.0479598;-0.239128;-0.123005;0.158193;0.153951;-0.0354472;-0.308741;-0.121174;0.183218;0.258202;-0.199271;0.174886;-0.365352;0.246605;-0.276421;-0.00578326;-0.342799;0.00471511;0.168966;-0.0929136;-0.0530564;-0.275689;0.222251
0.175527;-0.336512;-0.410916;-0.155477;-0.120472;0.176809;0.159566;-0.156911;-0.369045;0.0502182;0.0488754;-0.0313272;-0.0933103;0.166036;0.171194;0.295892;-0.467864;0.400021;0.343135;-0.456816;0.346553;-0.249199;-0.479644;0.488647;-0.419309;0.330866;0.450041;0.137349;-0.0204627;0.124836;0.0205237;-0.202628;0.199484;-0.0782342;0.0896481;-0.280084;-0.487365;0.32757;0.0727103;0.460448;0.349086;0.263543;0.0714896;-0.383694;-0.292016;-0.142354;-0.174429;0.0981933;-0.0307474;0.134632;0.267205;-0.409543;0.136952;0.4111;-0.0393231;0.357509;0.0452742;-0.19808;0.208213;0.0519578;-0.440977;-0.255486;0.102527;-0.318812;0.29931;-0.0535142;0.308405;0.388089;-0.0742363;-0.33639;-0.14626;0.202689;-0.493072;-0.285699;-0.288263;0.420774;0.00956755;0.13625;0.455351;-0.234519;0.438444;-0.107837;-0.234977;-0.0113376;-0.342311;-0.469329;0.0717338;0.0676748;0.425291;0.208335;0.115406;-0.345759;-0.328822;-0.0208289;-0.299005;-0.0684378;-0.448546;-0.241569;0.433073;-0.464293
0.308618;-0.134053;-0.290094;-0.301996;0.47;-0.443876;-0.24102;0.264092;0.41522;0.44055;-0.00572222;-0.253807;-0.155782;0.209037;0.477538;0.0652333;0.176626;-0.443785;-0.236076;0.13802;0.414304;-0.280725;-0.0859554;-0.0330668;0.497864;-0.466887;-0.0470748;0.3876;-0.311426;0.409604;-0.442381;0.130879;0.00712607;0.146626;0.254784;0.355861;0.259972;-0.0261696;-0.0912656;0.309626;-0.315058;-0.259484;-0.217521;0.270135;-0.252617;-0.347194;-0.0482345;0.4288;0.117786;0.465453;0.353877;-0.131458;0.362239;-0.464812;0.252831;0.29397;0.377194;-0.358028;0.401517;-0.330378;0.0995666;-0.0167699;-0.317621;0.422788;-0.476501;0.249107;-0.491974;0.366878;-0.445158;0.183432;-0.237205;0.00193793;-0.265007;-0.462584;-0.433683;0.348231;0.365017;-0.177572;-0.358882;-0.0307779;0.0615101;-0.232658;-0.435514;0.340571;0.27514;-0.112201;-0.313318;0.220573;-0.196432;0.0725578;-0.00376904;0.179312;-0.17037;-0.406156;-0.286248;-0.0580004;-0.483825;0.448057;-0.104205;-0.296991
-0.311151;0.432249;-0.170766;0.0668813;-0.362148;-0.136311;0.498383;-0.227287;-0.429655;0.347987;-0.0947752;-0.142323;-0.255669;-0.497742;-0.475066;0.416593;-0.184622;0.040025;-0.323206;-0.386868;0.427641;0.122944;0.0927915;0.0995056;-0.419828;0.387204;0.464599;-0.499725;-0.200095;-0.450652;0.250328;0.11742;-0.347499;-0.00111393;-0.47763;-0.488464;-0.377651;0.283074;0.13744;0.117084;-0.107013;-0.109149;0.00996429;-0.453459;0.0591296;0.241752;-0.229362;-0.259545;0.301599;0.286035;-0.409391;-0.380581;0.0562914;-0.377499;0.453154;0.394284;-0.291162;-0.459746;-0.346248;0.190695;0.345576;-0.109821;-0.189932;0.144551;0.0924863;0.193106;0.16277;-0.37579;0.0734428;-0.109516;0.448668;-0.263909;-0.481323;0.143666;0.12743;-0.230522;0.0549791;0.0885189;0.243217;-0.26278;-0.291437;-0.0487533;-0.298242;-0.331599;-0.347377;-0.0681326;0.245537;-0.19097;0.229575;0.261315;-0.0934019;0.387417;0.280389;0.338923;0.219901;0.100024;0.311792;0.356044;-0.0228126;-0.0254677
-0.46762;0.31222;-0.196707;-0.234275;0.289514;-0.169698;0.336024;-0.458647;-0.0628834;-0.323359;0.290551;-0.386837;-0.332514;0.392453;0.190237;0.470244;0.336085;-0.0571764;0.0443892;-0.129658;-0.18749;-0.210166;-0.245445;-0.254021;-0.112201;0.295251;-0.469207;0.0808283;0.269646;-0.140065;0.0987426;0.413266;-0.303278;-0.294336;-0.020951;0.123218;-0.296319;-0.294092;-0.379727;0.158376;0.067217;0.171407;-0.333216;0.355861;0.465667;-0.0025483;0.142201;0.0164037;0.38226;0.0785089;-0.169576;-0.11388;-0.215903;0.396603;-0.36462;0.203207;-0.392514;-0.309931;0.200034;-0.0349284;-0.418516;0.108386;-0.433317;0.0725272;0.420225;-0.240379;0.159658;-0.49295;-0.0841853;-0.443175;-0.128803;0.197836;-0.0369427;0.269341;-0.46762;-0.265954;0.0466781;0.185568;-0.44998;-0.420438;0.223045;0.293237;-0.00935392;-0.0545824;0.126972;0.383602;-0.106891;-0.0229041;0.0354778;-0.0144505;0.0911435;0.412259;-0.480865;-0.463805;0.326624;0.365627;-0.287164;-0.305963;-0.064745;0.39697
-0.263329;0.200735;-0.114216;-0.481597;0.2987;0.198233;0.453978;0.297876;0.0104221;0.407163;0.312494;-0.286248;0.446562;0.0726188;0.318232;-0.0813471;0.480071;0.0840632;-0.222068;-0.433134;-0.0761284;0.1751;0.473937;-0.137013;0.0105136;-0.39053;0.230338;-0.012833;-0.259148;0.260125;0.302179;0.0539109;-0.366695;0.48645;0.367489;0.260063;-0.0955382;-0.282922;0.404447;0.378536;-0.38702;0.14391;0.234458;0.254112;-0.20278;0.4335;0.0126194;0.457427;0.138569;-0.137471;0.446379;-0.246879;0.181173;-0.216666;0.0243385;-0.460814;-0.360164;-0.17452;0.0358745;-0.0870235;-0.173177;-0.259667;-0.337031;-0.479858;-0.27102;0.294122;-0.0741447;-0.156178;-0.233055;0.116199;-0.237114;0.0886105;-0.233299;-0.0912046;0.0271462;0.317133;0.175649;-0.0760369;-0.320429;-0.00544755;0.0538499;0.114765;-0.0388348;-0.402463;-0.127949;-0.133778;-0.175283;0.444121;-0.352382;-0.287194;0.407559;0.400113;0.449461;-0.0515915;-0.173452;-0.380795;-0.196707;-0.464904;0.0767998;-0.0278176
0.0289773;0.217154;0.314814;0.321955;0.0402387;0.245994;0.307978;0.300501;-0.361293;-0.376614;0.331019;-0.255821;-0.166433;0.267724;0.291314;0.443236;0.21749;0.0108798;0.363582;0.362117;-0.0694143;-0.168752;-0.0840632;-0.0130772;0.243767;0.229331;0.00795007;-0.0442366;0.291986;0.152089;0.242454;-0.371273;-0.0103916;0.372646;0.251823;-0.246483;-0.341639;-0.269036;-0.399411;-0.11684;0.399594;0.142354;0.38522;-0.298334;-0.258293;-0.220328;0.312037;-0.0856502;-0.405393;0.335749;-0.464324;-0.141133;0.0417035;-0.228111;0.0377972;0.493011;0.000991852;0.459288;-0.171499;-0.0841548;0.287103;0.118915;-0.248894;0.0783563;0.104144;0.466796;0.171773;-0.160298;-0.497772;-0.0296487;0.335017;0.0253456;-0.172414;-0.377346;-0.33346;-0.35638;-0.30163;0.140126;-0.195151;-0.0834834;-0.463042;0.490478;-0.357936;0.281335;0.190176;0.157064;0.15627;0.0191504;-0.331294;0.0457625;0.315851;-0.333369;-0.463073;0.440703;-0.162496;-0.132771;-0.0158238;-0.0852229;0.0788751;-0.182028
0.10918;-0.397885;-0.152699;-0.0315104;0.448454;-0.262505;0.40582;0.127918;0.280023;-0.130177;0.457518;-0.363552;-0.265831;-0.344081;0.390011;-0.242363;0.241508;-0.359737;-0.439451;-0.0525376;0.350642;-0.0724967;-0.0962401;0.156697;0.446043;0.153798;-0.357601;-0.177267;0.397549;-0.336756;0.383541;-0.29281;-0.327174;0.295495;0.380032;0.235313;-0.0560472;-0.308863;0.239921;0.493652;-0.280694;-0.479217;-0.136036;-0.457823;0.0322123;-0.455687;-0.107013;0.197287;-0.282586;-0.093646;0.446318;-0.0587329;0.306787;-0.425565;0.432371;0.115711;0.0752129;0.325922;0.213004;0.0535142;0.268303;0.189932;-0.0976745;0.307398;0.0430158;-0.249138;0.0817438;-0.370266;0.152303;0.219199;0.212088;-0.138844;-0.0948973;-0.323756;-0.475494;0.382992;0.433256;0.399045;-0.329157;0.290857;-0.204093;-0.328608;-0.0847346;-0.0548265;-0.0465865;-0.0121616;0.148;0.0546434;0.141469;0.0558336;-0.497406;-0.0505539;-0.323237;-0.496185;-0.141774;0.19982;-0.274133;-0.300104;0.00746178;0.237022
0.0678579;-0.411496;-0.228202;0.132099;0.382656;-0.0493027;-0.154408;0.189352;0.0957823;-0.00526444;-0.350429;-0.489715;0.311182;-0.317286;-0.0244911;0.184957;-0.136952;-0.29989;-0.296777;0.265801;0.0181127;0.473785;0.370907;0.181692;-0.140492;0.145283;-0.119648;-0.252922;-0.116291;-0.0943785;0.118336;0.423612;-0.158742;-0.402829;-0.225242;-0.0106662;0.353298;-0.0100864;0.140034;0.273064;0.334468;-0.362697;0.161458;0.108814;-0.246269;-0.281152;-0.458647;0.167714;-0.235557;-0.224998;0.156911;-0.177389;-0.265313;-0.258965;-0.416318;-0.297388;0.209372;0.185812;0.00413526;0.0929746;0.335139;0.16216;0.281793;-0.162862;-0.220634;-0.425443;0.482971;-0.103076;-0.325251;0.470916;-0.373287;0.227134;-0.379727;0.163961;-0.0549791;0.120838;0.270287;-0.410367;0.433378;-0.318232;-0.457427;-0.192465;-0.025895;-0.420164;-0.0230262;0.0502792;-0.18688;-0.254112;0.275445;0.228172;-0.328822;0.162526;-0.444975;0.294977;0.271538;0.406644;0.345363;0.381283;-0.435484;0.100299
-0.139088;0.101886;0.430998;-0.0741752;-0.419614;-0.0569323;0.145039;0.361995;-0.336207;0.136128;0.378353;-0.203238;0.238762;-0.0761284;0.0262001;0.173482;0.087054;-0.37463;-0.362453;-0.173605;-0.237053;0.40643;-0.270592;-0.337977;-0.325526;0.160726;-0.232536;0.342311;0.158589;0.409116;0.0940123;-0.37402;0.0819575;-0.377621;-0.415738;-0.475341;-0.00175481;-0.125721;0.312525;0.429258;0.393551;0.230644;0.00929289;-0.136555;0.0504624;-0.218528;-0.409268;0.0207373;0.0631581;-0.278527;-0.458373;-0.259728;-0.46643;0.38583;0.432981;0.0790582;0.480895;-0.352657;0.3558;0.135548;-0.00529496;-0.418821;-0.447905;0.281945;0.164266;-0.19686;0.0243385;0.460448;-0.186422;0.388516;0.404782;-0.299249;-0.425047;-0.223258;-0.134419;-0.486053;0.331477;-0.430906;0.351619;0.320124;-0.440153;-0.375088;-0.0837886;-0.435057;-0.394894;0.362941;0.442289;-0.317621;0.417783;-0.325892;-0.471068;-0.440886;-0.214408;0.351863;-0.174276;-0.34283;-0.409452;0.446196;-0.404813;0.45117
0.122303;0.447935;-0.214713;0.335932;-0.0202185;-0.290765;0.392758;-0.338404;-0.408231;0.00672933;0.398862;0.0513474;-0.112049;-0.346644;0.0583972;-0.340999;0.151601;0.0655385;-0.176046;-0.477935;-0.414975;0.191397;-0.314417;-0.333033;-0.380612;-0.293298;0.208151;0.12215;0.499725;0.384762;0.0470748;0.496063;0.176656;-0.45407;0.223869;0.275475;0.0359966;-0.00578326;-0.0573901;-0.499084;0.49765;0.345546;0.228813;-0.0245521;0.014481;0.15566;0.17159;-0.337642;-0.496643;-0.247368;0.0509507;0.429472;-0.261254;0.180868;0.130665;-0.205741;-0.259545;0.162587;0.398801;-0.17159;-0.313105;0.483337;0.0364544;-0.124317;0.385037;-0.29281;-0.103473;0.241295;-0.17217;-0.371059;-0.226798;-0.492187;-0.128437;0.368038;-0.255943;-0.365413;-0.437284;-0.488067;0.365383;0.496216;0.147023;0.21453;0.00233467;0.0170141;0.291345;-0.344508;0.0753655;-0.442503;-0.45056;-0.232414;-0.496612;-0.291162;-0.396451;-0.362362;0.126118;0.151784;0.312159;0.48764;0.385556;-0.263451
0.0957823;-0.357967;0.0488449;0.43936;-0.307672;0.387906;0.253502;0.352321;-0.187796;0.133595;-0.344386;0.36288;-0.274651;-0.227256;-0.0364238;-0.321436;0.311335;-0.34051;-0.362911;-0.145619;-0.396756;0.101093;0.0339213;0.477569;0.357356;-0.225211;-0.214988;0.167409;-0.32107;-0.0256203;-0.320582;0.0457015;0.236564;0.0932798;-0.159902;0.333827;0.0949583;0.250145;0.472167;0.23336;-0.301263;0.463256;-0.0355083;-0.254021;0.0374615;0.280114;-0.373684;-0.410794;-0.476409;0.268273;-0.160451;-0.136158;-0.385006;0.273644;-0.0914487;-0.370113;-0.287835;-0.147084;0.388424;0.0468001;0.362667;-0.214164;0.172964;0.234397;0.303156;0.073748;0.123768;-0.489196;0.370693;0.330958;-0.478637;0.163656;-0.185629;-0.0252235;0.120319;0.41052;0.0386212;0.120594;0.0884274;-0.294824;0.30929;-0.411527;-0.387356;0.0460982;0.4541;-0.0728935;0.451781;0.442503;0.0881832;-0.138386;0.217826;0.195456;0.396695;0.0716727;-0.33282;0.149556;0.00474563;-0.294275;-0.217124;-0.428831
-0.0329752;-0.462188;-0.0712149;-0.189505;0.407407;0.173299;-0.142293;0.402554;-0.159566;0.209525;-0.145924;-0.235923;-0.294305;-0.241844;-0.207389;0.142598;0.146107;0.234581;0.394314;-0.0268105;-0.4382;-0.178426;0.460967;0.300195;-0.029252;-0.487213;0.369381;0.41937;-0.293146;0.142842;-0.393246;0.397;0.487732;0.309503;-0.371822;-0.377682;0.382351;-0.404843;-0.182424;0.0494552;-0.28927;-0.00657674;-0.166311;0.284692;0.406491;-0.0536058;0.121845;0.176046;-0.127033;-0.0995972;-0.126911;0.0611133;-0.134266;-0.215201;0.211814;0.329005;0.430815;0.321406;-0.106952;0.453246;0.431242;-0.430143;0.291009;0.15157;-0.307215;-0.384121;-0.0403302;-0.171072;0.299982;-0.191916;-0.453001;-0.0400555;0.0735954;0.450072;0.343867;-0.433012;-0.238578;0.353725;0.249046;0.450407;-0.0271767;0.160176;0.431394;0.326624;0.388882;-0.165426;0.470672;-0.468871;0.279046;0.240837;0.257958;0.441862;-0.144185;0.202872;0.437376;0.279504;0.498535;-0.0417646;-0.330409;0.441282
0.377377;0.410855;0.49939;0.0238807;-0.490692;0.0884579;0.107532;-0.307611;-0.223319;0.211753;-0.270928;-0.449156;-0.0599536;-0.21926;0.0185705;0.171316;0.176382;0.0853755;0.143941;0.437162;0.17391;-0.454222;-0.109851;0.357143;0.314875;0.289178;-0.446074;-0.493408;-0.022599;0.369045;-0.0894955;0.251579;0.487823;0.0336467;0.0342875;0.412412;-0.245537;-0.0510727;0.253838;-0.476623;0.114612;-0.216575;0.0232398;0.343928;0.425291;0.0602283;-0.00953703;-0.221915;-0.0703604;-0.317011;0.0444502;-0.141224;-0.0699332;0.0421918;-0.378079;-0.0477157;-0.201193;0.107318;0.0549791;-0.159993;0.35818;0.412015;0.241325;-0.166677;0.160848;0.337825;0.417661;-0.422117;-0.29812;-0.397;0.318201;-0.296228;0.0937986;0.363002;0.498871;-0.0227821;0.235374;-0.172079;0.108936;0.111011;0.00639363;-0.195639;-0.108814;-0.11095;-0.481506;0.067156;-0.308222;-0.238334;-0.0455794;-0.0328532;0.261101;-0.432035;0.025895;0.182119;-0.372982;-0.458769;-0.417753;0.0159764;-0.178457;0.254051
0.400693;0.153462;0.242241;-0.341395;-0.310907;0.275872;0.429685;-0.120258;0.333522;0.444456;-0.457762;-0.084521;0.420499;-0.342189;0.309381;-0.097766;0.0664235;0.489105;-0.255516;0.101032;0.0846736;0.209708;0.399106;0.260125;-0.47824;0.305536;0.439055;-0.488647;-0.405942;-0.207968;0.324396;0.455687;0.0560778;0.234336;0.373867;-0.40582;-0.468413;-0.121296;-0.00440992;-0.238273;-0.16097;-0.198355;-0.135151;-0.281945;-0.157888;0.482788;-0.169515;-0.446165;-0.14275;-0.292322;-0.168935;0.067217;0.148793;0.207327;-0.398038;-0.232719;-0.456664;-0.0601978;0.454924;-0.339076;-0.305383;0.42114;-0.0892819;0.478973;0.0297403;0.0108798;0.467223;0.498077;-0.0913266;-0.440519;0.2828;-0.385434;0.027604;0.322657;0.0574511;-0.17333;-0.402341;-0.44995;-0.107715;-0.219321;0.330714;-0.346156;0.408841;-0.461547;-0.237754;0.363582;-0.0908994;0.221519;-0.05562;-0.226402;-0.141499;-0.31164;0.0384075;-0.310419;0.471496;-0.0987121;-0.160543;0.179678;-0.317286;0.139027
-0.236076;-0.262627;0.283746;-0.288965;0.33108;-0.038255;-0.493011;0.330378;-0.330134;0.161641;-0.161214;-0.199301;0.0826899;-0.210288;0.341243;0.174154;0.196768;0.113239;0.266045;0.0361797;-0.26516;0.0269021;0.23986;0.0734428;0.436247;0.415067;-0.196219;-0.418668;0.159291;-0.0315104;-0.412992;0.0671255;-0.302789;-0.137165;-0.102924;-0.394955;0.337642;0.204581;0.00675985;0.0995666;-0.302423;-0.349269;-0.0797906;0.113208;-0.134571;0.108722;-0.101856;0.415006;0.380367;-0.0776238;-0.475494;-0.0941649;0.0810724;0.450987;-0.40466;0.0771355;0.355129;0.446471;-0.389065;-0.34106;-0.180441;0.136341;0.153035;-0.386349;-0.0353557;0.417539;-0.0722526;0.131794;-0.208396;0.06798;-0.243828;-0.214164;-0.0240028;0.381924;0.293054;0.498749;-0.412626;0.135487;-0.244499;0.48291;-0.102802;0.288354;0.442686;-0.193716;0.305506;0.328211;0.327601;-0.258324;-0.0815912;-0.336146;-0.497375;-0.4447;-0.193136;-0.0265053;-0.240165;-0.108783;0.478545;-0.0855892;0.086932;0.407773
-0.406339;0.100024;0.360927;-0.177938;0.456542;-0.249107;0.0200659;0.0189978;0.313257;-0.0740532;-0.00434889;0.381039;-0.0121921;-0.260308;-0.315241;-0.00532548;-0.113086;0.472411;0.245384;-0.109394;-0.094409;-0.0213477;-0.00526444;-0.0272378;0.264031;0.301538;0.192923;-0.206473;-0.192465;-0.102313;-0.00791955;-0.169362;-0.199301;0.380062;-0.167013;0.422361;-0.253166;0.184683;0.0702383;0.0170751;0.26397;0.0672475;0.107074;-0.106189;-0.45114;-0.163747;-0.17861;0.00929289;0.460356;0.228446;-0.436216;0.12859;-0.24749;0.333491;-0.490722;-0.104999;0.490112;0.473235;-0.356105;-0.00428785;0.176473;-0.0572375;0.16686;0.0793939;-0.374172;-0.481323;-0.409421;-0.417966;0.110858;0.14153;0.318812;0.117206;-0.183309;-0.322199;-0.0154271;-0.413083;0.133442;0.169027;0.32934;-0.330287;-0.182974;0.472655;-0.0958129;-0.158345;-0.448881;-0.297815;0.374752;-0.413114;-0.0596179;0.372585;-0.289361;-0.0460067;0.46646;-0.343684;0.0412152;0.114216;0.438475;-0.342219;0.45822;0.0777764
0.468719;0.11092;-0.452727;0.224876;-0.495056;0.407315;-0.0708487;-0.192709;-0.0493332;0.360408;-0.408383;0.0767998;-0.0955382;-0.3876;0.294183;0.197012;0.0498215;0.0899533;-0.174306;-0.405454;0.226493;0.414914;0.397366;-0.0940123;0.214835;-0.323634;-0.0486923;0.176565;-0.235832;0.470428;-0.333522;0.467406;0.396847;-0.38638;0.443419;-0.473113;0.0183874;0.436613;-0.351924;-0.316919;-0.13393;0.0638905;-0.102405;-0.387417;-0.173544;-0.413541;0.167562;0.143178;-0.346919;-0.466887;0.00297555;-0.25457;0.11623;-0.453276;0.114429;-0.129566;-0.384823;-0.327998;0.139576;-0.210868;0.284936;0.160939;-0.147511;0.0900143;0.127918;0.201651;-0.398862;0.491302;0.202963;0.477905;0.254906;0.123737;0.401395;-0.0356914;0.442839;-0.0595569;-0.157033;-0.135182;0.364437;0.409879;0.42172;0.0993225;-0.0462508;0.148152;-0.466338;0.245842;-0.321558;-0.352565;-0.482574;0.343776;-0.245323;-0.244102;-0.161214;0.464934;0.0593432;0.0659963;-0.449156;0.458251;-0.479247;-0.13271
0.0608386;-0.225455;0.269402;-0.180105;-0.265435;-0.222221;0.329096;0.00492874;0.370296;0.448698;0.131123;-0.491974;0.0727714;-0.112568;-0.368648;0.192587;-0.440855;-0.47879;0.312403;-0.181722;0.427641;0.423276;-0.148396;0.162069;0.420164;-0.350764;-0.263451;0.29696;0.210837;-0.00209052;-0.391232;-0.31457;-0.249474;0.101276;-0.382443;0.243553;-0.300134;0.251549;-0.435545;0.0319071;-0.0190893;-0.129505;0.120258;-0.270013;-0.0204932;0.0275735;-0.104541;-0.450133;0.429228;-0.0867794;-0.35464;-0.254509;-0.491882;-0.326563;0.391507;0.374111;0.179708;-0.488006;-0.260186;0.465789;0.309229;0.466399;0.177908;0.2575;-0.413327;-0.236076;-0.368313;-0.352229;-0.212271;0.164205;0.0632191;-0.471618;0.403592;0.194021;0.390652;0.14919;0.171499;-0.318873;-0.488128;0.172445;-0.463286;0.493377;-0.287194;-0.427122;-0.422452;-0.111469;0.241813;0.0396588;0.424314;0.382534;0.331111;0.0365154;-0.296258;-0.459319;0.447172;0.176473;0.0402997;-0.400296;0.0503403;0.0670644
0.144917;0.325587;-0.35403;0.282769;-0.476653;0.0141758;0.407407;-0.379666;0.334498;0.0407575;0.15276;0.293909;0.430723;-0.135609;-0.0436567;0.225517;0.110736;-0.106037;0.176168;0.0877255;-0.382962;0.121387;0.17864;0.254601;-0.0917234;-0.0709403;-0.458251;0.316645;-0.261498;-0.0229957;0.0182348;0.317103;-0.425626;-0.423276;0.0394757;0.36462;0.381466;0.457244;0.0418256;-0.220542;-0.189413;0.330287;0.396451;0.429167;-0.183493;0.16039;0.223869;0.409665;0.238823;-0.453612;-0.125446;-0.271477;0.377377;0.120502;0.356868;0.146565;0.0929746;0.371029;0.493225;-0.166494;0.464782;-0.204489;0.0864132;-0.00526444;-0.464629;-0.210044;-0.123188;0.124714;0.175405;0.180654;-0.428495;0.0437788;-0.401975;-0.195181;-0.272423;0.374386;-0.444334;0.0465865;-0.230491;-0.387143;-0.250908;-0.266198;-0.0768303;0.45349;0.480895;0.302881;0.346492;-0.479675;0.0843074;-0.362728;0.23925;0.1639;0.158834;0.486084;0.21218;0.47824;0.143391;-0.131184;-0.302728;0.195212
0.258965;0.373135;-0.319697;-0.388241;0.351405;-0.249168;-0.462981;0.2069;-0.333918;-0.28045;0.253746;0.103961;0.0852229;0.375362;-0.185629;0.0353252;-0.140522;0.122944;0.0345012;-0.03502;0.364925;-0.470122;-0.376125;0.0257424;-0.0834223;0.0108798;-0.240989;-0.0730461;0.170095;-0.251854;-0.0535752;0.48938;0.142109;-0.245384;0.458342;0.463195;0.381466;0.48587;0.121906;0.285394;0.321772;-0.0929136;-0.256859;-0.0670339;0.347041;0.421506;-0.0530869;-0.472015;-0.39874;-0.433805;-0.285913;-0.149098;0.0736869;-0.117939;0.397366;0.418394;-0.00972015;-0.136647;0.496735;0.28161;0.0435347;0.39404;-0.0239418;0.201834;0.49118;-0.423612;0.401883;0.359035;-0.344752;0.358852;-0.314417;0.249779;-0.146962;-0.131825;-0.289331;-0.068804;0.290643;-0.146107;-0.374325;0.266686;-0.0493027;0.149617;0.0847346;0.329707;0.00581378;-0.441649;0.216147;-0.377743;-0.211692;0.0681326;-0.398679;0.264061;-0.15212;-0.19628;0.0442671;-0.19161;0.12859;-0.379086;0.413572;-0.158528
-0.20394;-0.250175;0.337703;0.0211341;-0.253502;0.393124;0.0354472;-0.288781;0.328364;-0.314478;0.0619068;-0.13213;0.308344;-0.0788141;0.252129;0.334223;-0.387295;0.454466;-0.35699;0.19924;-0.124592;0.181143;-0.344905;0.37756;0.323664;0.00584429;0.315363;0.0661489;0.0331584;0.201895;-0.197836;0.234062;0.0834834;0.0702994;0.0940733;-0.19808;-0.355037;-0.196554;0.00285348;-0.333216;-0.471191;-0.0394147;0.372982;0.22927;0.231101;0.460295;-0.271752;-0.421445;0.00206;0.497406;0.146962;-0.00776696;-0.0275124;0.289544;-0.35345;-0.093524;-0.132466;0.0601672;-0.140187;0.0134129;0.3399;0.164296;0.282861;-0.358486;0.453246;-0.237205;-0.123127;0.0757622;0.34753;-0.0480209;0.304559;-0.0270241;-0.383084;-0.245537;-0.417447;-0.470214;0.432127;-0.122486;0.431364;-0.441893;-0.0622425;-0.354579;0.103198;0.125599;-0.043199;0.0117038;-0.0295267;-0.0834834;-0.467437;0.0577868;-0.345485;-0.0302591;0.340052;-0.11565;-0.0230567;-0.0501877;0.497406;0.301233;-0.485565;-0.392514
-0.190573;0.222709;0.0384686;-0.413907;-0.0262917;0.17391;-0.37936;0.229698;-0.21926;-0.185263;-0.314203;-0.450529;-0.160054;-0.111957;-0.206748;0.00480667;-0.138264;0.497314;0.427915;0.254601;0.0279397;0.120991;-0.417508;-0.463988;0.481109;0.269494;0.411985;-0.173788;0.464263;0.190725;-0.258599;0.443358;0.142323;-0.469085;-0.291284;0.243706;-0.363491;0.356807;0.323359;0.0703909;0.302698;0.445036;0.222404;-0.389492;-0.214927;0.246025;0.404874;0.316614;-0.122974;0.427274;0.226096;-0.45114;-0.280877;0.403378;0.433103;-0.405667;0.366848;-0.241508;-0.478179;-0.280847;0.258324;-0.0323344;0.19866;-0.0893429;-0.386013;0.323206;0.22573;0.464537;0.299036;0.472381;0.433195;0.0746025;0.179769;0.472747;0.17806;-0.419675;-0.494201;-0.22866;0.0319987;0.0290689;0.348628;0.0137486;-0.0214087;0.208792;-0.372127;0.0897397;-0.0982238;0.307978;-0.242698;0.321314;-0.353389;-0.14156;0.440458;0.199667;0.433256;-0.381924;-0.351466;-0.422758;-0.0938902;-0.451323
0.311029;-0.278985;-0.401273;-0.453734;-0.24987;0.133473;0.095996;0.0793023;0.391079;-0.452757;-0.325098;0.391446;-0.221305;0.000137333;-0.294855;0.425047;0.432188;0.396146;-0.409543;0.121509;-0.431303;0.459166;-0.467406;0.255028;0.227622;0.485626;-0.101367;0.455535;-0.173727;-0.197867;0.472839;-0.422544;-0.321375;0.334498;0.375027;0.0706351;-0.491821;0.194021;-0.0742973;-0.490997;0.486023;-0.311762;0.240135;-0.0657826;-0.174276;-0.338893;-0.168203;0.169485;0.466247;-0.430113;0.00712607;-0.239219;-0.126453;0.204489;0.332453;-0.298883;0.493164;0.455626;-0.0456404;-0.405911;-0.11626;0.0381634;0.0550096;0.413388;0.0642262;-0.424345;0.223167;-0.4859;0.104541;-0.047441;0.0228736;0.052385;0.492035;0.340114;-0.459655;0.469207;0.304376;-0.197409;0.190817;0.195334;-0.279504;-0.110431;-0.433897;0.232902;-0.099353;0.121052;-0.395077;-0.229759;-0.233421;-0.228935;-0.133656;0.486236;-0.286187;-0.143147;0.188009;-0.299738;-0.213614;-0.261223;-0.48941;0.0244606
0.346126;0.238395;0.149495;-0.326563;-0.233207;-0.320185;0.294641;0.0893735;0.185598;-0.238334;0.0207373;0.0370342;-0.158254;-0.335017;-0.412046;-0.173818;0.034959;0.303797;0.31521;-0.182882;0.233726;0.124622;-0.193319;-0.13448;0.365535;0.360988;-0.186483;-0.13683;-0.180013;0.149281;-0.488952;0.0305643;0.196005;0.412137;0.473724;0.117634;0.324274;-0.0843684;0.128162;0.169027;-0.403409;0.406858;-0.0336772;0.0102084;0.132954;0.237205;0.299493;0.110187;-0.182241;0.378964;-0.165456;-0.0222633;-0.263451;0.240104;-0.146229;-0.253105;0.0442061;0.184591;0.279443;0.108386;-0.203909;0.163808;0.404447;0.242698;-0.226402;0.365596;-0.42996;-0.0885189;-0.165426;0.287072;-0.42758;0.363704;-0.179159;0.137715;0.0786004;0.211844;-0.446684;-0.0214698;-0.16625;-0.0642262;-0.0533921;-0.496033;-0.0594348;0.169332;-0.226585;-0.127369;-0.007828;0.426511;0.111408;0.49295;0.33993;0.42346;0.00212104;0.170339;0.27691;-0.347774;0.354579;-0.478118;0.419218;0.362941
-0.375851;0.0648366;0.0652028;-0.38992;0.298029;-0.114795;-0.185141;-0.47998;-0.28164;0.292566;0.230064;0.434996;0.27517;0.367641;-0.182913;0.0903806;0.498871;-0.191366;0.112812;0.48175;0.0850093;-0.0174108;0.155324;-0.422819;0.381619;-0.411985;0.12093;-0.468047;0.370785;-0.164632;0.40817;-0.438993;-0.324335;-0.449034;-0.0495163;0.12627;-0.375973;0.111469;0.0386212;-0.405728;-0.100238;-0.385952;0.433958;0.0211951;-0.186483;0.189871;0.0542467;0.220634;-0.27636;-0.134266;0.0128025;-0.228813;-0.360988;-0.118671;0.292352;0.119617;-0.465575;-0.132649;-0.164846;0.435789;0.410337;-0.208365;0.330103;0.376186;-0.372005;0.078753;0.478515;0.411527;-0.448881;-0.190085;0.0196387;-0.124775;0.0255593;0.409116;0.297266;0.388974;-0.272118;-0.27813;-0.35168;-0.178945;-0.0851619;-0.107227;0.395474;0.434812;-0.396207;-0.0518357;-0.276116;0.382046;-0.283319;0.48999;0.22454;0.198935;0.217673;0.407529;0.384487;0.45999;-0.223655;0.0126194;-0.194266;0.2463
-0.0122532;-0.494812;0.433958;-0.41522;-0.320093;0.175069;-0.421995;-0.485931;0.340846;0.246178;0.00193793;-0.0660573;0.19573;-0.230094;-0.129536;-0.106281;-0.0340739;0.473388;-0.170919;0.47702;-0.15923;-0.0311441;0.000259407;-0.0621509;-0.306635;0.231132;0.177053;0.245293;0.0721305;-0.251671;-0.00502029;-0.307581;-0.00141911;0.253258;0.363857;-0.273888;0.103351;0.440428;-0.0594653;-0.346309;0.131062;-0.423582;-0.0760674;0.382717;0.34582;0.408536;-0.0463118;-0.149678;-0.131794;0.278527;0.393338;0.298364;0.475249;-0.151814;-0.220267;0.0502487;-0.10564;0.341823;-0.280267;-0.0537889;0.123005;-0.287042;0.015183;0.0928831;-0.195425;-0.358821;0.297845;0.083697;0.192587;-0.234947;-0.0446333;0.346126;-0.266411;0.0576647;-0.370632;-0.227897;-0.199087;-0.248802;0.0671865;0.288232;-0.390286;-0.283624;-0.391751;-0.478942;-0.155049;-0.296625;0.0866573;0.215079;0.0337687;0.350154;0.430784;-0.441893;0.192862;0.364681;-0.258415;0.0719779;-0.217093;-0.212546;0.130726;0.223167
-0.499451;-0.260002;0.099353;0.410916;-0.0603198;-0.433958;-0.260369;0.488189;-0.346919;-0.228172;-0.460631;0.472381;-0.354244;-0.329035;0.0718253;-0.398495;-0.168966;0.141163;0.350948;0.392544;0.480956;0.397977;0.134602;-0.142384;0.201926;0.193045;-0.0442671;-0.464812;0.467101;0.341731;0.163503;0.491455;0.236564;-0.0124363;-0.244499;-0.0511032;-0.303125;-0.490905;0.28225;-0.301935;-0.349391;0.475585;-0.395138;-0.0511338;-0.412076;-0.442412;-0.211875;-0.222831;-0.0291604;-0.200583;-0.0912046;-0.175924;-0.238426;0.158437;0.0619678;0.402585;-0.273461;-0.281243;0.345332;-0.330683;-0.453276;0.484863;0.103442;0.0167394;0.266076;0.161336;0.213187;0.342189;0.108905;-0.174459;-0.308924;0.350368;0.19805;-0.101215;0.404569;-0.454924;0.204062;0.32281;0.167592;0.0669118;0.457945;0.347407;0.00263985;0.0324259;-0.442503;-0.164205;-0.150197;-0.467925;-0.000564592;0.493866;-0.495666;-0.0576647;-0.13216;-0.0709708;0.0640736;-0.291589;0.110767;-0.0538804;-0.332118;0.254082
0.435789;-0.0146947;-0.193777;0.174734;0.356136;0.109088;-0.014481;0.369747;0.41821;0.444334;0.026841;0.270745;0.142232;0.485504;-0.218833;-0.178488;-0.293115;0.165761;-0.458647;0.366543;-0.0905026;0.101581;-0.0669424;0.103565;0.432585;-0.0823542;-0.434812;0.257195;-0.0513779;0.0579699;0.221458;-0.370846;0.0937681;-0.0103916;-0.125965;-0.317866;-0.158071;0.205374;0.301141;-0.187338;0.310694;-0.068804;-0.411191;-0.030076;-0.470244;-0.0545824;0.29931;0.276574;0.204123;0.415098;-0.413968;-0.192465;0.00190741;0.156453;0.0379803;0.183493;0.399442;0.225394;-0.467193;0.134968;-0.386074;0.244194;-0.118091;-0.306726;-0.34463;0.370998;-0.45294;0.164907;0.0287637;0.317743;0.211051;-0.454985;0.118061;0.323756;0.482696;-0.47293;-0.217063;0.490112;-0.481811;-0.235984;0.19982;0.381893;-0.16039;-0.462096;0.478057;0.304193;0.131825;0.493896;0.0830561;0.158132;0.299249;-0.405057;-0.40289;0.28341;-0.436399;-0.0464644;-0.150624;0.193075;-0.115833;-0.303552
-0.0538499;-0.392422;0.481079;-0.480804;0.233207;-0.306513;-0.256249;0.0859859;-0.279656;-0.0862606;0.305322;-0.0683767;0.000839259;0.395535;-0.435972;0.0218055;0.195608;0.221793;0.433622;-0.37225;-0.0455489;-0.446959;-0.397092;-0.328486;0.044969;-0.0146336;0.0870846;0.198202;-0.439268;0.0509201;0.350459;0.13155;0.279901;0.267571;-0.216605;-0.0311441;0.20513;-0.356807;-0.186239;-0.428343;-0.183157;0.0417951;0.434355;-0.291742;0.0703604;0.316614;0.427519;-0.495422;-0.331507;-0.382443;0.0685598;0.459441;-0.359249;-0.221458;-0.411313;0.18041;-0.239616;0.191153;0.179128;0.496918;-0.16924;0.0706961;-0.182821;0.106159;0.372005;-0.478515;-0.303674;0.408902;-0.260826;0.30694;-0.459441;-0.309565;0.203513;-0.269097;-0.414823;0.304224;0.0277871;-0.463073;-0.495575;0.012833;0.0669118;0.230949;0.0681631;0.144337;-0.074572;-0.265679;-0.192404;-0.281549;0.202628;-0.22692;0.472839;0.20043;-0.143056;-0.0901364;-0.437956;0.0375225;0.220817;-0.375484;-0.295465;-0.36462
-0.303095;0.34994;0.178365;-0.0701468;-0.332301;-0.13094;0.34405;0.210868;-0.351344;-0.0203406;0.275658;0.354457;0.217246;-0.167257;0.370174;0.119282;-0.251793;-0.148793;0.216849;-0.336085;0.487213;-0.365291;-0.492553;-0.0590991;-0.00694296;-0.242821;0.268822;0.124134;0.480834;-0.136952;0.198874;-0.274224;0.0962096;-0.0312357;0.387478;-0.441313;-0.34695;0.375423;0.20336;0.20098;-0.135029;0.0990783;-0.372005;0.118519;-0.397885;0.224937;-0.181417;0.102283;0.205008;0.0914182;0.180013;0.176168;0.38583;-0.289117;-0.271416;-0.368404;-0.250908;0.332636;0.027604;0.345729;0.462859;-0.445311;0.47644;0.0387432;0.111072;-0.108783;0.234642;-0.372951;0.259423;0.20043;-0.438231;0.328455;-0.235191;-0.11919;-0.145222;-0.324641;0.360561;0.240745;0.163656;0.0926389;-0.451964;-0.0516526;0.466857;0.195914;0.326441;-0.0323344;0.488067;0.467193;-0.208701;-0.112629;0.334742;0.463317;0.13393;0.0483261;-0.259392;0.214103;0.0718558;0.376308;0.192679;-0.0338298
0.242882;0.32577;-0.27575;-0.0714591;-0.407468;-0.158315;-0.344569;0.176687;0.287622;-0.255303;0.0618458;0.370815;0.185751;0.446654;0.25341;0.445067;0.393307;0.402341;0.0438704;-0.0765862;-0.0577868;0.203909;0.0927915;0.0190588;0.117328;-0.275933;0.101032;0.173055;0.465148;0.214286;0.140797;0.18862;0.0157628;-0.235618;-0.0980407;-0.382321;-0.251183;0.0298318;0.13564;-0.444731;-0.165242;-0.367428;0.0759453;0.498627;-0.317194;0.142232;0.121937;0.426786;0.326899;0.0434736;-0.439665;-0.242637;0.180624;-0.404019;-0.38937;0.336512;-0.307398;-0.00669881;-0.426481;0.117939;-0.0662709;-0.273278;0.364376;-0.311792;-0.353267;-0.439512;0.212363;0.293603;-0.209464;0.0245827;-0.192618;-0.474731;0.109668;-0.168661;-0.325098;0.319056;-0.23983;0.122272;0.0609607;0.425504;-0.476073;-0.0491195;0.108081;0.00743126;-0.358577;-0.0914487;-0.396664;-0.479614;-0.204398;0.298669;0.0802789;-0.467559;0.276727;-0.233573;-0.444975;-0.360042;-0.139393;-0.210501;-0.320887;0.135212
0.430845;-0.0634938;-0.41113;-0.417966;-0.123798;0.29928;0.234001;-0.0436567;0.295099;0.00514237;0.4653;-0.493133;0.0374004;0.215659;-0.336207;-0.00685141;-0.383999;-0.482208;0.192251;0.456694;0.0182958;0.114032;0.449614;0.181478;0.4494;-0.282617;-0.189261;0.000228889;0.0384991;-0.441893;0.232139;-0.397275;-0.460936;0.407498;-0.195395;0.00218207;-0.445402;0.0258339;0.0347148;-0.18392;0.320948;-0.0594958;0.135884;-0.482147;-0.42346;-0.039903;0.110675;0.315363;-0.44818;0.331263;-0.0950499;-0.187368;-0.391049;-0.0554979;0.416135;0.111103;-0.436674;0.494934;-0.364406;-0.49353;0.217765;0.00425733;-0.292383;0.437651;0.140889;-0.389431;0.185232;-0.156453;0.221244;0.0318155;0.264794;-0.415006;0.0274514;-0.390713;0.280114;0.0866268;-0.493194;0.337764;0.237907;-0.14388;0.0526292;-0.212424;-0.324732;0.036729;0.472228;0.326502;-0.379299;-0.351222;-0.113605;-0.454466;-0.0599841;-0.322413;0.0919675;0.297143;-0.151997;-0.337397;0.41818;0.250175;-0.132221;-0.0547349
-0.391232;0.369198;0.0182043;0.231132;-0.239433;0.223685;-0.488617;-0.377438;-0.150044;-0.466582;-0.258904;-0.221213;-0.12157;-0.143178;-0.156697;0.358669;0.168783;-0.172414;-0.389492;0.403165;-0.157369;-0.152974;0.0406659;-0.186453;0.0110019;-0.36285;0.301965;-0.418394;-0.290948;-0.4382;0.395413;-0.0723136;0.106159;0.121235;0.295221;0.00367748;0.0225074;-0.472991;-0.15041;0.316401;0.283929;-0.236778;0.222068;-0.472045;-0.0544908;0.0401166;0.155416;-0.210532;-0.0842463;0.0467086;-0.161092;0.264092;0.0123753;-0.0916013;-0.339625;-0.00428785;-0.0189978;0.256066;-0.375576;-0.220145;-0.492065;0.312403;-0.282403;0.192465;-0.241508;0.402463;0.00233467;0.433256;0.471709;-0.205985;-0.279321;0.140034;0.142994;0.274468;0.188833;-0.170583;0.32638;0.369991;-0.235862;0.121387;-0.413633;-0.386074;-0.334559;0.402738;0.13216;-0.230033;-0.0715812;0.0865963;-0.335749;0.416746;0.276605;0.123798;0.465484;-0.200034;0.190085;-0.0776238;0.267296;0.358577;-0.0477157;0.331568
-0.0771966;-0.169454;-0.0430464;-0.153401;0.4176;0.345668;0.0557421;-0.309748;0.249748;0.410154;0.228355;-0.0721305;-0.289789;0.190695;0.356075;0.271477;0.0948668;0.00328074;0.380093;-0.270013;0.379421;0.41345;-0.374111;-0.238853;0.388485;-0.146077;-0.42523;0.0815912;-0.00987274;0.166616;-0.135914;-0.208335;0.346828;-0.0262001;-0.203055;-0.0294351;-0.245506;0.286676;0.14333;0.398862;0.100696;0.255547;-0.486908;-0.436338;0.473052;0.469573;0.0828425;-0.396054;-0.0504929;-0.288934;-0.0429243;0.350978;0.101276;-0.428495;-0.054033;0.120838;0.240165;-0.165151;0.039964;0.415494;-0.0590381;0.0348064;0.362972;0.187796;-0.129078;0.0921812;-0.114582;-0.172384;0.456664;0.438536;-0.321619;-0.475311;0.420438;-0.467589;-0.0102084;0.164785;-0.283074;0.174459;-0.0758538;0.415098;-0.0985595;-0.472594;0.00727866;0.155812;0.461028;0.247734;0.416807;-0.086932;0.139851;-0.365444;0.160054;0.450621;-0.210044;0.202689;-0.0196081;0.175466;-0.221427;-0.414701;0.2734;-0.485382
0.483306;0.173574;-0.205985;-0.0813166;-0.093524;0.398282;0.435972;-0.351588;-0.0598621;0.0605029;-0.135365;0.00102237;0.31222;-0.382443;0.284875;0.132069;-0.254082;-0.170003;0.124561;0.129353;0.363216;-0.323817;-0.0842463;0.494903;-0.136464;-0.0590381;0.154134;-0.308557;-0.490539;0.384152;0.41818;-0.0901669;0.449889;-0.104633;-0.470519;-0.287103;0.412626;-0.458251;0.0354778;-0.28692;0.297235;-0.0859554;-0.204855;-0.0608997;-0.300317;-0.321924;-0.0498215;0.0485397;-0.10036;-0.262505;0.0616321;0.0423444;0.342097;-0.0859554;-0.305933;-0.362606;0.144337;-0.448332;0.228202;-0.0461898;-0.34048;-0.0492111;0.183248;-0.327387;-0.371822;0.0387127;-0.169637;0.320673;-0.0511948;0.182882;0.378414;-0.161489;-0.401028;-0.447264;-0.487182;0.0880001;-0.262108;-0.0632496;-0.430052;0.45529;-0.477996;0.420713;0.126759;0.205985;-0.335322;-0.16625;0.288202;-0.251518;0.271325;0.368099;0.452818;0.46176;-0.0190283;0.27871;-0.161611;0.243645;-0.0538499;0.069689;-0.451537;0.436522
-0.318628;0.0728935;0.461089;0.285699;0.312464;-0.174551;-0.279015;-0.412381;0.257195;0.152577;0.117023;-0.316401;-0.130879;0.361293;0.124866;0.455535;0.0753349;0.452177;-0.102435;0.479827;-0.460417;-0.245354;-0.0155492;-0.00416578;0.38226;-0.107501;0.0596789;-0.155141;-0.0119785;0.485595;0.441862;0.0363323;-0.067217;0.494201;-0.313929;0.096881;-0.439116;-0.387692;0.029313;-0.140919;0.244133;-0.384182;-0.0294351;-0.153981;-0.146626;0.072161;-0.232933;-0.0926084;0.474731;0.317347;0.127918;0.264214;-0.0993835;0.107135;-0.114093;-0.382229;-0.0719474;-0.151875;-0.0706961;0.479461;-0.00572222;-0.185018;0.174795;0.377194;0.181814;0.260552;-0.137715;0.0955077;0.12392;-0.175314;-0.0463424;-0.395199;-0.158467;0.148091;-0.0840327;-0.163656;0.043321;0.0975219;-0.329127;-0.0406964;-0.08034;-0.491394;-0.00877407;0.31579;-0.0379498;-0.14745;0.126148;-0.32934;-0.160665;-0.267296;-0.0641041;-0.0681936;-0.138356;-0.382321;0.317896;-0.00260933;0.0634632;-0.283074;0.204764;-0.113666
0.437254;0.40524;-0.0839106;-0.19161;0.348506;0.10213;0.144887;0.329676;-0.336177;0.012833;0.359951;0.290185;-0.376705;-0.363369;-0.0943175;-0.370113;-0.0122227;0.449187;-0.419614;-0.221305;0.493286;-0.335322;-0.0258644;-0.232383;0.143086;0.484802;0.347926;-0.283471;0.369015;-0.26043;0.334834;-0.144612;-0.407071;0.327815;0.245048;-0.265221;0.220298;0.361965;0.255242;-0.217795;-0.403989;0.424802;0.264214;-0.139729;-0.044908;-0.156758;-0.304224;-0.016831;-0.101978;0.386471;0.0301981;-0.152547;0.423368;0.293725;0.345119;0.333827;0.0478683;0.0385601;-0.352077;-0.364559;0.0459151;-0.264092;0.280114;0.169851;0.33932;-0.402493;0.1751;-0.0699026;0.0685293;0.342891;0.251152;0.431608;0.377255;-0.0287027;-0.280175;-0.0889767;0.440611;-0.198508;-0.407804;-0.0665456;0.269158;0.185202;0.163228;0.0636769;0.319239;-0.199332;-0.24395;-0.241447;0.441435;-0.0674001;-0.492767;0.136219;0.198019;-0.355342;0.474425;-0.221763;0.0808588;0.250786;-0.152852;0.221732
-0.338984;-0.00856044;-0.456999;0.296594;0.201102;0.321589;-0.0307474;-0.0348369;-0.238243;-0.284234;0.231925;-0.180136;0.333857;0.397397;-0.42645;-0.104633;0.0268715;-0.102252;0.320551;-0.0487228;-0.1545;-0.148274;0.121448;-0.117847;0.0852535;-0.0641652;-0.24218;0.410306;-0.12157;0.35519;0.308313;-0.281701;-0.0781426;-0.214621;-0.0524766;0.177206;-0.0825983;0.176046;0.161153;-0.173421;-0.243339;0.32165;-0.341884;-0.237236;-0.0189673;-0.393765;-0.238639;0.0918149;-0.451567;-0.171682;-0.44174;-0.397336;0.438108;-0.488037;-0.407712;-0.18215;0.12392;-0.38937;0.376736;-0.423032;0.449034;0.00962859;-0.488098;-0.190268;-0.0686514;-0.266259;-0.312464;-0.34521;0.0323038;0.266411;0.35049;-0.419492;0.419706;-0.114032;0.320338;-0.336207;-0.244163;0.426298;0.133198;-0.316492;0.0424665;0.367092;0.395352;0.184622;0.0533921;-0.33932;-0.0721;0.169149;-0.113483;0.201529;-0.0163427;-0.429502;0.165944;0.344234;0.317621;0.167165;-0.0739616;0.376858;0.392239;0.0919065
-0.291864;0.355617;0.498413;-0.406583;-0.098468;0.20687;0.0742058;0.205771;-0.140248;-0.496735;0.00175481;-0.0177465;-0.176443;-0.180105;0.164022;-0.0496994;0.181936;0.0764031;0.042497;0.443144;0.101794;-0.227775;-0.362545;0.464446;0.0587329;-0.479644;0.491302;-0.257042;0.298822;-0.213797;0.0969726;-0.367702;-0.236473;0.237815;0.47235;-0.486969;-0.490967;-0.38638;0.181722;-0.147206;0.15038;-0.485778;-0.413938;-0.418973;0.362758;0.0239723;-0.397244;-0.0658132;-0.0296182;-0.431059;-0.243309;0.428098;-0.34521;-0.0822932;-0.196768;0.113453;-0.186819;-0.269341;-0.294977;-0.229209;-0.401334;-0.435423;0.243461;0.201071;-0.326685;-0.261559;0.0460067;0.268273;-0.294671;-0.0331278;0.311121;-0.149709;0.141652;0.167379;0.0113376;0.354152;0.287164;0.347682;-0.143574;-0.0481124;0.221763;-0.0206153;-0.202689;0.193625;-0.413266;-0.235801;0.352351;0.153554;-0.22869;0.199026;-0.462767;-0.234458;-0.469024;-0.153951;-0.32046;-0.495544;-0.431425;-0.28576;-0.100696;0.0693228
0.109821;-0.341548;-0.463195;0.224815;0.00373852;0.202231;0.309137;0.457091;0.380245;-0.30932;0.476043;-0.399625;0.395291;0.180044;-0.202658;0.0905942;0.095172;-0.0308084;-0.437681;0.00196844;-0.0685293;0.180563;0.472533;-0.476653;-0.0427107;0.295862;-0.340571;0.030076;0.236717;0.053148;-0.381588;0.407712;0.498138;-0.388516;0.339564;-0.215751;-0.436949;0.389523;0.417112;0.326624;-0.418271;0.483947;0.41879;0.257805;-0.393612;0.0744804;0.296167;-0.248985;-0.466185;-0.278649;0.117084;-0.142811;-0.0518662;-0.038377;-0.0982849;0.121662;-0.104541;0.110553;-0.156514;0.0466781;0.121326;-0.325709;-0.304193;0.0560778;-0.197867;0.280297;-0.393704;0.117725;0.302271;-0.468749;0.179312;-0.319208;-0.0124363;-0.31048;0.048265;0.0836055;-0.373104;-0.402524;-0.260704;0.0883053;0.412717;-0.259331;0.106616;-0.301019;0.13213;-0.140126;0.121967;-0.0809809;-0.480499;0.0179296;0.298364;-0.395688;0.322199;-0.471831;-0.469878;0.0683767;0.109973;-0.349544;-0.369747;-0.404477
0.360317;0.460753;0.345973;-0.48117;-0.150044;-0.199087;0.134266;0.0184484;-0.115284;-0.284875;0.478545;0.296991;0.398129;0.278405;0.0273598;0.288293;0.450468;0.224174;0.336665;-0.444639;0.15981;0.277001;0.496948;-0.465697;-0.404508;-0.403531;0.426328;-0.220145;-0.333949;0.238884;0.110889;0.369381;-0.467711;0.0424055;-0.42645;0.121326;-0.422697;-0.157277;-0.147267;-0.215781;0.46411;0.424772;-0.22805;-0.147114;0.312525;0.116993;-0.218192;0.167348;-0.47354;0.43466;-0.34463;-0.0481124;0.302911;-0.321986;0.318415;0.449248;0.353603;-0.107898;-0.404447;-0.193045;-0.129017;0.093585;0.15392;0.372066;0.269707;0.172048;0.424894;0.0499435;-0.265648;0.370907;-0.213981;-0.115833;0.105518;-0.245079;-0.216147;-0.486938;0.134693;-0.429868;-0.321131;-0.340327;-0.360347;-0.0973388;0.0940123;0.310938;-0.408383;-0.457427;0.0481429;-0.257195;-0.334986;0.459258;0.155293;0.0473495;0.281671;-0.206076;0.271294;0.317713;-0.31988;-0.22338;0.368892;0.147786
0.0420087;0.472594;-0.0773797;-0.397336;0.20571;-0.23455;-0.415189;0.315943;-0.000350963;0.482879;0.433622;-0.130024;-0.274163;0.0708792;-0.425321;0.116108;-0.174947;-0.276543;0.377804;-0.409848;0.254692;0.373379;0.12917;-0.319971;-0.388791;0.45056;0.381222;-0.298334;-0.472442;-0.185598;-0.219199;-0.460967;0.377529;-0.233848;-0.342677;0.00541704;-0.182394;-0.452666;0.151631;-0.419004;0.19866;0.231346;0.167348;-0.31576;0.377071;0.413175;-0.0742363;0.132374;-0.0415204;-0.395352;0.405301;-0.0524766;-0.496338;-0.258843;0.447142;0.165212;-0.270989;-0.294733;-0.191855;-0.199423;0.232139;0.274957;-0.0578173;-0.370693;-0.22573;0.401303;-0.208853;-0.0606861;-0.349483;0.223014;0.367336;-0.0908689;0.179189;-0.27694;0.407712;-0.230247;-0.158406;0.434629;-0.118152;0.40585;0.103504;0.101489;-0.365261;-0.447508;0.44937;-0.299463;-0.0546129;0.244316;-0.339259;-0.268822;0.282861;-0.327723;-0.129719;0.178945;0.0406964;0.105335;0.422025;0.058916;-0.468657;0.032548
0.0698721;-0.0540635;0.0212256;0.182394;-0.454985;0.396786;0.0884884;-0.425047;0.0240028;-0.328394;0.0838191;0.263878;-0.472076;-0.339534;-0.023423;-0.0761589;-0.214713;0.420743;0.366359;-0.0599536;-0.411771;0.232658;-0.0577563;0.155904;0.174642;-0.421628;0.170431;-0.0648976;-0.333338;-0.0488144;0.491485;-0.305445;0.0973998;-0.0990478;-0.191092;-0.435911;0.0562304;0.222404;-0.450224;0.329585;0.485046;-0.308161;0.0788141;0.31518;-0.344142;0.259392;-0.252556;0.36166;-0.1386;0.10213;0.35873;-0.443602;-0.150349;0.44525;0.329585;-0.128224;-0.46588;-0.443449;0.331538;0.367916;0.0104526;-0.178518;-0.30871;0.115986;0.4111;0.304193;0.332179;0.498871;-0.371029;-0.298822;-0.462065;0.0446333;0.441801;0.0941038;0.320185;0.449614;0.0676138;0.407254;-0.329768;-0.0528123;-0.316279;-0.023545;0.477416;-0.321467;-0.060625;0.135823;0.394253;0.22158;-0.00608844;0.227989;0.43057;-0.0657521;0.111805;-0.0554979;-0.443175;0.268761;0.345149;0.40286;0.0990783;-0.2875
0.33581;-0.134419;0.205588;-0.487671;-0.232505;-0.491424;0.167562;-0.161702;0.499725;0.144368;-0.125904;-0.456999;-0.085345;0.306665;0.183584;0.172933;-0.492004;-0.397519;0.492035;0.388089;0.255455;-0.26165;0.280236;0.445921;-0.214621;0.126118;-0.0796381;-0.0939512;-0.109912;0.475585;-0.476135;0.212088;0.405515;0.279351;0.11153;0.306207;-0.00828578;-0.403378;-0.113208;-0.066332;-0.154958;0.0422834;-0.105579;-0.207083;-0.127216;0.386898;-0.155324;0.187277;0.362514;-0.325434;0.384884;0.335444;-0.323664;0.264702;-0.400449;-0.00410474;0.00218207;-0.296503;0.0204321;-0.437681;-0.307398;-0.167837;-0.0727714;0.285943;0.223045;0.0374004;0.220817;-0.219077;0.300287;0.0508591;-0.350002;0.469359;0.152638;0.203757;-0.327113;0.121967;-0.467071;-0.457427;-0.265587;0.150563;0.465941;-0.287317;0.240959;-0.19097;0.270562;0.015305;0.0137486;-0.0415204;-0.110614;-0.454924;-0.49823;-0.446806;0.0557115;-0.1863;-0.464171;-0.496338;0.329737;-0.234001;-0.095172;0.0725272
-0.464812;-0.404843;-0.464446;0.460265;-0.372188;0.262841;-0.442625;-0.263573;-0.473724;0.130482;0.0327006;-0.227073;-0.0623035;-0.391354;-0.36523;0.335444;-0.291772;0.229606;0.0543382;-0.0108188;-0.269555;0.0504929;0.415464;-0.0243385;-0.061388;-0.207541;0.482849;-0.283929;0.423032;-0.377407;-0.0588549;0.0982238;0.194754;-0.015305;-0.471892;0.202475;-0.367855;0.384793;0.302087;-0.376125;0.140126;-0.461516;-0.174306;0.0459151;0.0534532;-0.214438;-0.45294;0.222556;0.315821;0.178426;0.159078;0.0247963;-0.0349284;0.150655;0.218741;-0.292169;-0.043199;0.172018;-0.192526;0.0552843;0.356685;0.295953;-0.486389;-0.44351;0.4335;0.00578326;-0.481506;0.273431;-0.316492;0.266167;0.0673391;-0.446898;0.318079;0.185812;0.105884;0.242149;0.245079;0.197836;0.364742;-0.44055;0.0759148;0.163717;-0.328089;0.283288;0.189169;0.307703;-0.224876;0.409146;0.381985;0.387204;0.455351;-0.0654469;0.140767;0.00599689;0.212302;-0.0728935;0.062212;0.476104;0.303858;-0.46823
0.455931;0.134754;0.419828;0.0741752;-0.340022;-0.477142;-0.228111;-0.0843684;0.100696;0.330988;-0.118976;0.216514;-0.372524;-0.481292;-0.15688;0.263939;0.154958;-0.484985;0.354427;-0.479736;0.14214;-0.0959349;0.278222;0.0485397;-0.0585192;-0.496063;0.0335551;0.471038;-0.452055;0.244469;-0.412473;0.117389;-0.220298;-0.25045;0.332423;-0.481658;0.421995;0.0313883;-0.371334;-0.0984375;0.364681;0.201865;0.295434;-0.154653;0.26574;-0.392026;-0.170827;-0.252709;-0.229118;0.297388;-0.367367;0.263176;-0.178488;0.219932;0.034196;0.373043;0.0814081;0.0723136;0.380001;0.230522;0.0139927;0.191061;-0.0208289;0.451445;-0.358547;0.400876;0.184317;-0.00175481;-0.483642;0.224265;0.387448;0.316401;-0.0623341;0.358608;0.213584;-0.121174;-0.0580004;-0.17275;-0.307154;-0.204917;0.101672;-0.289422;-0.307947;-0.359035;-0.339412;-0.136647;0.3876;0.16512;0.0392315;-0.475249;0.0603809;0.0290078;0.239921;0.227226;-0.00538652;0.236259;0.184011;-0.0897702;-0.239128;0.40759
-0.488189;-0.354335;-0.334468;-0.442228;-0.123432;-0.119465;-0.352504;-0.468963;0.26397;-0.396512;0.403134;-0.249626;0.368252;0.341823;0.0211951;0.438139;-0.443907;0.394162;-0.091113;-0.0368816;0.450011;0.20632;0.28988;0.471282;-0.338557;0.295618;0.0560167;0.455565;-0.293603;-0.369564;0.253777;0.421445;-0.366878;-0.128895;-0.0132298;0.304773;0.394528;0.378262;0.0153966;-0.202628;0.495605;0.395016;-0.164785;0.237419;-0.0522324;0.309503;-0.485199;0.220298;0.0610218;0.403409;0.0749687;-0.413388;0.104938;-0.00685141;-0.310205;-0.0566881;0.370693;0.370113;0.491729;0.374203;-0.336055;0.445524;0.260918;0.496155;-0.238578;-0.492767;-0.219047;-0.482513;-0.139149;-0.00642415;0.141743;0.454436;-0.443022;-0.308771;-0.229362;0.161672;0.373775;0.263298;0.473998;0.334407;0.384548;-0.486633;0.268853;0.136464;-0.0483871;0.292779;0.287713;-0.387661;0.115894;0.455809;-0.463683;-0.46173;-0.331751;-0.22927;-0.213584;-0.130818;0.43405;0.192007;0.384365;0.437468
-0.198721;0.399686;0.257195;0.0600452;0.0246437;0.0129856;-0.102832;-0.290033;0.335871;0.384091;-0.39407;-0.0913877;0.392178;0.377712;-0.220145;-0.00529496;0.0937376;0.0439009;-0.482543;0.426847;0.301599;-0.410947;0.330775;-0.224723;0.487152;-0.447356;0.240715;-0.44058;-0.155385;-0.405423;0.0393536;-0.412687;-0.102374;-0.19921;-0.00120548;-0.0466475;0.131153;-0.0877865;-0.191214;0.350337;-0.319971;0.38403;0.024247;-0.147633;-0.394375;-0.318842;-0.196493;-0.175314;-0.20867;-0.283532;0.219199;0.116565;-0.0113681;-0.162435;-0.0778985;0.193808;0.0446638;0.269036;0.440458;0.366909;-0.157033;0.415433;-0.105335;-0.228904;-0.011948;-0.0673696;0.409696;0.254723;-0.234581;-0.0277871;0.0056917;-0.16802;0.408475;-0.493439;0.248619;-0.143666;0.202933;0.139821;0.44171;-0.429014;0.460692;0.311731;-0.360866;0.192495;-0.106006;0.300195;0.263726;0.183737;0.421171;-0.0711234;-0.391507;-0.127125;-0.064745;0.386227;0.00517289;0.0739311;0.0669424;0.0619678;-0.060625;-0.134236
0.472716;-0.192526;-0.105579;0.185476;-0.320368;-0.473663;0.20513;0.392453;0.0182348;-0.499023;-0.297632;0.459471;-0.325739;0.362178;0.429991;-0.0531785;0.391018;0.107044;0.215232;0.416227;-0.14684;0.0725272;0.37405;0.439909;0.283776;0.269921;0.332118;-0.137715;0.284936;-0.0131077;0.443571;0.469329;0.454375;0.0637379;-0.212302;-0.277459;-0.191794;-0.250755;0.226066;-0.286126;-0.457915;-0.456786;0.499939;-0.00285348;0.160878;-0.0685598;-0.349513;0.453124;-0.490814;0.419462;-0.457488;-0.156362;-0.266442;-0.228507;-0.227561;0.211814;-0.292901;-0.139332;-0.257103;-0.216117;-0.0511338;0.0367901;0.184194;-0.470519;-0.431974;0.418027;-0.0954466;0.0362407;0.265191;0.0124668;0.049913;-0.144978;-0.0788141;0.0763726;-0.345149;-0.0275735;-0.19454;-0.385403;-0.234184;-0.433958;-0.0656606;0.430143;-0.0822932;-0.300348;-0.388638;-0.371456;0.245415;0.113636;-0.319819;-0.016068;0.011185;-0.232292;-0.478088;0.0722526;-0.170492;0.291711;0.327692;-0.421476;0.370174;0.000808741
-0.322321;-0.315638;-0.178549;-0.368404;-0.0414899;-0.0585498;-0.106006;0.454833;-0.350673;-0.462188;-0.352748;-0.0783563;0.00852992;0.362911;-0.0808283;0.499176;0.191946;-0.222251;-0.359218;-0.148335;0.334071;0.49646;-0.183065;0.0239113;-0.376492;0.485107;0.453978;-0.217521;-0.0965453;0.284845;0.216086;-0.228233;-0.170827;-0.335353;0.0917234;-0.359523;0.1133;0.0108188;-0.149586;-0.204794;-0.110004;0.358577;-0.42761;-0.0628834;-0.270013;0.47293;0.0314798;0.038316;0.336818;-0.11565;0.21279;-0.0865352;0.456145;0.286065;-0.253655;0.0439924;0.029191;0.198447;-0.46176;-0.190237;0.121754;0.307642;0.380062;-0.214072;-0.340602;0.384243;-0.181997;0.259911;-0.498993;0.18804;0.0634022;-0.374386;-0.118793;0.265587;0.225089;-0.189047;-0.246696;0.0465255;-0.354427;0.394467;0.06386;0.144917;-0.378262;-0.432157;0.489959;0.272057;0.291803;-0.399411;-0.329096;-0.333399;-0.0306253;-0.0373699;0.4653;0.448973;-0.29397;-0.238762;0.264275;-0.194784;0.363796;-0.350764
-0.106616;0.407895;-0.0215003;-0.140553;0.132984;-0.0211646;-0.30459;-0.477081;0.389279;0.401364;0.0585192;-0.073748;-0.45291;0.287225;-0.0656606;-0.135182;-0.464629;0.404782;-0.148;-0.252251;-0.363216;-0.124775;0.0405133;-0.388607;0.072924;-0.457945;-0.0557115;-0.302973;-0.103992;0.421079;0.498932;-0.250847;-0.28161;-0.363582;-0.0524461;-0.308771;0.311548;-0.250481;0.479736;-0.166036;-0.395108;-0.113666;0.473724;0.273644;0.116901;-0.429746;-0.376553;-0.364315;0.348537;-0.33401;-0.26809;-0.179373;0.171194;0.341121;0.45114;-0.0922422;-0.260125;0.451445;-0.248711;-0.12624;-0.0369732;0.256401;0.39935;0.28164;0.0603198;-0.128956;0.228599;-0.403226;0.239433;0.360134;0.480621;0.28634;0.0235145;-0.118488;0.000747703;0.357692;0.259819;-0.215659;-0.43173;0.493042;0.341792;0.0686209;0.142659;0.435667;-0.325251;0.112384;0.30694;-0.215476;-0.0825068;0.0728019;-0.310175;-0.146748;0.0300455;-0.132862;-0.352626;-0.250206;-0.34048;0.140217;-0.0140843;0.333247
-0.104572;0.124409;0.00685141;0.203543;-0.075396;-0.201651;-0.344508;0.380856;-0.381344;0.25103;0.0541856;-0.169362;-0.416318;-0.343196;0.201712;0.4906;-0.295618;-0.23162;0.119922;-0.0441755;-0.286493;0.333216;0.228874;0.478484;-0.182028;0.34048;0.231559;0.438108;-0.0871456;-0.496185;0.290094;-0.0611133;0.414487;-0.112751;-0.226402;-0.309748;0.244011;0.0794244;0.360134;-0.173299;-0.00746178;-0.176931;-0.227195;-0.176473;-0.200858;-0.493957;-0.0672781;0.164357;-0.02678;0.419706;-0.191733;-0.0829951;-0.108173;0.190909;-0.256371;-0.12627;0.204093;0.294763;-0.453368;0.412198;-0.126759;0.0529038;0.117939;-0.266686;0.0879086;0.0249794;-0.0977966;-0.367458;-0.426267;0.198599;-0.0570849;0.460234;0.336726;-0.115497;-0.177908;0.428068;0.369259;-0.276971;0.265679;-0.0828425;0.350642;-0.291833;-0.303522;-0.0553148;-0.12743;-0.36465;-0.484375;0.444548;0.221763;-0.12035;0.393674;-0.481017;0.249901;-0.0902585;0.352504;0.317377;0.363216;0.445006;-0.0798212;-0.302423
0.16213;-0.338984;0.1386;0.327509;-0.237205;0.350642;-0.293847;0.38171;0.331355;0.445677;0.0366985;0.490478;-0.137776;-0.193106;-0.484771;0.0967284;-0.267815;-0.312647;-0.267357;-0.122394;0.0607166;-0.223899;-0.020127;0.386715;0.408322;0.227958;-0.21691;-0.426908;-0.155904;-0.413999;-0.238578;0.333918;-0.0863216;0.00309763;-0.412076;-0.244072;-0.461394;-0.332026;0.335414;0.20333;0.379055;-0.15685;-0.0117649;-0.0930357;-0.310083;0.420255;0.401517;0.212241;0.20336;0.398923;0.488678;0.141041;0.0669118;0.19628;-0.0811945;0.424741;0.370235;0.192343;0.105274;-0.336146;0.290643;0.418058;-0.23397;-0.228813;0.389187;-0.207602;-0.161885;0.354183;0.0882443;-0.18569;0.0265053;0.192953;-0.137837;0.115925;-0.23104;0.470641;0.171865;-0.216239;-0.10152;-0.0884274;-0.325037;-0.146779;-0.216147;0.484069;-0.257469;-0.116474;0.230277;-0.17626;-0.186392;0.0189367;-0.0791803;0.0342265;-0.380947;0.44232;-0.319727;0.0204932;-0.194327;-0.372158;0.342494;0.0121006
-0.00801111;0.298669;-0.497681;0.431852;-0.213157;0.495697;-0.0661489;-0.233329;-0.197592;-0.335658;-0.0443281;-0.403623;0.192221;0.164815;-0.475219;0.437193;-0.25396;0.112568;0.340266;-0.444304;0.0727103;-0.0449385;-0.2622;0.410062;-0.0981017;-0.308771;-0.343196;-0.125996;0.0364849;0.139546;0.460692;-0.0991394;-0.013596;0.161336;-0.107959;-0.217399;-0.184561;0.245384;-0.0559557;-0.338496;0.232231;0.360073;-0.0712455;0.449492;0.456481;0.479461;-0.475829;-0.187826;-0.107898;-0.310755;0.0810419;0.373745;0.137959;0.279351;-0.0294351;-0.201651;0.367885;-0.271416;0.254448;-0.0947752;-0.388882;-0.011124;0.458556;0.472869;-0.0356304;-0.0261391;-0.268975;-0.110981;0.266564;-0.340846;0.166982;0.302881;0.268151;-0.299738;-0.420316;0.434996;-0.174551;-0.0258644;-0.498962;-0.297937;0.151692;-0.0492111;-0.308832;-0.187735;-0.343898;0.301538;-0.0603809;0.487518;0.402066;-0.350703;0.438292;0.468902;-0.2846;-0.13152;-0.491821;0.46173;-0.0251015;-0.161;-0.0390179;0.176138
0.11504;0.0625172;-0.123646;0.119739;-0.126637;0.0455794;0.0767388;0.298303;0.313044;-0.142903;0.0805841;0.48114;-0.348018;-0.234428;-0.184591;0.187033;-0.0698416;0.362697;-0.128224;0.0471053;-0.454375;0.0796381;-0.420377;-0.299036;0.191336;-0.497803;-0.312006;-0.117664;0.22335;0.390835;-0.0702078;-0.14977;-0.00804163;-0.187918;0.252098;-0.177755;0.167226;0.287805;-0.0056917;-0.43405;-0.410611;0.367885;-0.205679;-0.19512;-0.323542;-0.466765;-0.495239;-0.405118;-0.0806757;-0.164846;-0.0998718;0.327937;0.496185;0.177053;0.456114;-0.481292;-0.462767;-0.354823;-0.0173803;0.0308695;0.0712455;-0.205435;0.391568;-0.101123;0.184713;0.295831;0.380398;0.401944;0.425382;-0.149953;0.313135;-0.4541;-0.0190588;-0.2228;0.0800348;-0.38995;-0.3352;0.184744;0.216575;-0.0859859;0.239097;0.122486;0.0639515;0.462127;0.10741;-0.369778;0.251518;-0.379391;-0.0923643;0.0838496;0.282891;0.484741;0.0364849;-0.253197;-0.493286;0.0908689;-0.363124;-0.0670339;0.253624;0.131428
0.0796686;-0.313349;0.420194;0.327235;0.470397;0.387051;0.281671;0.114704;0.212943;0.18218;-0.18572;-0.196127;0.161153;-0.34051;0.308802;-0.137074;0.38937;-0.340846;-0.444029;0.486419;0.11333;-0.364284;0.385922;0.102496;-0.206931;0.475341;-0.158071;-0.0237281;-0.0516526;0.17391;-0.229484;-0.43527;-0.281701;0.283258;0.108661;-0.219779;-0.30343;-0.469298;-0.350551;-0.181906;0.0730766;-0.481048;-0.43231;-0.294885;-0.386471;-0.0877255;0.486511;0.225028;-0.49176;0.0150914;0.365841;0.377071;-0.378689;0.1498;-0.00489822;0.0240944;0.171377;-0.260887;0.370083;-0.113666;0.37521;-0.499695;-0.264;-0.462951;0.0856197;-0.343379;-0.421995;-0.443419;-0.0452742;-0.427335;0.33993;-0.499298;0.153676;-0.280175;0.152882;-0.16036;0.180441;0.378109;0.355098;-0.475829;-0.21337;-0.0195166;0.083636;0.334864;-0.445036;-0.493927;-0.279962;-0.32931;0.157949;-0.171529;0.470336;-0.0663625;-0.170217;0.425199;-0.138722;0.164815;0.0822932;0.354946;0.434019;0.0891598
0.196249;-0.0912961;0.41583;0.224387;-0.48059;-0.159383;-0.347957;0.210685;0.102344;-0.414457;-0.42114;0.0175024;-0.296747;0.369045;-0.48175;0.183218;-0.306238;-0.383938;0.0766167;-0.255333;-0.104389;-0.435057;-0.0719474;0.012009;-0.119312;0.492676;-0.236259;-0.154256;-0.234855;0.457518;-0.311457;-0.407987;0.0287942;-0.0342265;-0.15392;0.332057;0.391293;0.468505;-0.446257;-0.397397;0.275964;0.0944395;-0.271569;0.243278;-0.106861;-0.474273;-0.115223;-0.473083;0.473571;0.42233;0.486969;0.229637;-0.316553;0.301355;-0.0650807;-0.203574;-0.247215;0.278253;-0.0329142;0.258812;0.347346;-0.425108;-0.240135;0.060564;-0.283715;0.20217;-0.493957;0.448057;0.146413;-0.27813;-0.247246;-0.418882;0.254326;0.495849;0.280541;0.0211341;0.147542;0.326838;-0.195486;-0.24807;-0.0136876;-0.101306;0.279412;0.39053;-0.0232398;-0.0783563;0.0888546;-0.256767;0.327204;0.388546;-0.0987426;0.364193;0.198294;-0.15099;0.472442;0.271386;0.178884;0.107349;0.177145;0.477874
0.318323;0.25045;-0.449889;0.493164;0.246605;0.412076;-0.38171;0.451903;0.413938;0.179739;0.305109;0.0255287;-0.0196692;0.0503708;-0.311426;-0.226554;0.387143;-0.158834;0.393979;0.0900143;0.141255;0.461547;-0.0976135;0.403348;-0.156423;-0.0471053;0.0569628;-0.217673;-0.007004;0.202109;-0.452879;-0.391751;-0.403378;0.235069;-0.346919;0.466857;0.118305;0.496673;0.030961;-0.0823847;-0.203879;0.0231788;-0.179678;0.296136;-0.13979;-0.0862911;-0.144612;0.205802;-0.317621;0.00645466;0.260674;-0.14449;0.388546;0.166433;0.212973;-0.101032;-0.0348369;0.0909299;0.15041;-0.0674612;0.391324;0.0384075;0.210013;0.307245;-0.172658;0.387906;0.175222;0.411649;0.391171;0.434446;-0.285882;0.0816828;-0.445921;0.327174;0.190298;0.293542;-0.313318;-0.443693;-0.173086;-0.203757;-0.213401;-0.104785;-0.494385;-0.160237;-0.0810419;0.203665;-0.0183264;-0.344966;0.40112;-0.00132756;-0.204001;-0.157643;0.262749;0.199545;-0.333979;0.324122;0.0126499;-0.0475936;-0.363765;0.0182348
0.243156;-0.0585192;-0.23043;-0.111408;0.104114;0.0929136;-0.338649;-0.471313;0.17687;0.077105;-0.44348;-0.0653249;-0.219901;-0.483428;0.351741;-0.375881;0.238578;0.304865;0.263421;-0.243217;0.145833;-0.0569933;0.443175;0.41345;0.152455;0.300012;0.32168;-0.310633;0.310968;-0.296808;-0.0377972;-0.241508;-0.491516;-0.234886;0.205374;-0.435789;0.0186926;-0.147145;-0.11391;0.293878;-0.296045;-0.393857;-0.0961486;0.29223;-0.100574;0.410794;0.428129;-0.428892;-0.490265;0.233055;0.019364;-0.429411;0.34994;-0.277978;-0.0523545;0.328578;0.261834;-0.014481;0.489685;-0.285211;0.0370037;-0.0538194;0.485382;-0.114368;-0.322352;-0.316126;-0.0641652;-0.384365;0.0265664;-0.329249;-0.0766778;-0.337519;0.297571;0.304895;-0.36523;-0.178732;-0.462554;-0.350642;-0.229789;-0.175466;-0.448912;-0.217643;0.116962;-0.255791;0.320368;-0.334956;-0.428587;0.0518967;0.448607;-0.0669118;0.389035;-0.00660726;-0.338252;-0.481475;-0.0557115;0.434111;-0.102618;-0.492401;-0.218497;-0.168783
0.0128025;0.14156;0.238182;0.48938;-0.356594;0.365932;0.421415;-0.24453;0.243217;-0.164907;-0.18038;0.309442;-0.162557;-0.221732;0.32992;0.206626;-0.479827;-0.367336;-0.0173498;-0.171194;0.226615;-0.148976;0.145009;0.399472;-0.187643;-0.211356;0.483734;0.219504;-0.0293435;0.0773492;0.469207;0.28048;0.018601;0.391507;-0.29809;0.410459;0.083636;0.0131077;-0.157888;-0.390255;-0.277978;0.102039;0.424345;-0.267907;0.499969;0.0774407;0.33813;0.167959;-0.431181;0.0167699;0.255852;-0.314142;-0.23394;0.478759;-0.210929;0.0884579;0.272271;-0.343806;-0.345332;-0.161184;0.356716;0.265435;-0.368038;0.314295;0.241508;0.0780206;-0.407773;-0.157033;-0.383572;-0.498444;0.381497;0.180197;-0.164541;0.115436;-0.161611;-0.419919;0.325922;-0.432218;-0.27224;0.119739;0.241935;-0.259575;-0.128285;0.430998;-0.106647;-0.412931;0.259026;0.497192;-0.0187841;-0.447905;0.414487;-0.329829;0.17101;-0.0245827;-0.190878;-0.435331;0.0352641;0.389889;-0.407132;-0.0145421
-0.103595;0.117725;0.430448;-0.455809;-0.398618;0.0718558;-0.277734;0.122211;-0.24105;0.1686;-0.00868252;-0.165395;0.471374;0.257988;-0.28283;-0.346767;0.0912046;-0.0220191;0.39877;0.343654;0.0351421;0.438505;0.126606;-0.126942;0.185263;0.142109;0.446226;-0.0549486;-0.0901364;0.0470443;-0.206015;-0.182424;0.234336;0.179189;0.286096;0.0604724;0.193838;-0.300958;0.142598;0.408506;-0.101062;-0.16979;-0.472594;0.366604;0.345241;-0.444975;0.0854976;-0.277032;0.498474;0.48471;-0.0413984;-0.37286;-0.313807;-0.191214;-0.439177;0.388119;-0.172506;-0.268426;-0.104938;-0.350093;-0.468383;0.300714;-0.30813;0.10036;-0.402768;0.0348064;0.151753;0.368831;-0.0568712;0.256127;-0.427763;0.270287;-0.498047;-0.465667;-0.359004;0.0508591;0.10799;0.148457;-0.323908;-0.208151;-0.0896786;-0.0282449;-0.404965;-0.371853;0.342891;-0.312372;-0.1068;-0.0627613;0.181906;-0.258873;0.413724;0.155171;-0.277001;-0.0666372;0.189138;0.376034;-0.391598;0.064745;0.137104;0.390469
0.335871;-0.466765;-0.109577;0.320063;-0.0196387;0.29397;-0.456725;-0.496185;0.160207;0.0862911;-0.405271;-0.207297;-0.221793;0.334925;-0.129231;-0.0915098;-0.430143;-0.369045;-0.294;0.0236061;-0.0110324;0.199362;0.166463;0.217856;0.462798;0.258721;-0.405393;-0.0319071;-0.452574;-0.319636;0.258019;0.327723;0.0148473;-0.147969;0.382504;-0.0483566;0.402768;0.153249;0.35168;-0.376736;0.0587939;-0.0521104;0.353359;0.439665;0.209799;-0.498871;0.254845;0.311121;0.0880917;-0.274071;-0.0122532;-0.0683157;-0.35461;0.166036;0.223899;-0.123707;-0.114032;0.121754;-0.376614;-0.0187536;0.350063;0.324305;0.436552;-0.335719;-0.220847;0.0652638;-0.259911;0.340144;0.494049;0.187613;0.0898312;-0.411893;-0.483123;-0.156117;-0.129872;0.22805;-0.0310221;0.428739;0.122486;-0.0396588;-0.225211;-0.409085;0.133229;-0.272881;0.204245;-0.267754;-0.437223;0.450102;0.283837;-0.101337;0.396817;0.301538;-0.39169;0.470397;-0.498901;0.165059;-0.415922;-0.443083;0.0611744;0.441771
-0.364772;-0.496277;-0.312311;-0.141438;0.403867;0.416135;0.469604;0.434507;0.475921;0.107135;-0.244865;0.261681;-0.336634;0.375607;-0.0565661;0.256859;0.37466;0.0203101;0.0662099;-0.45996;0.103839;0.496979;0.442473;-0.403897;-0.429472;-0.376217;0.186361;-0.12389;-0.458769;0.242363;-0.150166;-0.00587481;-0.13628;0.239647;-0.0185095;0.176077;-0.254631;-0.162343;-0.117634;0.116871;-0.192984;-0.442869;0.340632;-0.0981323;-0.056444;-0.239128;-0.374355;0.149068;-0.477844;0.183798;-0.476562;0.0282754;-0.0501877;0.355373;-0.305841;0.313562;0.141224;0.320917;0.133076;0.124928;-0.0815607;-0.431944;0.0164953;-0.484008;-0.12685;-0.435606;-0.286401;-0.436674;-0.276727;-0.187124;0.245506;0.114277;-0.305017;-0.169271;-0.0271157;-0.151051;-0.0387127;-0.0410627;-0.206595;-0.18688;-0.331568;0.407529;-0.3699;0.0780816;-0.418302;0.443815;0.492035;-0.316492;-0.118793;0.129322;-0.11156;-0.479919;0.13976;-0.48822;-0.122181;0.307428;0.0133213;-0.321436;-0.467254;0.324335
-0.324274;-0.422666;0.102191;0.0470748;-0.471282;0.011185;-0.347804;0.352168;0.218772;-0.286859;0.466521;0.439756;0.491546;-0.0924863;-0.0120396;0.134053;-0.0841853;0.263543;-0.417631;-0.282952;0.00749229;-0.352077;-0.0941954;-0.0484787;-0.214499;-0.417356;0.156697;0.449736;0.290368;-0.186239;-0.00618;0.0442366;0.0971252;-0.102069;0.401883;0.316919;0.35342;0.213004;0.285058;-0.0579394;0.374447;0.298212;0.0709403;0.000839259;0.325648;-0.068865;0.10509;-0.0779901;0.0246132;-0.153005;0.117817;0.206381;0.393399;-0.493164;-0.455199;-0.409665;-0.407773;-0.179128;-0.0177465;-0.194571;0.366634;0.232933;-0.441984;-0.410459;-0.361965;0.0727409;-0.499756;0.106586;-0.129597;-0.418119;-0.315851;0.430418;0.242973;-0.480041;0.439024;0.249626;0.161214;-0.243095;0.395749;0.449095;0.136921;-0.242088;-0.34286;-0.275048;-0.431578;0.367489;0.0713065;-0.111042;0.452849;-0.201987;-0.110065;0.0183569;-0.439299;0.230277;-0.407193;0.107929;0.105457;-0.0689261;0.159322;0.380276
0.437437;0.294916;-0.431486;-0.0897702;-0.204672;-0.284356;-0.190817;-0.279565;-0.354976;-0.305322;0.180532;0.00352489;-0.362331;0.0913266;0.165487;-0.372463;-0.281579;-0.0775933;-0.342616;-0.419004;0.416318;-0.383175;-0.178671;-0.48648;-0.152516;0.131245;0.371853;0.028367;0.462432;-0.166463;-0.452727;-0.116749;0.0684072;-0.439756;-0.436583;-0.244255;0.158742;-0.246361;-0.173696;-0.270959;0.0800348;0.0854976;-0.313746;0.154958;0.0682241;0.473388;0.0141758;0.0501267;-0.314631;-0.104419;0.381466;-0.318628;-0.312006;-0.0886105;0.124439;0.497284;-0.141987;0.292505;0.0750298;0.0610218;-0.171651;-0.327967;0.238609;0.142232;0.433439;-0.382534;0.200339;-0.377499;-0.383389;0.0335856;-0.458617;0.372311;0.425443;0.301691;0.0459456;-0.245781;0.125996;0.0615406;-0.0192114;-0.0900754;-0.0323954;0.0420392;0.228141;0.486267;-0.37054;-0.153066;-0.446715;-0.0428938;-0.120289;0.102008;-0.211447;0.197378;0.478912;-0.130421;0.213981;0.464995;-0.141011;-0.262719;-0.0829951;0.447295
